{"learner":{"attributes":{"scikit_learn":"{\"_estimator_type\": \"regressor\"}"},"feature_names":["pm25","pm25_lag1","pm25_lag2","pm25_lag7","pm25_roll7","day_of_week","month","station_id","temp_mean","humidity_mean","windspeed_mean","winddirection_mean","precipitation_sum"],"feature_types":["float","float","float","float","float","int","int","int","float","float","float","float","float"],"gradient_booster":{"model":{"cats":{"enc":[],"feature_segments":[],"sorted_idx":[]},"gbtree_model_param":{"num_parallel_tree":"1","num_trees":"150"},"iteration_indptr":[0,1,2,3,4,5,6,7,8,9,10,11,12,13,14,15,16,17,18,19,20,21,22,23,24,25,26,27,28,29,30,31,32,33,34,35,36,37,38,39,40,41,42,43,44,45,46,47,48,49,50,51,52,53,54,55,56,57,58,59,60,61,62,63,64,65,66,67,68,69,70,71,72,73,74,75,76,77,78,79,80,81,82,83,84,85,86,87,88,89,90,91,92,93,94,95,96,97,98,99,100,101,102,103,104,105,106,107,108,109,110,111,112,113,114,115,116,117,118,119,120,121,122,123,124,125,126,127,128,129,130,131,132,133,134,135,136,137,138,139,140,141,142,143,144,145,146,147,148,149,150],"tree_info":[0,0,0,0,0,0,0,0,0,0,0,0,0,0,0,0,0,0,0,0,0,0,0,0,0,0,0,0,0,0,0,0,0,0,0,0,0,0,0,0,0,0,0,0,0,0,0,0,0,0,0,0,0,0,0,0,0,0,0,0,0,0,0,0,0,0,0,0,0,0,0,0,0,0,0,0,0,0,0,0,0,0,0,0,0,0,0,0,0,0,0,0,0,0,0,0,0,0,0,0,0,0,0,0,0,0,0,0,0,0,0,0,0,0,0,0,0,0,0,0,0,0,0,0,0,0,0,0,0,0,0,0,0,0,0,0,0,0,0,0,0,0,0,0,0,0,0,0,0,0],"trees":[{"base_weights":[3.6332906E-6,-3.4213276E1,9.460894E1,-4.9319714E1,-9.870197E0,7.1614845E1,1.466918E2,-5.9836876E1,-3.7640373E1,-1.5784749E1,4.4048016E1,6.0540257E1,1.0261159E2,1.110986E2,1.643514E2,-6.025045E1,8.41647E1,-3.296396E1,-4.830141E1,1.8709085E1,-1.8801842E1,1.7043211E1,7.387838E1,6.329844E1,-5.05718E1,7.112312E1,1.2207073E2,7.7933044E1,1.5060846E2,1.3249835E2,1.7998607E2,-5.2773604E0,-6.3729634E0,2.2151947E-1,1.072624E1,-3.5136266E0,-1.2967383E0,-5.240915E0,-4.4822936E0,1.3986241E0,8.064097E0,-2.3389518E0,-8.6421984E-1,2.1312487E0,-3.6625264E0,5.5225964E0,1.185817E1,4.5187864E0,7.8520617E0,-8.1402336E1,9.928188E0,1.3978296E1,5.5892005E0,9.641104E0,1.47352085E1,9.913831E0,3.9054077E0,8.155993E0,1.6518955E1,1.400669E1,7.787703E0,2.0162657E1,1.56462555E1],"categories":[],"categories_nodes":[],"categories_segments":[],"categories_sizes":[],"default_left":[0,0,0,0,0,0,0,0,0,0,0,0,0,0,0,0,0,0,0,0,0,0,0,0,0,0,0,0,0,0,0,0,0,0,0,0,0,0,0,0,0,0,0,0,0,0,0,0,0,0,0,0,0,0,0,0,0,0,0,0,0,0,0],"id":0,"left_children":[1,3,5,7,9,11,13,15,17,19,21,23,25,27,29,31,33,35,37,39,41,43,45,47,49,51,53,55,57,59,61,-1,-1,-1,-1,-1,-1,-1,-1,-1,-1,-1,-1,-1,-1,-1,-1,-1,-1,-1,-1,-1,-1,-1,-1,-1,-1,-1,-1,-1,-1,-1,-1],"loss_changes":[4.0707028E7,3.395933E6,3.989468E6,6.97776E5,1.1289708E6,7.89846E5,6.24132E5,1.83559E5,1.3316725E5,3.322343E5,2.8068794E5,5.27567E5,3.64476E5,4.36408E5,3.15298E5,7.439E4,1.6797988E4,8.1295875E4,9.396125E3,7.404329E4,1.3650262E5,4.3168797E4,1.3186619E5,4.56842E5,4.8858705E6,2.3794225E5,2.290605E5,1.5112262E5,1.4258175E5,8.33485E4,1.99565E5,0E0,0E0,0E0,0E0,0E0,0E0,0E0,0E0,0E0,0E0,0E0,0E0,0E0,0E0,0E0,0E0,0E0,0E0,0E0,0E0,0E0,0E0,0E0,0E0,0E0,0E0,0E0,0E0,0E0,0E0,0E0,0E0],"parents":[2147483647,0,0,1,1,2,2,3,3,4,4,5,5,6,6,7,7,8,8,9,9,10,10,11,11,12,12,13,13,14,14,15,15,16,16,17,17,18,18,19,19,20,20,21,21,22,22,23,23,24,24,25,25,26,26,27,27,28,28,29,29,30,30],"right_children":[2,4,6,8,10,12,14,16,18,20,22,24,26,28,30,32,34,36,38,40,42,44,46,48,50,52,54,56,58,60,62,-1,-1,-1,-1,-1,-1,-1,-1,-1,-1,-1,-1,-1,-1,-1,-1,-1,-1,-1,-1,-1,-1,-1,-1,-1,-1,-1,-1,-1,-1,-1,-1],"split_conditions":[1.1962857E2,6.204286E1,2.23E2,4.0442856E1,1E1,2.06E2,2.0820833E2,1.1E1,7E-1,1.79875E1,1.09E2,2.2228572E2,1.1E1,4E0,2.52E2,4E-1,8.02E0,1E1,4.28E1,1.48E2,8.73E1,3E-1,2.70625E1,1.42E2,5E0,1.3208333E1,2.2228572E2,7.7208336E1,2.0625E0,2.0420834E1,5.6041665E0,-5.2773604E0,-6.3729634E0,2.2151947E-1,1.072624E1,-3.5136266E0,-1.2967383E0,-5.240915E0,-4.4822936E0,1.3986241E0,8.064097E0,-2.3389518E0,-8.6421984E-1,2.1312487E0,-3.6625264E0,5.5225964E0,1.185817E1,4.5187864E0,7.8520617E0,-8.1402336E1,9.928188E0,1.3978296E1,5.5892005E0,9.641104E0,1.47352085E1,9.913831E0,3.9054077E0,8.155993E0,1.6518955E1,1.400669E1,7.787703E0,2.0162657E1,1.56462555E1],"split_indices":[4,4,0,4,6,2,11,6,12,8,0,4,6,5,0,12,2,6,0,2,0,12,8,0,7,8,4,9,10,8,10,0,0,0,0,0,0,0,0,0,0,0,0,0,0,0,0,0,0,0,0,0,0,0,0,0,0,0,0,0,0,0,0],"split_type":[0,0,0,0,0,0,0,0,0,0,0,0,0,0,0,0,0,0,0,0,0,0,0,0,0,0,0,0,0,0,0,0,0,0,0,0,0,0,0,0,0,0,0,0,0,0,0,0,0,0,0,0,0,0,0,0,0,0,0,0,0,0,0],"sum_hessian":[1.2574E4,9.235E3,3.339E3,5.698E3,3.537E3,2.318E3,1.021E3,2.996E3,2.702E3,3.188E3,3.49E2,1.71E3,6.08E2,3.41E2,6.8E2,2.988E3,8E0,1.881E3,8.21E2,2.56E2,2.932E3,1.84E2,1.65E2,1.669E3,4.1E1,2.34E2,3.74E2,1.87E2,1.54E2,2.27E2,4.53E2,9.54E2,2.034E3,2E0,6E0,1.696E3,1.85E2,3.7E2,4.51E2,2.39E2,1.7E1,2.019E3,9.13E2,1.71E2,1.3E1,1.18E2,4.7E1,7.64E2,9.05E2,6E0,3.5E1,4.1E1,1.93E2,1.88E2,1.86E2,1.2E2,6.7E1,2.8E1,1.26E2,1.98E2,2.9E1,2.32E2,2.21E2],"tree_param":{"num_deleted":"0","num_feature":"13","num_nodes":"63","size_leaf_vector":"1"}},{"base_weights":[6.986015E-3,-3.0791204E1,8.517228E1,-4.620654E1,-1.131623E1,6.3641262E1,1.3041632E2,-5.4828056E1,-3.6702293E1,-1.6262075E1,3.690952E1,4.323604E1,7.7823746E1,9.8972176E1,1.458914E2,-5.5248146E1,7.696465E1,-2.6279758E1,-4.0639896E1,-2.123047E1,1.2593862E0,1.3935756E1,6.612794E1,1.0226592E2,3.0945862E1,8.105754E1,-1.7765814E2,6.9749306E1,1.3350415E2,1.17736084E2,1.6206633E2,-4.651506E0,-5.744738E0,2.0675151E-1,9.806848E0,-3.3618467E0,-1.8483359E0,-4.3185496E0,-2.5523918E0,-2.5164583E0,-1.4310501E0,2.046129E0,-8.2214445E-1,1.8390505E0,-3.2751946E0,1.041323E1,4.8521433E0,6.970923E0,1.1912618E1,1.6124734E0,4.65935E0,7.330617E0,1.3131044E1,-1.3508348E2,6.8821054E0,8.904441E0,3.4524896E0,9.607976E0,1.5928078E1,1.2742385E1,6.453153E0,1.7035833E1,1.0789913E1],"categories":[],"categories_nodes":[],"categories_segments":[],"categories_sizes":[],"default_left":[0,0,0,0,0,0,0,0,0,0,0,0,0,0,0,0,0,0,0,0,0,0,0,0,0,0,0,0,0,0,0,0,0,0,0,0,0,0,0,0,0,0,0,0,0,0,0,0,0,0,0,0,0,0,0,0,0,0,0,0,0,0,0],"id":1,"left_children":[1,3,5,7,9,11,13,15,17,19,21,23,25,27,29,31,33,35,37,39,41,43,45,47,49,51,53,55,57,59,61,-1,-1,-1,-1,-1,-1,-1,-1,-1,-1,-1,-1,-1,-1,-1,-1,-1,-1,-1,-1,-1,-1,-1,-1,-1,-1,-1,-1,-1,-1,-1,-1],"loss_changes":[3.2986056E7,2.772247E6,3.24536E6,4.20394E5,9.7422725E5,6.52119E5,5.09142E5,1.537925E5,9.968475E4,3.2238588E5,2.5415616E5,6.722644E5,1.1173435E6,3.519545E5,3.08359E5,4.905E4,1.4022781E4,3.805625E4,6.739075E4,7.8181E4,1.4926716E5,4.5110465E4,1.06691E5,7.9522E4,1.7828756E5,5.04162E5,5.0087475E6,1.30138875E5,1.4193825E5,1.2888225E5,1.85535E5,0E0,0E0,0E0,0E0,0E0,0E0,0E0,0E0,0E0,0E0,0E0,0E0,0E0,0E0,0E0,0E0,0E0,0E0,0E0,0E0,0E0,0E0,0E0,0E0,0E0,0E0,0E0,0E0,0E0,0E0,0E0,0E0],"parents":[2147483647,0,0,1,1,2,2,3,3,4,4,5,5,6,6,7,7,8,8,9,9,10,10,11,11,12,12,13,13,14,14,15,15,16,16,17,17,18,18,19,19,20,20,21,21,22,22,23,23,24,24,25,25,26,26,27,27,28,28,29,29,30,30],"right_children":[2,4,6,8,10,12,14,16,18,20,22,24,26,28,30,32,34,36,38,40,42,44,46,48,50,52,54,56,58,60,62,-1,-1,-1,-1,-1,-1,-1,-1,-1,-1,-1,-1,-1,-1,-1,-1,-1,-1,-1,-1,-1,-1,-1,-1,-1,-1,-1,-1,-1,-1,-1,-1],"split_conditions":[1.1962857E2,5.774286E1,2.2E2,3.8185715E1,1E1,6E0,2.1329167E2,1.1E1,4.5375E1,9.1942856E1,1.09E2,1.2091666E1,3.0633334E2,4E0,2.52E2,6.6833336E1,8.02E0,2.5879166E2,1E1,2.59625E2,2.005E1,5E-1,3.0291667E0,1.5171428E2,2.815E2,2.2642857E2,5E0,7.7208336E1,2.1542857E2,2.03125E1,7.125E0,-4.651506E0,-5.744738E0,2.0675151E-1,9.806848E0,-3.3618467E0,-1.8483359E0,-4.3185496E0,-2.5523918E0,-2.5164583E0,-1.4310501E0,2.046129E0,-8.2214445E-1,1.8390505E0,-3.2751946E0,1.041323E1,4.8521433E0,6.970923E0,1.1912618E1,1.6124734E0,4.65935E0,7.330617E0,1.3131044E1,-1.3508348E2,6.8821054E0,8.904441E0,3.4524896E0,9.607976E0,1.5928078E1,1.2742385E1,6.453153E0,1.7035833E1,1.0789913E1],"split_indices":[4,4,0,4,6,6,11,6,9,4,0,8,11,5,0,9,2,11,6,11,8,12,10,4,11,4,7,9,4,8,10,0,0,0,0,0,0,0,0,0,0,0,0,0,0,0,0,0,0,0,0,0,0,0,0,0,0,0,0,0,0,0,0],"split_type":[0,0,0,0,0,0,0,0,0,0,0,0,0,0,0,0,0,0,0,0,0,0,0,0,0,0,0,0,0,0,0,0,0,0,0,0,0,0,0,0,0,0,0,0,0,0,0,0,0,0,0,0,0,0,0,0,0,0,0,0,0,0,0],"sum_hessian":[1.2574E4,9.235E3,3.339E3,5.154E3,4.081E3,2.264E3,1.075E3,2.7E3,2.454E3,3.702E3,3.79E2,9.3E2,1.334E3,3.57E2,7.18E2,2.692E3,8E0,6.75E2,1.779E3,2.884E3,8.18E2,2.13E2,1.66E2,1.59E2,7.71E2,1.318E3,1.6E1,1.95E2,1.62E2,2.65E2,4.53E2,5.46E2,2.146E3,2E0,6E0,3.46E2,3.29E2,1.521E3,2.58E2,1.837E3,1.047E3,2.7E2,5.48E2,1.95E2,1.8E1,5.1E1,1.15E2,5.6E1,1.03E2,3.97E2,3.74E2,1.144E3,1.74E2,2E0,1.4E1,1.25E2,7E1,6.8E1,9.4E1,2.23E2,4.2E1,3.91E2,6.2E1],"tree_param":{"num_deleted":"0","num_feature":"13","num_nodes":"63","size_leaf_vector":"1"}},{"base_weights":[6.3643567E-3,-2.856045E1,7.4437325E1,-4.4810566E1,-1.4439293E1,5.5211357E1,1.1742581E2,-5.0336536E1,-3.7366714E1,-1.9673101E1,1.1663821E1,3.7811188E1,7.176373E1,8.91762E1,1.3136766E2,-5.0487183E1,5.3352917E1,-3.7730312E1,6.136398E1,-2.5531591E1,-1.1818878E1,-7.07206E-1,5.3080772E1,4.210238E1,-7.643548E1,5.0593323E1,9.073927E1,6.296275E1,1.20310394E2,1.19864174E2,1.6416386E2,-5.5123053E0,-4.6885276E0,6.79598E0,4.7661287E-1,-3.2954E0,-4.4180846E0,1.9296823E-1,8.475177E0,-3.120157E0,-2.055088E0,-1.3113295E0,1.0147903E0,1.8876911E0,-7.34509E-1,3.6298757E0,9.712109E0,2.5067468E0,5.61892E0,1.9019423E0,-2.0427708E2,1.0036494E1,4.1831875E0,9.655398E0,4.1180944E0,8.026826E0,3.112103E0,4.1215906E0,1.2984477E1,1.27509775E1,6.7994957E0,1.5087108E1,2.0971725E1],"categories":[],"categories_nodes":[],"categories_segments":[],"categories_sizes":[],"default_left":[0,0,0,0,0,0,0,0,0,0,0,0,0,0,0,0,0,0,0,0,0,0,0,0,0,0,0,0,0,0,0,0,0,0,0,0,0,0,0,0,0,0,0,0,0,0,0,0,0,0,0,0,0,0,0,0,0,0,0,0,0,0,0],"id":2,"left_children":[1,3,5,7,9,11,13,15,17,19,21,23,25,27,29,31,33,35,37,39,41,43,45,47,49,51,53,55,57,59,61,-1,-1,-1,-1,-1,-1,-1,-1,-1,-1,-1,-1,-1,-1,-1,-1,-1,-1,-1,-1,-1,-1,-1,-1,-1,-1,-1,-1,-1,-1,-1,-1],"loss_changes":[2.6739788E7,2.08478E6,2.876334E6,1.71912E5,6.647428E5,6.91977E5,4.12465E5,4.0527E4,6.70755E4,1.8614662E5,4.165945E5,5.807379E5,4.915335E5,2.854175E5,2.51579E5,3.7808E4,2.5149014E3,5.394025E4,9.566711E3,6.487675E4,4.9409453E4,8.1646836E4,1.3468362E5,2.7119488E5,8.109795E6,2.5133925E5,1.833325E5,1.0605631E5,1.1756925E5,2.03893E5,7.97775E4,0E0,0E0,0E0,0E0,0E0,0E0,0E0,0E0,0E0,0E0,0E0,0E0,0E0,0E0,0E0,0E0,0E0,0E0,0E0,0E0,0E0,0E0,0E0,0E0,0E0,0E0,0E0,0E0,0E0,0E0,0E0,0E0],"parents":[2147483647,0,0,1,1,2,2,3,3,4,4,5,5,6,6,7,7,8,8,9,9,10,10,11,11,12,12,13,13,14,14,15,15,16,16,17,17,18,18,19,19,20,20,21,21,22,22,23,23,24,24,25,25,26,26,27,27,28,28,29,29,30,30],"right_children":[2,4,6,8,10,12,14,16,18,20,22,24,26,28,30,32,34,36,38,40,42,44,46,48,50,52,54,56,58,60,62,-1,-1,-1,-1,-1,-1,-1,-1,-1,-1,-1,-1,-1,-1,-1,-1,-1,-1,-1,-1,-1,-1,-1,-1,-1,-1,-1,-1,-1,-1,-1,-1],"split_conditions":[1.1488571E2,5.0557144E1,2.2E2,3.49E1,9.87E1,1.63E2,2.1329167E2,1.5E2,1.1E1,2.45E2,1E1,3.0633334E2,1.1E1,4E0,3.06E2,2.7057142E1,8.02E0,5E-1,8.02E0,6.3557144E1,3.305E1,2.1695833E1,2.70625E1,6E0,2.2642857E2,1.1433333E1,7.7E1,7.7208336E1,1.42E2,2.03125E1,2.9058334E2,-5.5123053E0,-4.6885276E0,6.79598E0,4.7661287E-1,-3.2954E0,-4.4180846E0,1.9296823E-1,8.475177E0,-3.120157E0,-2.055088E0,-1.3113295E0,1.0147903E0,1.8876911E0,-7.34509E-1,3.6298757E0,9.712109E0,2.5067468E0,5.61892E0,1.9019423E0,-2.0427708E2,1.0036494E1,4.1831875E0,9.655398E0,4.1180944E0,8.026826E0,3.112103E0,4.1215906E0,1.2984477E1,1.27509775E1,6.7994957E0,1.5087108E1,2.0971725E1],"split_indices":[4,4,0,0,0,3,11,2,6,11,6,11,6,5,0,4,0,12,2,4,8,8,8,6,4,8,9,9,2,8,11,0,0,0,0,0,0,0,0,0,0,0,0,0,0,0,0,0,0,0,0,0,0,0,0,0,0,0,0,0,0,0,0],"split_type":[0,0,0,0,0,0,0,0,0,0,0,0,0,0,0,0,0,0,0,0,0,0,0,0,0,0,0,0,0,0,0,0,0,0,0,0,0,0,0,0,0,0,0,0,0,0,0,0,0,0,0,0,0,0,0,0,0,0,0,0,0,0,0],"sum_hessian":[1.2574E4,9.087E3,3.487E3,4.224E3,4.863E3,2.411E3,1.076E3,2.421E3,1.803E3,4.051E3,8.12E2,1.177E3,1.234E3,3.58E2,7.18E2,2.418E3,3E0,1.797E3,6E0,2.319E3,1.732E3,6.26E2,1.86E2,1.135E3,4.2E1,5.85E2,6.49E2,1.96E2,1.62E2,5.35E2,1.83E2,1.051E3,1.367E3,2E0,1E0,1.036E3,7.61E2,2E0,4E0,1.082E3,1.237E3,1.636E3,9.6E1,1.58E2,4.68E2,1.36E2,5E1,5.15E2,6.2E2,4.1E1,1E0,8.6E1,4.99E2,5.8E2,6.9E1,1.26E2,7E1,1.8E1,1.44E2,4.65E2,7E1,1.45E2,3.8E1],"tree_param":{"num_deleted":"0","num_feature":"13","num_nodes":"63","size_leaf_vector":"1"}},{"base_weights":[-2.6363303E-4,-2.4961756E1,6.902499E1,-3.6086384E1,-7.035181E0,5.264556E1,1.08644165E2,-4.3061607E1,-2.6562906E1,-1.1432621E1,3.305188E1,4.3740807E1,7.918095E1,1.17464294E2,6.457999E1,-4.3345158E1,6.506097E1,-2.2899786E1,-3.5417606E1,2.692646E0,-1.6085249E1,7.338222E1,2.2707218E1,4.6616955E1,-3.2552673E1,5.7343437E1,9.933789E1,1.2259719E2,5.1088715E1,8.3903465E1,2.6495087E1,-4.7279143E0,-3.8487053E0,1.8010356E-1,8.287794E0,-2.4714608E0,-6.2161183E-1,-2.5716705E0,-3.6870344E0,3.8267496E0,-1.03232816E-1,-1.8282378E0,-5.506551E-1,2.0922656E0,1.0705537E1,5.8007663E-1,3.4985986E0,3.7655008E0,7.153154E0,2.5238192E0,-7.310907E1,4.7680817E0,9.723521E0,1.3930919E1,9.17594E0,4.331552E0,1.275751E1,2.9623904E0,9.95275E0,9.922568E0,1.8800777E0,1.1859343E0,8.662099E0],"categories":[],"categories_nodes":[],"categories_segments":[],"categories_sizes":[],"default_left":[0,0,0,0,0,0,0,0,0,0,0,0,0,0,0,0,0,0,0,0,0,0,0,0,0,0,0,0,0,0,0,0,0,0,0,0,0,0,0,0,0,0,0,0,0,0,0,0,0,0,0,0,0,0,0,0,0,0,0,0,0,0,0],"id":3,"left_children":[1,3,5,7,9,11,13,15,17,19,21,23,25,27,29,31,33,35,37,39,41,43,45,47,49,51,53,55,57,59,61,-1,-1,-1,-1,-1,-1,-1,-1,-1,-1,-1,-1,-1,-1,-1,-1,-1,-1,-1,-1,-1,-1,-1,-1,-1,-1,-1,-1,-1,-1,-1,-1],"loss_changes":[2.1668112E7,1.841649E6,2.161737E6,3.77432E5,6.240582E5,5.55365E5,3.71739E5,1.036235E5,7.7424E4,2.0962312E5,1.4435503E5,3.90569E5,2.5532875E5,2.70383E5,1.1920594E5,6.08665E4,9.994641E3,5.1591312E4,8.9731875E3,1.0485918E5,5.565875E4,1.2318009E5,5.792236E4,3.788975E5,2.6424438E6,1.0599056E5,8.02145E4,2.91651E5,5.9435375E4,1.06863875E5,4.9132008E4,0E0,0E0,0E0,0E0,0E0,0E0,0E0,0E0,0E0,0E0,0E0,0E0,0E0,0E0,0E0,0E0,0E0,0E0,0E0,0E0,0E0,0E0,0E0,0E0,0E0,0E0,0E0,0E0,0E0,0E0,0E0,0E0],"parents":[2147483647,0,0,1,1,2,2,3,3,4,4,5,5,6,6,7,7,8,8,9,9,10,10,11,11,12,12,13,13,14,14,15,15,16,16,17,17,18,18,19,19,20,20,21,21,22,22,23,23,24,24,25,25,26,26,27,27,28,28,29,29,30,30],"right_children":[2,4,6,8,10,12,14,16,18,20,22,24,26,28,30,32,34,36,38,40,42,44,46,48,50,52,54,56,58,60,62,-1,-1,-1,-1,-1,-1,-1,-1,-1,-1,-1,-1,-1,-1,-1,-1,-1,-1,-1,-1,-1,-1,-1,-1,-1,-1,-1,-1,-1,-1,-1,-1],"split_conditions":[1.1962857E2,6.204286E1,2.27E2,4.3E1,1E1,2.23E2,7.9708336E1,1.1E1,7E-1,3E0,3.0291667E0,3.0633334E2,1.1E1,2.4741667E1,6.5875E0,3.06E1,8.02E0,1E1,9.55E1,1.3816667E1,9.79E1,2.6783333E1,8.584286E1,1.82E2,2.2642857E2,8.5083336E1,1.38E2,2.3208334E0,2.7658333E1,1.46125E1,8.3583336E1,-4.7279143E0,-3.8487053E0,1.8010356E-1,8.287794E0,-2.4714608E0,-6.2161183E-1,-2.5716705E0,-3.6870344E0,3.8267496E0,-1.03232816E-1,-1.8282378E0,-5.506551E-1,2.0922656E0,1.0705537E1,5.8007663E-1,3.4985986E0,3.7655008E0,7.153154E0,2.5238192E0,-7.310907E1,4.7680817E0,9.723521E0,1.3930919E1,9.17594E0,4.331552E0,1.275751E1,2.9623904E0,9.95275E0,9.922568E0,1.8800777E0,1.1859343E0,8.662099E0],"split_indices":[4,4,0,4,6,3,9,6,12,6,10,11,6,8,10,0,2,6,11,8,0,8,4,0,4,9,1,10,8,8,9,0,0,0,0,0,0,0,0,0,0,0,0,0,0,0,0,0,0,0,0,0,0,0,0,0,0,0,0,0,0,0,0],"split_type":[0,0,0,0,0,0,0,0,0,0,0,0,0,0,0,0,0,0,0,0,0,0,0,0,0,0,0,0,0,0,0,0,0,0,0,0,0,0,0,0,0,0,0,0,0,0,0,0,0,0,0,0,0,0,0,0,0,0,0,0,0,0,0],"sum_hessian":[1.2574E4,9.235E3,3.339E3,5.698E3,3.537E3,2.364E3,9.75E2,3.287E3,2.411E3,3.188E3,3.49E2,1.772E3,5.92E2,8.11E2,1.64E2,3.279E3,8E0,1.708E3,7.03E2,7.9E2,2.398E3,7E1,2.79E2,1.708E3,6.4E1,2.86E2,3.06E2,7.52E2,5.9E1,1.08E2,5.6E1,1.807E3,1.472E3,2E0,6E0,1.54E3,1.68E2,9.4E1,6.09E2,7.4E1,7.16E2,1.985E3,4.13E2,2.8E1,4.2E1,1.18E2,1.61E2,1.258E3,4.5E2,6E1,4E0,2.32E2,5.4E1,4.6E1,2.6E2,4.5E1,7.07E2,4.2E1,1.7E1,8.7E1,2.1E1,4.6E1,1E1],"tree_param":{"num_deleted":"0","num_feature":"13","num_nodes":"63","size_leaf_vector":"1"}},{"base_weights":[2.812006E-3,-2.314816E1,6.032278E1,-3.638345E1,-1.1646878E1,4.5717182E1,9.781402E1,-4.1068325E1,-3.015817E1,-1.594733E1,9.800943E0,2.4927986E1,5.646728E1,1.0572265E2,5.8253204E1,-4.1391735E1,7.5774117E0,-2.2005764E1,-3.2420307E1,-2.0972763E1,-9.210486E0,-3.3744934E-1,4.3741966E1,1.45657E1,3.992649E1,3.7047577E1,6.756332E1,6.3758152E1,1.1275582E2,8.714355E1,3.550472E1,-3.609515E0,-4.350105E0,4.711096E-1,-2.2992084E0,-3.315315E0,-1.3965331E0,-5.711706E-1,-2.2425559E0,-1.0420073E0,1.1297781E0,-5.3652406E-1,2.1170814E0,8.026931E0,2.9453998E0,4.1521416E0,7.5412166E-1,3.1683242E0,7.770669E0,4.364099E0,-1.2411166E1,5.0288997E0,7.933114E0,1.2838142E1,4.2463284E0,3.9078133E0,1.1779647E1,1.133881E1,1.8007338E0,8.985812E0,1.9600312E0],"categories":[],"categories_nodes":[],"categories_segments":[],"categories_sizes":[],"default_left":[0,0,0,0,0,0,0,0,0,0,0,0,0,0,0,0,0,0,0,0,0,0,0,0,0,0,0,0,0,0,0,0,0,0,0,0,0,0,0,0,0,0,0,0,0,0,0,0,0,0,0,0,0,0,0,0,0,0,0,0,0],"id":4,"left_children":[1,3,5,7,9,11,13,15,17,19,21,23,25,27,29,31,-1,33,35,37,39,41,43,45,47,49,51,53,55,57,59,-1,-1,-1,-1,-1,-1,-1,-1,-1,-1,-1,-1,-1,-1,-1,-1,-1,-1,-1,-1,-1,-1,-1,-1,-1,-1,-1,-1,-1,-1],"loss_changes":[1.7561956E7,1.3829775E6,1.905494E6,1.21982E5,4.4878888E5,5.599885E5,2.99517E5,9.412975E4,3.2814E4,1.369895E5,2.797741E5,1.3276781E5,3.5412E5,2.32762E5,1.05345875E5,2.526525E4,0E0,1.05961875E4,1.8755375E4,5.130925E4,4.310739E4,6.7916766E4,9.523134E4,9.606601E4,1.06539E5,6.4722044E5,2.09862E5,1.5830962E5,2.53509E5,1.285985E5,7.949788E4,0E0,0E0,0E0,0E0,0E0,0E0,0E0,0E0,0E0,0E0,0E0,0E0,0E0,0E0,0E0,0E0,0E0,0E0,0E0,0E0,0E0,0E0,0E0,0E0,0E0,0E0,0E0,0E0,0E0,0E0],"parents":[2147483647,0,0,1,1,2,2,3,3,4,4,5,5,6,6,7,7,8,8,9,9,10,10,11,11,12,12,13,13,14,14,15,15,17,17,18,18,19,19,20,20,21,21,22,22,23,23,24,24,25,25,26,26,27,27,28,28,29,29,30,30],"right_children":[2,4,6,8,10,12,14,16,18,20,22,24,26,28,30,32,-1,34,36,38,40,42,44,46,48,50,52,54,56,58,60,-1,-1,-1,-1,-1,-1,-1,-1,-1,-1,-1,-1,-1,-1,-1,-1,-1,-1,-1,-1,-1,-1,-1,-1,-1,-1,-1,-1,-1,-1],"split_conditions":[1.1488571E2,5.0557144E1,2.27E2,3.5914288E1,9.87E1,1.465E2,7.9708336E1,7.56E1,4.5375E1,2.45E2,1E1,6E0,1.63E2,1.1E1,4.2875E0,4E-1,7.5774117E0,2.1E1,2.9916666E2,4.3958335E0,3.305E1,2.7479166E2,3.0291667E0,1.3816667E1,1.71E2,3.045E2,1.1E1,1.4870833E1,2.3208334E0,1.46125E1,1.3E1,-3.609515E0,-4.350105E0,4.711096E-1,-2.2992084E0,-3.315315E0,-1.3965331E0,-5.711706E-1,-2.2425559E0,-1.0420073E0,1.1297781E0,-5.3652406E-1,2.1170814E0,8.026931E0,2.9453998E0,4.1521416E0,7.5412166E-1,3.1683242E0,7.770669E0,4.364099E0,-1.2411166E1,5.0288997E0,7.933114E0,1.2838142E1,4.2463284E0,3.9078133E0,1.1779647E1,1.133881E1,1.8007338E0,8.985812E0,1.9600312E0],"split_indices":[4,4,0,4,0,4,9,2,9,11,6,6,3,6,10,12,0,0,11,10,8,11,10,8,0,11,6,8,10,8,8,0,0,0,0,0,0,0,0,0,0,0,0,0,0,0,0,0,0,0,0,0,0,0,0,0,0,0,0,0,0],"split_type":[0,0,0,0,0,0,0,0,0,0,0,0,0,0,0,0,0,0,0,0,0,0,0,0,0,0,0,0,0,0,0,0,0,0,0,0,0,0,0,0,0,0,0,0,0,0,0,0,0,0,0,0,0,0,0,0,0,0,0,0,0],"sum_hessian":[1.2574E4,9.087E3,3.487E3,4.224E3,4.863E3,2.511E3,9.76E2,2.407E3,1.817E3,4.051E3,8.12E2,8.57E2,1.654E3,8.12E2,1.64E2,2.401E3,6E0,3.97E2,1.42E3,2.319E3,1.732E3,6.26E2,1.86E2,5.08E2,3.49E2,6.03E2,1.051E3,1.18E2,6.94E2,7.1E1,9.3E1,6.89E2,1.712E3,1.4E1,3.83E2,1.365E3,5.5E1,2.02E2,2.117E3,1.636E3,9.6E1,5.08E2,1.18E2,5.1E1,1.35E2,1.04E2,4.04E2,2.88E2,6.1E1,5.8E2,2.3E1,4.28E2,6.23E2,2.8E1,9E1,4.5E1,6.49E2,5.1E1,2E1,2E1,7.3E1],"tree_param":{"num_deleted":"0","num_feature":"13","num_nodes":"61","size_leaf_vector":"1"}},{"base_weights":[8.933542E-3,-2.1235052E1,5.328778E1,-3.2746742E1,-1.1027766E1,3.593197E1,8.028622E1,-3.716033E1,-2.7331522E1,-1.625893E1,2.1160436E0,2.0899067E1,4.9282246E1,6.917061E1,1.0834968E2,-3.7283543E1,4.3653755E1,-1.6644754E1,-2.96153E1,-2.0064728E1,-1.0058694E1,4.754149E1,-1.5717142E0,4.735704E1,9.052811E0,4.4242367E1,1.00376915E2,3.7798782E1,8.084603E1,4.3789135E1,1.1390503E2,-3.7876282E0,-1.9974779E0,5.2852345E0,8.0289954E-1,-1.8851055E0,2.3503082E0,-2.6889007E0,-3.4597652E0,-2.2656372E0,-1.3228916E0,-1.1796265E0,1.3413744E0,2.359412E0,8.562072E0,-7.154079E-1,1.5651722E0,2.5446708E0,6.2177076E0,-1.7875502E0,1.4541447E0,4.57425E0,-8.983129E0,1.1878589E1,6.712154E0,5.1306677E0,-2.910549E1,5.1621194E0,9.232631E0,1.7338158E0,5.298583E0,1.1888309E1,4.461783E0],"categories":[],"categories_nodes":[],"categories_segments":[],"categories_sizes":[],"default_left":[0,0,0,0,0,0,0,0,0,0,0,0,0,0,0,0,0,0,0,0,0,0,0,0,0,0,0,0,0,0,0,0,0,0,0,0,0,0,0,0,0,0,0,0,0,0,0,0,0,0,0,0,0,0,0,0,0,0,0,0,0,0,0],"id":5,"left_children":[1,3,5,7,9,11,13,15,17,19,21,23,25,27,29,31,33,35,37,39,41,43,45,47,49,51,53,55,57,59,61,-1,-1,-1,-1,-1,-1,-1,-1,-1,-1,-1,-1,-1,-1,-1,-1,-1,-1,-1,-1,-1,-1,-1,-1,-1,-1,-1,-1,-1,-1,-1,-1],"loss_changes":[1.423421E7,1.0561092E6,1.676973E6,9.99645E4,3.2780088E5,4.3728425E5,4.29849E5,2.477775E4,4.590325E4,8.026344E4,2.275642E5,3.2208866E5,2.9324175E5,3.65787E5,1.3704E5,2.306625E4,8.8643896E2,3.0293922E4,2.03275E4,3.7116438E4,5.313797E4,9.099344E4,1.2096939E5,1.0167619E5,1.05493336E5,2.16099E5,5.508325E4,1.2365161E6,2.41162E5,7.108957E3,1.20245E5,0E0,0E0,0E0,0E0,0E0,0E0,0E0,0E0,0E0,0E0,0E0,0E0,0E0,0E0,0E0,0E0,0E0,0E0,0E0,0E0,0E0,0E0,0E0,0E0,0E0,0E0,0E0,0E0,0E0,0E0,0E0,0E0],"parents":[2147483647,0,0,1,1,2,2,3,3,4,4,5,5,6,6,7,7,8,8,9,9,10,10,11,11,12,12,13,13,14,14,15,15,16,16,17,17,18,18,19,19,20,20,21,21,22,22,23,23,24,24,25,25,26,26,27,27,28,28,29,29,30,30],"right_children":[2,4,6,8,10,12,14,16,18,20,22,24,26,28,30,32,34,36,38,40,42,44,46,48,50,52,54,56,58,60,62,-1,-1,-1,-1,-1,-1,-1,-1,-1,-1,-1,-1,-1,-1,-1,-1,-1,-1,-1,-1,-1,-1,-1,-1,-1,-1,-1,-1,-1,-1,-1,-1],"split_conditions":[1.1158572E2,5.0557144E1,1.96E2,3.41E1,8.37E1,7E0,2.87E2,1.5E2,2.6529167E1,2.5695834E2,3.65E0,1.3816667E1,2.2642857E2,1.5E2,2.3208334E0,2.9204166E2,8.02E0,7.63E1,7.4541664E1,7.2685715E1,3.305E1,2.6783333E1,2.755E2,1.25E2,1.3683333E2,2.2228572E2,1.7783333E1,3.0633334E2,2.2575E2,2.81E2,8.3125E1,-3.7876282E0,-1.9974779E0,5.2852345E0,8.0289954E-1,-1.8851055E0,2.3503082E0,-2.6889007E0,-3.4597652E0,-2.2656372E0,-1.3228916E0,-1.1796265E0,1.3413744E0,2.359412E0,8.562072E0,-7.154079E-1,1.5651722E0,2.5446708E0,6.2177076E0,-1.7875502E0,1.4541447E0,4.57425E0,-8.983129E0,1.1878589E1,6.712154E0,5.1306677E0,-2.910549E1,5.1621194E0,9.232631E0,1.7338158E0,5.298583E0,1.1888309E1,4.461783E0],"split_indices":[4,4,0,0,0,6,0,2,8,11,10,8,4,3,10,11,0,0,9,4,8,8,11,1,11,4,8,11,11,1,9,0,0,0,0,0,0,0,0,0,0,0,0,0,0,0,0,0,0,0,0,0,0,0,0,0,0,0,0,0,0,0,0],"split_type":[0,0,0,0,0,0,0,0,0,0,0,0,0,0,0,0,0,0,0,0,0,0,0,0,0,0,0,0,0,0,0,0,0,0,0,0,0,0,0,0,0,0,0,0,0,0,0,0,0,0,0,0,0,0,0,0,0,0,0,0,0,0,0],"sum_hessian":[1.2574E4,8.99E3,3.584E3,4.224E3,4.766E3,2.183E3,1.401E3,2.324E3,1.9E3,3.409E3,1.357E3,1.028E3,1.155E3,1.006E3,3.95E2,2.321E3,3E0,3.36E2,1.564E3,2.111E3,1.298E3,1.01E2,1.256E3,3.17E2,7.11E2,1.053E3,1.02E2,2.74E2,7.32E2,3.2E1,3.63E2,2.243E3,7.8E1,2E0,1E0,3.19E2,1.7E1,1.015E3,5.49E2,1.529E3,5.82E2,1.209E3,8.9E1,6.3E1,3.8E1,9.49E2,3.07E2,1.29E2,1.88E2,1.2E2,5.91E2,1.042E3,1.1E1,6.4E1,3.8E1,2.64E2,1E1,2.08E2,5.24E2,9E0,2.3E1,3.38E2,2.5E1],"tree_param":{"num_deleted":"0","num_feature":"13","num_nodes":"63","size_leaf_vector":"1"}},{"base_weights":[1.1172153E-2,-1.7857904E1,5.1436424E1,-2.6787941E1,-4.644298E0,4.1523705E1,8.8120834E1,-3.369106E1,-2.1633034E1,2.992955E0,-1.7145176E1,3.4733536E1,6.752548E1,9.652663E1,4.745896E1,-3.3781666E1,4.9328856E0,-1.801821E1,-2.649274E1,-2.5230577E0,2.4747473E1,4.3510857E0,-1.888965E1,2.1246498E1,4.4585922E1,4.2092957E1,7.886845E1,3.382038E1,1.01195366E2,6.362385E1,1.5923603E1,-3.678508E0,-3.106267E0,-1.9820575E0,8.585871E-1,-9.622807E-1,-2.7442882E0,3.181188E0,-4.0587446E-1,1.8101689E0,6.4062777E0,-5.710982E-1,1.8037156E0,-1.5471536E0,-2.4312122E0,2.5564039E0,-3.8888187E1,2.4162471E0,5.1250567E0,1.1107047E1,2.9564369E0,7.319787E0,1.354133E1,1.6609796E0,4.942047E0,1.3836204E1,9.254981E0,7.702684E0,1.3923341E0,4.9179092E-1,9.638216E0],"categories":[],"categories_nodes":[],"categories_segments":[],"categories_sizes":[],"default_left":[0,0,0,0,0,0,0,0,0,0,0,0,0,0,0,0,0,0,0,0,0,0,0,0,0,0,0,0,0,0,0,0,0,0,0,0,0,0,0,0,0,0,0,0,0,0,0,0,0,0,0,0,0,0,0,0,0,0,0,0,0],"id":6,"left_children":[1,3,5,7,9,11,13,15,17,19,21,23,25,27,29,31,-1,33,35,37,39,41,43,45,47,49,51,53,55,57,59,-1,-1,-1,-1,-1,-1,-1,-1,-1,-1,-1,-1,-1,-1,-1,-1,-1,-1,-1,-1,-1,-1,-1,-1,-1,-1,-1,-1,-1,-1],"loss_changes":[1.1556359E7,1.1011508E6,1.175633E6,1.9744375E5,3.595048E5,4.48756E5,2.309155E5,1.956125E4,5.5579E4,2.8061822E5,5.363172E4,2.685325E5,1.4899775E5,1.634505E5,6.015875E4,1.826875E4,0E0,8.8063E4,2.1519188E4,9.851902E4,1.2242628E5,1.4975705E4,2.4108125E4,1.529241E6,1.5815225E5,1.3930775E5,1.0680175E5,1.018709E4,1.57498E5,5.155222E4,3.6717098E4,0E0,0E0,0E0,0E0,0E0,0E0,0E0,0E0,0E0,0E0,0E0,0E0,0E0,0E0,0E0,0E0,0E0,0E0,0E0,0E0,0E0,0E0,0E0,0E0,0E0,0E0,0E0,0E0,0E0,0E0],"parents":[2147483647,0,0,1,1,2,2,3,3,4,4,5,5,6,6,7,7,8,8,9,9,10,10,11,11,12,12,13,13,14,14,15,15,17,17,18,18,19,19,20,20,21,21,22,22,23,23,24,24,25,25,26,26,27,27,28,28,29,29,30,30],"right_children":[2,4,6,8,10,12,14,16,18,20,22,24,26,28,30,32,-1,34,36,38,40,42,44,46,48,50,52,54,56,58,60,-1,-1,-1,-1,-1,-1,-1,-1,-1,-1,-1,-1,-1,-1,-1,-1,-1,-1,-1,-1,-1,-1,-1,-1,-1,-1,-1,-1,-1,-1],"split_conditions":[1.2341428E2,5.9E1,2.52E2,3.5914288E1,2.81375E1,2.31E2,7.8458336E1,7.56E1,6E0,1E1,1.375E1,1.54E2,1.1E1,2.3208334E0,5.925E0,2.7057142E1,4.9328856E0,3.4716667E1,2.4054167E1,1.3816667E1,2.70625E1,6.977143E1,4.7125E1,2.2985715E2,2.2575E2,1.3E1,3.67E2,3.29E2,3.65E0,1.46125E1,2.83125E2,-3.678508E0,-3.106267E0,-1.9820575E0,8.585871E-1,-9.622807E-1,-2.7442882E0,3.181188E0,-4.0587446E-1,1.8101689E0,6.4062777E0,-5.710982E-1,1.8037156E0,-1.5471536E0,-2.4312122E0,2.5564039E0,-3.8888187E1,2.4162471E0,5.1250567E0,1.1107047E1,2.9564369E0,7.319787E0,1.354133E1,1.6609796E0,4.942047E0,1.3836204E1,9.254981E0,7.702684E0,1.3923341E0,4.9179092E-1,9.638216E0],"split_indices":[4,0,0,4,8,2,9,2,6,6,9,3,6,10,10,4,0,8,8,8,8,4,9,4,11,8,2,1,10,8,11,0,0,0,0,0,0,0,0,0,0,0,0,0,0,0,0,0,0,0,0,0,0,0,0,0,0,0,0,0,0],"split_type":[0,0,0,0,0,0,0,0,0,0,0,0,0,0,0,0,0,0,0,0,0,0,0,0,0,0,0,0,0,0,0,0,0,0,0,0,0,0,0,0,0,0,0,0,0,0,0,0,0,0,0,0,0,0,0,0,0,0,0,0,0],"sum_hessian":[1.2574E4,9.332E3,3.242E3,5.568E3,3.764E3,2.554E3,6.88E2,2.378E3,3.19E3,2.337E3,1.427E3,2.027E3,5.27E2,5.69E2,1.19E2,2.376E3,2E0,1.832E3,1.358E3,1.865E3,4.72E2,1.07E2,1.32E3,8.57E2,1.17E3,1.64E2,3.63E2,4E1,5.29E2,7.8E1,4.1E1,1.123E3,1.253E3,1.716E3,1.16E2,7.3E1,1.285E3,7.9E1,1.786E3,4.05E2,6.7E1,6.2E1,4.5E1,8.12E2,5.08E2,8.49E2,8E0,2.89E2,8.81E2,2.4E1,1.4E2,3.32E2,3.1E1,2E1,2E1,9.7E1,4.32E2,6.1E1,1.7E1,3.7E1,4E0],"tree_param":{"num_deleted":"0","num_feature":"13","num_nodes":"61","size_leaf_vector":"1"}},{"base_weights":[1.4557609E-2,-1.7411924E1,4.2845272E1,-2.6622047E1,-9.155257E0,2.8547314E1,6.556521E1,-2.2516605E1,-3.0844957E1,-1.2838644E1,3.313779E0,1.577181E1,4.01519E1,5.8043915E1,9.36434E1,-2.7758078E1,-1.9834005E1,5.0514913E0,-3.0986795E1,-1.6141783E1,-7.3280454E0,-2.0917706E0,2.8531721E1,3.8309204E1,5.9530334E0,3.597625E1,8.305912E1,3.3278965E1,6.7216934E1,8.543832E1,1.4531168E2,-1.8885988E0,-2.9003694E0,6.1454144E0,-2.0049016E0,-3.4213696E0,-2.8863032E0,-1.83253E0,-9.4694775E-1,6.94043E-1,-9.5970404E-1,-6.922044E-1,1.1339124E0,7.931938E0,2.2755573E0,1.7111584E0,5.0590606E0,-4.0469584E-1,1.743871E0,3.7335732E0,-8.676941E0,1.0194106E1,5.7445827E0,4.5373054E0,-2.6277592E1,4.376413E0,7.5313387E0,3.7310216E0,9.16345E0,1.9327864E1,1.1956471E1],"categories":[],"categories_nodes":[],"categories_segments":[],"categories_sizes":[],"default_left":[0,0,0,0,0,0,0,0,0,0,0,0,0,0,0,0,0,0,0,0,0,0,0,0,0,0,0,0,0,0,0,0,0,0,0,0,0,0,0,0,0,0,0,0,0,0,0,0,0,0,0,0,0,0,0,0,0,0,0,0,0],"id":7,"left_children":[1,3,5,7,9,11,13,15,17,19,21,23,25,27,29,31,33,-1,35,37,39,41,43,45,47,49,51,53,55,57,59,-1,-1,-1,-1,-1,-1,-1,-1,-1,-1,-1,-1,-1,-1,-1,-1,-1,-1,-1,-1,-1,-1,-1,-1,-1,-1,-1,-1,-1,-1],"loss_changes":[9.386583E6,6.7952175E5,1.179603E6,7.2554E4,2.1659444E5,3.3056725E5,2.910675E5,2.9623875E4,2.5568125E4,6.6138E4,1.467366E5,2.354454E5,2.066355E5,2.4992075E5,1.1264775E5,7.4533125E3,2.6103312E4,0E0,1.32465E4,3.2971125E4,4.4290984E4,5.762251E4,5.3932875E4,8.3223E4,8.540907E4,1.8145712E5,4.3957625E4,1.0932381E6,1.503205E5,7.322125E4,2.5055875E4,0E0,0E0,0E0,0E0,0E0,0E0,0E0,0E0,0E0,0E0,0E0,0E0,0E0,0E0,0E0,0E0,0E0,0E0,0E0,0E0,0E0,0E0,0E0,0E0,0E0,0E0,0E0,0E0,0E0,0E0],"parents":[2147483647,0,0,1,1,2,2,3,3,4,4,5,5,6,6,7,7,8,8,9,9,10,10,11,11,12,12,13,13,14,14,15,15,16,16,18,18,19,19,20,20,21,21,22,22,23,23,24,24,25,25,26,26,27,27,28,28,29,29,30,30],"right_children":[2,4,6,8,10,12,14,16,18,20,22,24,26,28,30,32,34,-1,36,38,40,42,44,46,48,50,52,54,56,58,60,-1,-1,-1,-1,-1,-1,-1,-1,-1,-1,-1,-1,-1,-1,-1,-1,-1,-1,-1,-1,-1,-1,-1,-1,-1,-1,-1,-1,-1,-1],"split_conditions":[1.0997143E2,5.0557144E1,1.96E2,7.5458336E1,8.91E1,7E0,3.06E2,3.1E1,1.5079166E1,2.59625E2,1E1,1.3816667E1,2.2642857E2,1.5E2,2.9058334E2,4.4375E1,1.3908571E1,5.0514913E0,2.7057142E1,8.28E1,2.6858334E2,5E0,2.5916667E0,1.19E2,2.755E2,2.2228572E2,1.7366667E1,1.48E2,2.1329167E2,2.3208334E0,5.5583332E1,-1.8885988E0,-2.9003694E0,6.1454144E0,-2.0049016E0,-3.4213696E0,-2.8863032E0,-1.83253E0,-9.4694775E-1,6.94043E-1,-9.5970404E-1,-6.922044E-1,1.1339124E0,7.931938E0,2.2755573E0,1.7111584E0,5.0590606E0,-4.0469584E-1,1.743871E0,3.7335732E0,-8.676941E0,1.0194106E1,5.7445827E0,4.5373054E0,-2.6277592E1,4.376413E0,7.5313387E0,3.7310216E0,9.16345E0,1.9327864E1,1.1956471E1],"split_indices":[4,4,0,9,0,6,0,1,8,11,6,8,4,3,11,9,4,0,4,3,11,5,10,1,11,4,8,3,11,10,9,0,0,0,0,0,0,0,0,0,0,0,0,0,0,0,0,0,0,0,0,0,0,0,0,0,0,0,0,0,0],"split_type":[0,0,0,0,0,0,0,0,0,0,0,0,0,0,0,0,0,0,0,0,0,0,0,0,0,0,0,0,0,0,0,0,0,0,0,0,0,0,0,0,0,0,0,0,0,0,0,0,0,0,0,0,0,0,0,0,0,0,0,0,0],"sum_hessian":[1.2574E4,8.938E3,3.636E3,4.224E3,4.714E3,2.233E3,1.403E3,2.145E3,2.079E3,3.639E3,1.075E3,1.064E3,1.169E3,1.109E3,2.94E2,7.23E2,1.422E3,3E0,2.076E3,2.274E3,1.365E3,8.86E2,1.89E2,3.22E2,7.42E2,1.067E3,1.02E2,3.01E2,8.08E2,2.56E2,3.8E1,9.1E1,6.32E2,3E0,1.419E3,8.18E2,1.258E3,1.712E3,5.62E2,1.87E2,1.178E3,6.52E2,2.34E2,1.8E1,1.71E2,1.19E2,2.03E2,3.97E2,3.45E2,1.056E3,1.1E1,5.7E1,4.5E1,2.9E2,1.1E1,2.09E2,5.99E2,3E1,2.26E2,1.1E1,2.7E1],"tree_param":{"num_deleted":"0","num_feature":"13","num_nodes":"61","size_leaf_vector":"1"}},{"base_weights":[1.7804503E-2,-1.3021083E1,4.654195E1,-1.8930319E1,5.6840754E0,3.7913937E1,7.2534386E1,-2.5376234E1,-1.3429799E1,4.2881794E-2,2.5933023E1,3.0535433E1,5.3140167E1,6.777179E1,1.3296782E2,-2.5559454E1,4.7229908E1,-1.1180864E1,-2.0493649E1,-5.224854E0,1.1725433E1,9.29364E0,3.758288E1,3.305439E1,-3.2677433E1,3.8136242E1,6.3073147E1,9.9565346E1,5.9103992E1,1.1779199E2,2.4295662E1,-2.1104221E0,-2.7977333E0,3.594569E-1,5.918364E0,-1.245116E0,3.079848E-1,-2.614558E0,-1.7126261E0,-1.4322575E0,-1.7866603E-1,9.144117E-1,5.004777E0,3.3553357E0,3.490507E-1,2.3564246E0,6.149274E0,1.5689425E0,4.0351286E0,-4.2265068E1,3.4396253E0,2.9267354E0,7.323406E0,1.06042E1,5.711915E0,1.149644E1,6.011848E0,7.655928E0,3.57456E0,1.2175136E1,2.1777122E0],"categories":[],"categories_nodes":[],"categories_segments":[],"categories_sizes":[],"default_left":[0,0,0,0,0,0,0,0,0,0,0,0,0,0,0,0,0,0,0,0,0,0,0,0,0,0,0,0,0,0,0,0,0,0,0,0,0,0,0,0,0,0,0,0,0,0,0,0,0,0,0,0,0,0,0,0,0,0,0,0,0],"id":8,"left_children":[1,3,5,7,9,11,13,15,17,19,21,23,25,27,29,31,33,35,37,39,41,43,45,47,49,51,53,55,57,59,-1,-1,-1,-1,-1,-1,-1,-1,-1,-1,-1,-1,-1,-1,-1,-1,-1,-1,-1,-1,-1,-1,-1,-1,-1,-1,-1,-1,-1,-1,-1],"loss_changes":[7.6288915E6,1.0858754E6,6.14646E5,2.64337E5,2.694633E5,2.30823E5,1.8814525E5,4.6916E4,6.3792E4,1.1366522E5,9.928778E4,2.2336588E5,9.8043375E4,1.6965975E5,5.3170938E4,3.633675E4,4.481707E3,5.5453062E4,1.8051531E4,3.9793504E4,5.6323617E4,2.9869525E4,9.977644E4,1.69539E5,1.4270124E6,8.221316E4,9.7300875E4,7.5093625E4,2.0235025E5,1.445575E4,0E0,0E0,0E0,0E0,0E0,0E0,0E0,0E0,0E0,0E0,0E0,0E0,0E0,0E0,0E0,0E0,0E0,0E0,0E0,0E0,0E0,0E0,0E0,0E0,0E0,0E0,0E0,0E0,0E0,0E0,0E0],"parents":[2147483647,0,0,1,1,2,2,3,3,4,4,5,5,6,6,7,7,8,8,9,9,10,10,11,11,12,12,13,13,14,14,15,15,16,16,17,17,18,18,19,19,20,20,21,21,22,22,23,23,24,24,25,25,26,26,27,27,28,28,29,29],"right_children":[2,4,6,8,10,12,14,16,18,20,22,24,26,28,30,32,34,36,38,40,42,44,46,48,50,52,54,56,58,60,-1,-1,-1,-1,-1,-1,-1,-1,-1,-1,-1,-1,-1,-1,-1,-1,-1,-1,-1,-1,-1,-1,-1,-1,-1,-1,-1,-1,-1,-1,-1],"split_conditions":[1.4128572E2,7.987143E1,2.52E2,4.412857E1,7E0,2.23E2,2.9916666E2,1.1E1,7E-1,6.1541668E1,3E0,3.0633334E2,1.1E1,5.0416668E1,2.81E2,4E-1,8.02E0,1E1,6.0333332E1,1.8070833E2,1.65E2,1.4125E2,1.4E2,2.2575E2,5E0,8.5083336E1,1.38E2,2.03E1,4.3083334E0,2.305E1,2.4295662E1,-2.1104221E0,-2.7977333E0,3.594569E-1,5.918364E0,-1.245116E0,3.079848E-1,-2.614558E0,-1.7126261E0,-1.4322575E0,-1.7866603E-1,9.144117E-1,5.004777E0,3.3553357E0,3.490507E-1,2.3564246E0,6.149274E0,1.5689425E0,4.0351286E0,-4.2265068E1,3.4396253E0,2.9267354E0,7.323406E0,1.06042E1,5.711915E0,1.149644E1,6.011848E0,7.655928E0,3.57456E0,1.2175136E1,2.1777122E0],"split_indices":[4,4,0,4,6,3,11,6,12,9,5,11,6,9,2,12,2,6,9,11,2,11,0,11,7,9,1,8,10,8,0,0,0,0,0,0,0,0,0,0,0,0,0,0,0,0,0,0,0,0,0,0,0,0,0,0,0,0,0,0,0],"split_type":[0,0,0,0,0,0,0,0,0,0,0,0,0,0,0,0,0,0,0,0,0,0,0,0,0,0,0,0,0,0,0,0,0,0,0,0,0,0,0,0,0,0,0,0,0,0,0,0,0,0,0,0,0,0,0,0,0,0,0,0,0],"sum_hessian":[1.2574E4,9.822E3,2.752E3,7.464E3,2.358E3,2.068E3,6.84E2,3.435E3,4.029E3,1.845E3,5.13E2,1.395E3,6.73E2,6.36E2,4.8E1,3.427E3,8E0,3.058E3,9.71E2,1.272E3,5.73E2,2.12E2,3.01E2,1.342E3,5.3E1,2.7E2,4.03E2,1.34E2,5.02E2,4.4E1,4E0,1.209E3,2.218E3,2E0,6E0,2.808E3,2.5E2,3.6E2,6.11E2,3.48E2,9.24E2,5.38E2,3.5E1,4E1,1.72E2,1.91E2,1.1E2,3.98E2,9.44E2,7E0,4.6E1,2.17E2,5.3E1,4.7E1,3.56E2,9.5E1,3.9E1,2.86E2,2.16E2,4.2E1,2E0],"tree_param":{"num_deleted":"0","num_feature":"13","num_nodes":"61","size_leaf_vector":"1"}},{"base_weights":[2.1857776E-2,-1.508556E1,3.2614883E1,-2.0665369E1,-7.421868E0,1.9029863E1,5.062455E1,-2.1431528E1,-3.0535832E-2,-1.9931264E0,-1.4025506E1,9.950103E0,3.016507E1,4.511248E1,7.684069E1,-2.4538914E1,-1.6999075E1,9.830527E1,-1.8916018E1,-4.8888845E0,1.279379E1,4.2023277E0,-1.5280003E1,-5.2037054E-1,2.1456219E1,3.307345E1,-2.3523165E1,4.710716E1,-2.1311049E1,6.9752205E1,1.2176344E2,7.4755174E-1,-2.4839935E0,-1.789872E0,-6.1451584E-1,6.305257E0,1.5898015E1,-1.5090312E0,-3.5182858E0,-7.1199316E-1,6.3081616E-1,3.9765418E-1,2.960553E0,1.3021201E-1,3.9567108E0,-1.4545534E0,-3.1598728E0,9.9828905E-1,-1.3929309E0,1.540264E0,5.4097095E0,2.119797E0,5.4846845E0,-4.745237E1,1.302734E0,3.1784866E0,5.7936034E0,-6.952452E1,6.792531E0,3.5070531E0,7.7715516E0,1.2861987E1,2.9614742E0],"categories":[],"categories_nodes":[],"categories_segments":[],"categories_sizes":[],"default_left":[0,0,0,0,0,0,0,0,0,0,0,0,0,0,0,0,0,0,0,0,0,0,0,0,0,0,0,0,0,0,0,0,0,0,0,0,0,0,0,0,0,0,0,0,0,0,0,0,0,0,0,0,0,0,0,0,0,0,0,0,0,0,0],"id":9,"left_children":[1,3,5,7,9,11,13,15,17,19,21,23,25,27,29,31,33,35,37,39,41,43,45,47,49,51,53,55,57,59,61,-1,-1,-1,-1,-1,-1,-1,-1,-1,-1,-1,-1,-1,-1,-1,-1,-1,-1,-1,-1,-1,-1,-1,-1,-1,-1,-1,-1,-1,-1,-1,-1],"loss_changes":[6.1923775E6,3.673E5,9.735245E5,7.86045E4,1.2981872E5,2.2941044E5,2.43926E5,6.56125E4,3.3428388E5,8.52302E4,3.742847E4,1.5096572E5,1.6004669E5,1.88747E5,8.5763375E4,2.73235E4,1.9214312E4,5.2005562E4,8.866133E3,4.1613516E4,4.820632E4,1.0820391E4,1.7866406E4,9.266933E4,1.1713044E5,2.4913262E5,8.7984944E5,2.26469E5,2.5730808E6,6.8529125E4,2.0831562E4,0E0,0E0,0E0,0E0,0E0,0E0,0E0,0E0,0E0,0E0,0E0,0E0,0E0,0E0,0E0,0E0,0E0,0E0,0E0,0E0,0E0,0E0,0E0,0E0,0E0,0E0,0E0,0E0,0E0,0E0,0E0,0E0],"parents":[2147483647,0,0,1,1,2,2,3,3,4,4,5,5,6,6,7,7,8,8,9,9,10,10,11,11,12,12,13,13,14,14,15,15,16,16,17,17,18,18,19,19,20,20,21,21,22,22,23,23,24,24,25,25,26,26,27,27,28,28,29,29,30,30],"right_children":[2,4,6,8,10,12,14,16,18,20,22,24,26,28,30,32,34,36,38,40,42,44,46,48,50,52,54,56,58,60,62,-1,-1,-1,-1,-1,-1,-1,-1,-1,-1,-1,-1,-1,-1,-1,-1,-1,-1,-1,-1,-1,-1,-1,-1,-1,-1,-1,-1,-1,-1,-1,-1],"split_conditions":[9.9328575E1,5.34E1,1.79E2,3.4716667E1,2.81375E1,7E0,3.06E2,3.67E1,3.4758335E1,1E1,1.375E1,2.8116666E2,7.7E1,3.0633334E2,2.9058334E2,1.7829166E1,7.2685715E1,3.25E1,3.8916668E1,2.7070833E1,7.99E1,1.13E2,1E1,5.8125E0,8.5083336E1,5.9708332E1,5E0,2.59E2,5E0,2.31E2,3.44E2,7.4755174E-1,-2.4839935E0,-1.789872E0,-6.1451584E-1,6.305257E0,1.5898015E1,-1.5090312E0,-3.5182858E0,-7.1199316E-1,6.3081616E-1,3.9765418E-1,2.960553E0,1.3021201E-1,3.9567108E0,-1.4545534E0,-3.1598728E0,9.9828905E-1,-1.3929309E0,1.540264E0,5.4097095E0,2.119797E0,5.4846845E0,-4.745237E1,1.302734E0,3.1784866E0,5.7936034E0,-6.952452E1,6.792531E0,3.5070531E0,7.7715516E0,1.2861987E1,2.9614742E0],"split_indices":[4,0,0,8,8,6,0,0,8,6,9,11,9,11,11,8,4,0,9,8,2,0,6,10,9,9,7,11,7,1,1,0,0,0,0,0,0,0,0,0,0,0,0,0,0,0,0,0,0,0,0,0,0,0,0,0,0,0,0,0,0,0,0],"split_type":[0,0,0,0,0,0,0,0,0,0,0,0,0,0,0,0,0,0,0,0,0,0,0,0,0,0,0,0,0,0,0,0,0,0,0,0,0,0,0,0,0,0,0,0,0,0,0,0,0,0,0,0,0,0,0,0,0,0,0,0,0,0,0],"sum_hessian":[1.2574E4,8.592E3,3.982E3,4.971E3,3.621E3,2.271E3,1.711E3,4.793E3,1.78E2,1.988E3,1.633E3,1.252E3,1.019E3,1.416E3,2.95E2,2.815E3,1.978E3,2.8E1,1.5E2,1.663E3,3.25E2,1.05E2,1.528E3,6.56E2,5.96E2,9.67E2,5.2E1,1.375E3,4.1E1,2.57E2,3.8E1,2.6E1,2.789E3,1.826E3,1.52E2,1.9E1,9E0,1.23E2,2.7E1,1.387E3,2.76E2,2.14E2,1.11E2,9.8E1,7E0,1.464E3,6.4E1,3.68E2,2.88E2,5.04E2,9.2E1,6.27E2,3.4E2,3E0,4.9E1,5.71E2,8.04E2,4E0,3.7E1,4.9E1,2.08E2,3.5E1,3E0],"tree_param":{"num_deleted":"0","num_feature":"13","num_nodes":"63","size_leaf_vector":"1"}},{"base_weights":[1.6262894E-2,-1.0606815E1,3.7920544E1,-1.5099898E1,5.6378436E0,3.0769373E1,5.9464855E1,-2.0359945E1,-1.017473E1,3.819059E1,2.8655837E0,2.6264198E1,5.179975E1,4.5612053E1,7.751597E1,-1.7207624E1,-2.3151493E1,-8.76859E0,-1.6231216E1,8.555626E0,6.53428E1,-2.011594E0,1.8233461E1,2.8222048E1,-7.384804E1,4.03453E1,6.843425E1,3.790152E1,8.9094734E1,9.686925E1,5.4035126E1,-1.1567156E0,-1.8689823E0,-2.3233297E0,3.822865E0,-1.4937799E-1,-1.00135E0,-2.9231627E0,-1.3189623E0,-4.1611886E-1,1.9343884E0,3.4592323E0,8.74063E0,1.1740432E0,-4.6200237E-1,2.2814651E-1,2.8291855E0,6.1766033E0,2.5286865E0,3.1639662E0,-1.1392716E2,3.2708325E0,6.4095855E0,2.9518888E0,7.7342753E0,2.333136E0,6.195961E0,9.809745E0,3.6072013E0,7.162008E0,1.2867002E1,4.0964766E0,9.204136E0],"categories":[],"categories_nodes":[],"categories_segments":[],"categories_sizes":[],"default_left":[0,0,0,0,0,0,0,0,0,0,0,0,0,0,0,0,0,0,0,0,0,0,0,0,0,0,0,0,0,0,0,0,0,0,0,0,0,0,0,0,0,0,0,0,0,0,0,0,0,0,0,0,0,0,0,0,0,0,0,0,0,0,0],"id":10,"left_children":[1,3,5,7,9,11,13,15,17,19,21,23,25,27,29,31,33,35,37,39,41,43,45,47,49,51,53,55,57,59,61,-1,-1,-1,-1,-1,-1,-1,-1,-1,-1,-1,-1,-1,-1,-1,-1,-1,-1,-1,-1,-1,-1,-1,-1,-1,-1,-1,-1,-1,-1,-1,-1],"loss_changes":[5.0638535E6,7.170521E5,4.2231725E5,1.9914438E5,1.920215E5,1.94668E5,1.6775425E5,3.2337125E4,3.3718344E4,1.3381827E5,1.4716719E5,3.3646812E5,6.659525E4,1.2738031E5,1.29277375E5,1.4422656E4,1.0779625E4,2.9228422E4,2.9191844E4,1.1193066E4,5.600272E4,5.3538188E4,7.5828984E4,1.6325625E5,3.7448855E6,3.7444875E4,4.86785E4,1.1528097E5,2.4147594E4,1.20058375E5,6.378822E4,0E0,0E0,0E0,0E0,0E0,0E0,0E0,0E0,0E0,0E0,0E0,0E0,0E0,0E0,0E0,0E0,0E0,0E0,0E0,0E0,0E0,0E0,0E0,0E0,0E0,0E0,0E0,0E0,0E0,0E0,0E0,0E0],"parents":[2147483647,0,0,1,1,2,2,3,3,4,4,5,5,6,6,7,7,8,8,9,9,10,10,11,11,12,12,13,13,14,14,15,15,16,16,17,17,18,18,19,19,20,20,21,21,22,22,23,23,24,24,25,25,26,26,27,27,28,28,29,29,30,30],"right_children":[2,4,6,8,10,12,14,16,18,20,22,24,26,28,30,32,34,36,38,40,42,44,46,48,50,52,54,56,58,60,62,-1,-1,-1,-1,-1,-1,-1,-1,-1,-1,-1,-1,-1,-1,-1,-1,-1,-1,-1,-1,-1,-1,-1,-1,-1,-1,-1,-1,-1,-1,-1,-1],"split_conditions":[1.4128572E2,8.37E1,2.52E2,4.674286E1,3.65E0,2.3371428E2,4E0,7.5458336E1,1.2E0,4E0,2.84E2,2.2985715E2,2.81E2,2.9058334E2,6.8916664E1,4.5375E1,1.33E2,5.266667E0,5.3958332E1,2.3045833E2,1.4E2,1E0,3E0,1.2091666E1,3.0354166E2,3.07E2,4E0,3.06E2,3.3E1,6.075E1,3.19E2,-1.1567156E0,-1.8689823E0,-2.3233297E0,3.822865E0,-1.4937799E-1,-1.00135E0,-2.9231627E0,-1.3189623E0,-4.1611886E-1,1.9343884E0,3.4592323E0,8.74063E0,1.1740432E0,-4.6200237E-1,2.2814651E-1,2.8291855E0,6.1766033E0,2.5286865E0,3.1639662E0,-1.1392716E2,3.2708325E0,6.4095855E0,2.9518888E0,7.7342753E0,2.333136E0,6.195961E0,9.809745E0,3.6072013E0,7.162008E0,1.2867002E1,4.0964766E0,9.204136E0],"split_indices":[4,0,0,4,10,4,5,9,12,5,11,4,2,11,9,9,2,10,9,11,0,5,5,8,11,3,6,1,7,9,3,0,0,0,0,0,0,0,0,0,0,0,0,0,0,0,0,0,0,0,0,0,0,0,0,0,0,0,0,0,0,0,0],"split_type":[0,0,0,0,0,0,0,0,0,0,0,0,0,0,0,0,0,0,0,0,0,0,0,0,0,0,0,0,0,0,0,0,0,0,0,0,0,0,0,0,0,0,0,0,0,0,0,0,0,0,0,0,0,0,0,0,0,0,0,0,0,0,0],"sum_hessian":[1.2574E4,9.822E3,2.752E3,7.694E3,2.128E3,2.068E3,6.84E2,3.719E3,3.975E3,1.66E2,1.962E3,1.705E3,3.63E2,3.89E2,2.95E2,1.75E3,1.969E3,3.228E3,7.47E2,8E1,8.6E1,1.49E3,4.72E2,1.673E3,3.2E1,2.17E2,1.46E2,3.32E2,5.7E1,1.6E2,1.35E2,3.66E2,1.384E3,1.967E3,2E0,4.72E2,2.756E3,1.4E2,6.07E2,3.7E1,4.3E1,3.7E1,4.9E1,2.37E2,1.253E3,1.83E2,2.89E2,1.33E2,1.54E3,3E1,2E0,1.66E2,5.1E1,2.8E1,1.18E2,2.08E2,1.24E2,4.8E1,9E0,9.1E1,6.9E1,1.02E2,3.3E1],"tree_param":{"num_deleted":"0","num_feature":"13","num_nodes":"63","size_leaf_vector":"1"}},{"base_weights":[1.3376781E-2,-1.1546964E1,2.8338587E1,-1.59984455E1,-3.7758944E0,1.4521312E1,3.9214516E1,-7.915254E0,-1.7807138E1,-5.0057373E0,1.7632195E1,3.650817E0,2.4769602E1,3.3883347E1,6.2176754E1,-1.1670395E1,-4.0050006E0,-1.8844202E1,-6.6169014E0,3.175164E-1,-7.5411367E0,2.1037367E1,-2.694362E1,1.2835884E0,4.4249214E1,-1.8713587E1,2.9194948E1,2.3891422E1,4.614274E1,1.5909519E1,6.620622E1,2.3115284E0,-1.2798189E0,2.442546E0,-1.022309E0,-2.063767E0,-1.5568674E0,-2.4724066E-1,-3.452345E0,-5.5838414E-2,2.9483116E0,-6.273682E-1,-1.9325017E0,2.7477782E0,-3.669254E-1,3.0747864E0,-3.4313564E0,1.0193682E0,-3.5168228E-1,9.486657E-2,4.992169E0,-3.165097E0,4.687016E-2,1.52567E0,4.445326E0,-1.532851E0,2.915918E0,2.5505517E0,5.411851E0,-6.9950193E-1,2.1464221E0,9.00503E0,5.5425143E0],"categories":[],"categories_nodes":[],"categories_segments":[],"categories_sizes":[],"default_left":[0,0,0,0,0,0,0,0,0,0,0,0,0,0,0,0,0,0,0,0,0,0,0,0,0,0,0,0,0,0,0,0,0,0,0,0,0,0,0,0,0,0,0,0,0,0,0,0,0,0,0,0,0,0,0,0,0,0,0,0,0,0,0],"id":11,"left_children":[1,3,5,7,9,11,13,15,17,19,21,23,25,27,29,31,33,35,37,39,41,43,45,47,49,51,53,55,57,59,61,-1,-1,-1,-1,-1,-1,-1,-1,-1,-1,-1,-1,-1,-1,-1,-1,-1,-1,-1,-1,-1,-1,-1,-1,-1,-1,-1,-1,-1,-1,-1,-1],"loss_changes":[4.1179995E6,3.0888762E5,5.4718575E5,8.2871375E4,8.576146E4,1.7893581E5,2.474985E5,1.5224152E4,5.371075E4,4.154485E4,2.7433352E4,7.500174E4,1.5968438E5,2.0187175E5,7.03505E4,2.1088312E4,9.058588E4,2.4616125E4,4.559977E4,2.5409348E4,3.101936E4,2.6355773E4,6.582449E3,3.164444E4,1.0514352E4,1.912382E4,1.5904012E5,1.8948703E5,1.20915625E5,4.2214346E3,8.5495625E4,0E0,0E0,0E0,0E0,0E0,0E0,0E0,0E0,0E0,0E0,0E0,0E0,0E0,0E0,0E0,0E0,0E0,0E0,0E0,0E0,0E0,0E0,0E0,0E0,0E0,0E0,0E0,0E0,0E0,0E0,0E0,0E0],"parents":[2147483647,0,0,1,1,2,2,3,3,4,4,5,5,6,6,7,7,8,8,9,9,10,10,11,11,12,12,13,13,14,14,15,15,16,16,17,17,18,18,19,19,20,20,21,21,22,22,23,23,24,24,25,25,26,26,27,27,28,28,29,29,30,30],"right_children":[2,4,6,8,10,12,14,16,18,20,22,24,26,28,30,32,34,36,38,40,42,44,46,48,50,52,54,56,58,60,62,-1,-1,-1,-1,-1,-1,-1,-1,-1,-1,-1,-1,-1,-1,-1,-1,-1,-1,-1,-1,-1,-1,-1,-1,-1,-1,-1,-1,-1,-1,-1,-1],"split_conditions":[1.08E2,6.204286E1,1.6514285E2,4.5375E1,1.4128572E2,3E0,2.87E2,2.6025E2,1E1,2.3458334E1,9.266666E0,8.5375E1,7.54E1,2.17E2,2.3208334E0,2.4791666E1,2.6858334E2,3.94E1,2.9154167E1,8.6041664E1,1.3E0,7.6E1,6.36E1,1.7829166E1,9E0,6.63E1,1.42E2,5E0,4.1125E0,2.0885715E2,4.0041666E0,2.3115284E0,-1.2798189E0,2.442546E0,-1.022309E0,-2.063767E0,-1.5568674E0,-2.4724066E-1,-3.452345E0,-5.5838414E-2,2.9483116E0,-6.273682E-1,-1.9325017E0,2.7477782E0,-3.669254E-1,3.0747864E0,-3.4313564E0,1.0193682E0,-3.5168228E-1,9.486657E-2,4.992169E0,-3.165097E0,4.687016E-2,1.52567E0,4.445326E0,-1.532851E0,2.915918E0,2.5505517E0,5.411851E0,-6.9950193E-1,2.1464221E0,9.00503E0,5.5425143E0],"split_indices":[0,4,4,9,4,5,0,11,6,8,10,9,1,3,10,8,11,0,8,9,12,9,1,8,7,1,0,7,10,4,10,0,0,0,0,0,0,0,0,0,0,0,0,0,0,0,0,0,0,0,0,0,0,0,0,0,0,0,0,0,0,0,0],"split_type":[0,0,0,0,0,0,0,0,0,0,0,0,0,0,0,0,0,0,0,0,0,0,0,0,0,0,0,0,0,0,0,0,0,0,0,0,0,0,0,0,0,0,0,0,0,0,0,0,0,0,0,0,0,0,0,0,0,0,0,0,0,0,0],"sum_hessian":[1.2574E4,8.93E3,3.644E3,5.677E3,3.253E3,1.606E3,2.038E3,1.039E3,4.638E3,3.077E3,1.76E2,7.8E2,8.26E2,1.656E3,3.82E2,5.29E2,5.1E2,4.244E3,3.94E2,9.93E2,2.084E3,1.64E2,1.2E1,7.38E2,4.2E1,7.6E1,7.5E2,9.14E2,7.42E2,3.1E1,3.51E2,1.6E1,5.13E2,9.1E1,4.19E2,2.739E3,1.505E3,3.44E2,5E1,9.65E2,2.8E1,1.883E3,2.01E2,1.3E2,3.4E1,1E0,1.1E1,2.58E2,4.8E2,5E0,3.7E1,4.5E1,3.1E1,3.93E2,3.57E2,1.08E2,8.06E2,2.08E2,5.34E2,6E0,2.5E1,1.07E2,2.44E2],"tree_param":{"num_deleted":"0","num_feature":"13","num_nodes":"63","size_leaf_vector":"1"}},{"base_weights":[1.4538137E-2,-1.06461735E1,2.4925358E1,-1.5059496E1,-4.646217E0,1.3485493E1,3.644946E1,-7.472033E0,-1.6593197E1,-1.2553504E0,-1.064722E1,1.5074537E1,-4.92475E1,2.534834E1,4.8018764E1,-1.022694E1,-1.3998042E0,-2.0798353E1,-1.5085634E1,-7.5263453E0,1.93442E0,1.7763551E0,-1.3906E1,8.361798E0,3.0848307E1,-8.6019763E2,2.5594498E1,7.2741127E0,3.1000492E1,3.2981228E1,5.6890045E1,-1.2943171E0,-1.0165995E-1,7.6688987E-1,-5.727152E-1,-2.0885541E0,8.552319E-1,-8.533663E-1,-1.6038488E0,-7.8897756E-1,5.220042E0,-2.2543156E-1,7.93466E-1,-3.5627785E-1,8.489954E0,-1.21198E0,-2.1992414E0,3.3107839E0,1.5530397E-2,2.350132E0,6.257597E0,1.1144214E0,-1.7371117E2,-2.5836134E-1,7.506767E0,1.7923177E0,-2.2522857E0,1.7517518E0,3.9478538E0,2.2365277E0,6.1701217E0,1.0597619E1,5.0762973E0],"categories":[],"categories_nodes":[],"categories_segments":[],"categories_sizes":[],"default_left":[0,0,0,0,0,0,0,0,0,0,0,0,0,0,0,0,0,0,0,0,0,0,0,0,0,0,0,0,0,0,0,0,0,0,0,0,0,0,0,0,0,0,0,0,0,0,0,0,0,0,0,0,0,0,0,0,0,0,0,0,0,0,0],"id":12,"left_children":[1,3,5,7,9,11,13,15,17,19,21,23,25,27,29,31,33,35,37,39,41,43,45,47,49,51,53,55,57,59,61,-1,-1,-1,-1,-1,-1,-1,-1,-1,-1,-1,-1,-1,-1,-1,-1,-1,-1,-1,-1,-1,-1,-1,-1,-1,-1,-1,-1,-1,-1,-1,-1],"loss_changes":[3.3397712E6,2.3313719E5,4.9639125E5,5.8921625E4,7.59683E4,1.894471E5,2.3985E5,1.4288492E4,2.6439E4,4.77618E4,5.459942E4,1.95312E5,2.8745935E6,9.784644E4,1.20587E5,1.4697078E4,1.0561162E4,3.0216875E3,1.9279125E4,1.7885586E4,3.980409E4,1.2501189E5,1.5159609E4,2.6338734E5,1.2696894E5,3.0757258E6,6.153261E4,7.3384945E4,8.28685E4,1.0319731E5,1.6785488E5,0E0,0E0,0E0,0E0,0E0,0E0,0E0,0E0,0E0,0E0,0E0,0E0,0E0,0E0,0E0,0E0,0E0,0E0,0E0,0E0,0E0,0E0,0E0,0E0,0E0,0E0,0E0,0E0,0E0,0E0,0E0,0E0],"parents":[2147483647,0,0,1,1,2,2,3,3,4,4,5,5,6,6,7,7,8,8,9,9,10,10,11,11,12,12,13,13,14,14,15,15,16,16,17,17,18,18,19,19,20,20,21,21,22,22,23,23,24,24,25,25,26,26,27,27,28,28,29,29,30,30],"right_children":[2,4,6,8,10,12,14,16,18,20,22,24,26,28,30,32,34,36,38,40,42,44,46,48,50,52,54,56,58,60,62,-1,-1,-1,-1,-1,-1,-1,-1,-1,-1,-1,-1,-1,-1,-1,-1,-1,-1,-1,-1,-1,-1,-1,-1,-1,-1,-1,-1,-1,-1,-1,-1],"split_conditions":[1.05E2,5.55E1,1.63E2,4.5375E1,2.83125E1,3.0633334E2,1.99E2,6.12E1,2.7057142E1,6.08E1,2.525E1,2.84E2,5E0,2.3045833E2,3E0,5E0,4E0,5.25E1,2.3958334E1,2.64E2,5.5583332E1,2.4541666E1,2.53125E2,3.9333334E0,2.44E2,1.71E2,1.7494286E2,1.93375E2,5.425E0,2.797143E2,1.72E2,-1.2943171E0,-1.0165995E-1,7.6688987E-1,-5.727152E-1,-2.0885541E0,8.552319E-1,-8.533663E-1,-1.6038488E0,-7.8897756E-1,5.220042E0,-2.2543156E-1,7.93466E-1,-3.5627785E-1,8.489954E0,-1.21198E0,-2.1992414E0,3.3107839E0,1.5530397E-2,2.350132E0,6.257597E0,1.1144214E0,-1.7371117E2,-2.5836134E-1,7.506767E0,1.7923177E0,-2.2522857E0,1.7517518E0,3.9478538E0,2.2365277E0,6.1701217E0,1.0597619E1,5.0762973E0],"split_indices":[0,2,3,9,8,11,0,0,4,0,9,11,7,11,5,6,6,1,8,3,9,9,11,10,2,0,4,11,10,4,1,0,0,0,0,0,0,0,0,0,0,0,0,0,0,0,0,0,0,0,0,0,0,0,0,0,0,0,0,0,0,0,0],"split_type":[0,0,0,0,0,0,0,0,0,0,0,0,0,0,0,0,0,0,0,0,0,0,0,0,0,0,0,0,0,0,0,0,0,0,0,0,0,0,0,0,0,0,0,0,0,0,0,0,0,0,0,0,0,0,0,0,0,0,0,0,0,0,0],"sum_hessian":[1.2574E4,8.806E3,3.768E3,5.073E3,3.733E3,1.892E3,1.876E3,8.54E2,4.219E3,2.386E3,1.347E3,1.846E3,4.6E1,9.59E2,9.17E2,5.87E2,2.67E2,1.11E3,3.109E3,8.04E2,1.582E3,2.8E2,1.067E3,1.296E3,5.5E2,3E0,4.3E1,2.29E2,7.3E2,3.42E2,5.75E2,4.53E2,1.34E2,8.6E1,1.81E2,1.107E3,3E0,3.96E2,2.713E3,8E2,4E0,9.32E2,6.5E2,2.64E2,1.6E1,8.76E2,1.91E2,3.22E2,9.74E2,4.48E2,1.02E2,2E0,1E0,2.8E1,1.5E1,1.69E2,6E1,2.83E2,4.47E2,2.51E2,9.1E1,6.2E1,5.13E2],"tree_param":{"num_deleted":"0","num_feature":"13","num_nodes":"63","size_leaf_vector":"1"}},{"base_weights":[3.599682E-3,-7.533298E0,2.8852123E1,-1.1110206E1,4.6618795E0,2.2498508E1,4.2704704E1,-1.4890853E1,-7.224271E0,7.2310376E-1,1.680395E1,1.0754132E1,2.8800726E1,3.8796505E1,9.232381E1,-6.6303506E0,-1.5666237E1,-5.124692E0,-1.3130382E1,-9.043237E0,3.579378E0,5.9861164E1,1.3873551E1,1.5115871E1,-9.0482765E1,3.583554E1,1.6591219E1,6.578578E1,3.137502E1,7.921064E1,1.9495506E1,-2.0847278E0,-4.0808955E-1,-1.8738467E0,-1.4299989E0,7.233471E-1,-6.303563E-1,-4.062539E-1,-1.4570186E0,-5.51757E-1,-2.43914E0,1.5256351E-1,2.3784456E0,6.8551416E0,-2.4626133E0,9.5192987E-1,3.9581864E0,1.0109407E0,5.2949066E0,3.4645576E0,-1.0613485E2,2.44005E0,7.7585473E0,-2.1359754E0,2.4220092E0,-4.080199E0,6.8723855E0,4.275597E0,8.513147E-1,8.225577E0,2.480062E-3],"categories":[],"categories_nodes":[],"categories_segments":[],"categories_sizes":[],"default_left":[0,0,0,0,0,0,0,0,0,0,0,0,0,0,0,0,0,0,0,0,0,0,0,0,0,0,0,0,0,0,0,0,0,0,0,0,0,0,0,0,0,0,0,0,0,0,0,0,0,0,0,0,0,0,0,0,0,0,0,0,0],"id":13,"left_children":[1,3,5,7,9,11,13,15,17,19,21,23,25,27,29,31,33,35,37,39,41,43,45,47,49,51,53,55,57,59,-1,-1,-1,-1,-1,-1,-1,-1,-1,-1,-1,-1,-1,-1,-1,-1,-1,-1,-1,-1,-1,-1,-1,-1,-1,-1,-1,-1,-1,-1,-1],"loss_changes":[2.734379E6,4.3499706E5,2.283155E5,1.1316275E5,1.0816774E5,1.3203019E5,1.55046E5,2.4920688E4,4.7103625E4,4.7705516E4,6.907031E4,2.7778988E5,9.9297375E4,1.5016438E5,6.396097E4,1.212963E4,1.4721125E4,4.0954453E4,1.2957547E4,2.0806959E4,5.486297E4,2.738571E4,5.7832273E4,1.1330047E5,3.1953242E6,3.4995975E5,1.2414371E5,5.38495E4,1.5522956E5,1.30190625E4,0E0,0E0,0E0,0E0,0E0,0E0,0E0,0E0,0E0,0E0,0E0,0E0,0E0,0E0,0E0,0E0,0E0,0E0,0E0,0E0,0E0,0E0,0E0,0E0,0E0,0E0,0E0,0E0,0E0,0E0,0E0],"parents":[2147483647,0,0,1,1,2,2,3,3,4,4,5,5,6,6,7,7,8,8,9,9,10,10,11,11,12,12,13,13,14,14,15,15,16,16,17,17,18,18,19,19,20,20,21,21,22,22,23,23,24,24,25,25,26,26,27,27,28,28,29,29],"right_children":[2,4,6,8,10,12,14,16,18,20,22,24,26,28,30,32,34,36,38,40,42,44,46,48,50,52,54,56,58,60,-1,-1,-1,-1,-1,-1,-1,-1,-1,-1,-1,-1,-1,-1,-1,-1,-1,-1,-1,-1,-1,-1,-1,-1,-1,-1,-1,-1,-1,-1,-1],"split_conditions":[1.465E2,8.351428E1,2.4E2,4.46E1,7E0,1.61E2,2.9916666E2,2.39125E1,7E-1,1.7870833E2,7E0,3.045E2,1.79875E1,5.1375E1,2.81E2,1.8070833E2,2.7057142E1,4.3958335E0,9.55E1,1.56E2,8.2125E1,1.72E2,1.77E2,2.1542857E2,2.2642857E2,1.7279167E1,1.8958334E1,1.18583336E2,4.945833E0,2.305E1,1.9495506E1,-2.0847278E0,-4.0808955E-1,-1.8738467E0,-1.4299989E0,7.233471E-1,-6.303563E-1,-4.062539E-1,-1.4570186E0,-5.51757E-1,-2.43914E0,1.5256351E-1,2.3784456E0,6.8551416E0,-2.4626133E0,9.5192987E-1,3.9581864E0,1.0109407E0,5.2949066E0,3.4645576E0,-1.0613485E2,2.44005E0,7.7585473E0,-2.1359754E0,2.4220092E0,-4.080199E0,6.8723855E0,4.275597E0,8.513147E-1,8.225577E0,2.480062E-3],"split_indices":[4,4,0,2,6,3,11,8,12,11,7,11,8,9,2,11,4,10,11,11,9,1,0,4,4,8,8,11,10,8,0,0,0,0,0,0,0,0,0,0,0,0,0,0,0,0,0,0,0,0,0,0,0,0,0,0,0,0,0,0,0],"split_type":[0,0,0,0,0,0,0,0,0,0,0,0,0,0,0,0,0,0,0,0,0,0,0,0,0,0,0,0,0,0,0,0,0,0,0,0,0,0,0,0,0,0,0,0,0,0,0,0,0,0,0,0,0,0,0,0,0,0,0,0,0],"sum_hessian":[1.2574E4,9.97E3,2.604E3,7.709E3,2.261E3,1.787E3,8.17E2,3.906E3,3.803E3,1.708E3,5.53E2,6.25E2,1.162E3,7.59E2,5.8E1,3.36E2,3.57E3,2.807E3,9.96E2,3.86E2,1.322E3,3.4E1,5.19E2,6E2,2.5E1,7.36E2,4.26E2,1.62E2,5.97E2,5.3E1,5E0,5E1,2.86E2,1.095E3,2.475E3,2.44E2,2.563E3,1.37E2,8.59E2,3.15E2,7.1E1,1.201E3,1.21E2,3.1E1,3E0,4.45E2,7.4E1,5.31E2,6.9E1,2.3E1,2E0,5.79E2,1.57E2,7.1E1,3.55E2,4E0,1.58E2,3.98E2,1.99E2,5.1E1,2E0],"tree_param":{"num_deleted":"0","num_feature":"13","num_nodes":"61","size_leaf_vector":"1"}},{"base_weights":[-6.5423304E-4,-6.7798405E0,2.5947624E1,-9.493636E0,6.3453064E0,2.0578796E1,4.111588E1,-1.2920833E1,-5.5561733E0,3.1205486E1,3.8983233E0,5.481441E0,2.668642E1,8.931197E1,3.7066097E1,-1.359728E1,8.311196E0,-2.5803483E0,-9.376915E0,2.676797E0,5.1690422E1,-8.265733E-1,1.5971351E1,6.995005E1,1.9301698E0,4.4388607E1,2.009881E1,7.9391785E0,9.7799736E1,2.6798199E1,5.10688E1,-1.393412E0,-4.5311477E-2,8.57001E0,-1.2354761E0,-4.039962E-1,3.8077885E-1,1.1239121E-1,-1.114848E0,4.5129824E-1,-5.7419524E0,4.2200446E0,1.1514659E1,-2.1518757E0,9.1525115E-2,2.5260398E-1,2.4088385E0,9.263719E0,3.0090182E0,1.007944E0,-2.0080657E0,2.1854572E0,9.499731E0,5.679873E0,1.4114951E0,2.4688358E0,-1.7039454E0,7.459005E0,1.1367718E1,2.1816697E0,6.3594174E0,6.535712E0,3.744581E0],"categories":[],"categories_nodes":[],"categories_segments":[],"categories_sizes":[],"default_left":[0,0,0,0,0,0,0,0,0,0,0,0,0,0,0,0,0,0,0,0,0,0,0,0,0,0,0,0,0,0,0,0,0,0,0,0,0,0,0,0,0,0,0,0,0,0,0,0,0,0,0,0,0,0,0,0,0,0,0,0,0,0,0],"id":14,"left_children":[1,3,5,7,9,11,13,15,17,19,21,23,25,27,29,31,33,35,37,39,41,43,45,47,49,51,53,55,57,59,61,-1,-1,-1,-1,-1,-1,-1,-1,-1,-1,-1,-1,-1,-1,-1,-1,-1,-1,-1,-1,-1,-1,-1,-1,-1,-1,-1,-1,-1,-1,-1,-1],"loss_changes":[2.2122215E6,3.5521697E5,2.11294E5,1.1143294E5,1.03840984E5,1.7744812E5,1.294145E5,6.35515E4,4.371565E4,8.927611E4,8.883041E4,1.271587E5,1.5898706E5,3.5138562E4,8.906806E4,1.8947688E4,2.2016506E5,2.0192973E4,3.1339812E4,7.4317515E3,4.873636E4,4.0386902E4,4.7740734E4,2.3437406E4,9.491089E4,4.2101906E5,2.1902512E5,2.9309058E3,8.840781E3,6.551678E4,4.9134812E4,0E0,0E0,0E0,0E0,0E0,0E0,0E0,0E0,0E0,0E0,0E0,0E0,0E0,0E0,0E0,0E0,0E0,0E0,0E0,0E0,0E0,0E0,0E0,0E0,0E0,0E0,0E0,0E0,0E0,0E0,0E0,0E0],"parents":[2147483647,0,0,1,1,2,2,3,3,4,4,5,5,6,6,7,7,8,8,9,9,10,10,11,11,12,12,13,13,14,14,15,15,16,16,17,17,18,18,19,19,20,20,21,21,22,22,23,23,24,24,25,25,26,26,27,27,28,28,29,29,30,30],"right_children":[2,4,6,8,10,12,14,16,18,20,22,24,26,28,30,32,34,36,38,40,42,44,46,48,50,52,54,56,58,60,62,-1,-1,-1,-1,-1,-1,-1,-1,-1,-1,-1,-1,-1,-1,-1,-1,-1,-1,-1,-1,-1,-1,-1,-1,-1,-1,-1,-1,-1,-1,-1,-1],"split_conditions":[1.465E2,9.49E1,2.53E2,4.85E1,3.65E0,2.3045833E2,4.6958332E1,3.4716667E1,2.83125E1,4E0,2.84E2,1.2091666E1,2.8116666E2,3.1625E1,2.36E2,1.03E2,3.4758335E1,5E0,2.1625E1,2.12E2,3.575E0,5.17E1,3E0,1.17E2,1.93375E2,1.2E1,4.9625E1,2.4471428E2,2.31E2,7.8791666E0,2.60625E2,-1.393412E0,-4.5311477E-2,8.57001E0,-1.2354761E0,-4.039962E-1,3.8077885E-1,1.1239121E-1,-1.114848E0,4.5129824E-1,-5.7419524E0,4.2200446E0,1.1514659E1,-2.1518757E0,9.1525115E-2,2.5260398E-1,2.4088385E0,9.263719E0,3.0090182E0,1.007944E0,-2.0080657E0,2.1854572E0,9.499731E0,5.679873E0,1.4114951E0,2.4688358E0,-1.7039454E0,7.459005E0,1.1367718E1,2.1816697E0,6.3594174E0,6.535712E0,3.744581E0],"split_indices":[4,0,1,0,10,11,9,8,8,5,11,8,11,9,3,3,8,6,9,0,10,2,5,3,11,6,9,4,2,10,11,0,0,0,0,0,0,0,0,0,0,0,0,0,0,0,0,0,0,0,0,0,0,0,0,0,0,0,0,0,0,0,0],"split_type":[0,0,0,0,0,0,0,0,0,0,0,0,0,0,0,0,0,0,0,0,0,0,0,0,0,0,0,0,0,0,0,0,0,0,0,0,0,0,0,0,0,0,0,0,0,0,0,0,0,0,0,0,0,0,0,0,0,0,0,0,0,0,0],"sum_hessian":[1.2574E4,9.97E3,2.604E3,8.262E3,1.708E3,1.925E3,6.79E2,4.416E3,3.846E3,1.52E2,1.556E3,5.55E2,1.37E3,5.1E1,6.28E2,4.28E3,1.36E2,2.163E3,1.683E3,6.4E1,8.8E1,1.119E3,4.37E2,2.8E1,5.27E2,3.7E2,1E3,5E0,4.6E1,3.64E2,2.64E2,4.173E3,1.07E2,2.8E1,1.08E2,1.761E3,4.02E2,2.43E2,1.44E3,6.3E1,1E0,7.8E1,1E1,8.6E1,1.033E3,1.65E2,2.72E2,1.7E1,1.1E1,3.85E2,1.42E2,2.57E2,1.13E2,1.39E2,8.61E2,3E0,2E0,2.1E1,2.5E1,3.22E2,4.2E1,1.27E2,1.37E2],"tree_param":{"num_deleted":"0","num_feature":"13","num_nodes":"63","size_leaf_vector":"1"}},{"base_weights":[6.1219004E-3,-7.0248466E0,2.046084E1,-1.0521285E1,-1.3726851E0,1.605893E1,3.7170704E1,-4.879143E0,-1.19500265E1,-2.8794239E0,1.2444414E1,4.5967574E0,2.221958E1,8.075754E1,3.3449078E1,-6.635061E0,3.279759E-1,-1.2791015E1,-3.1087544E0,2.578032E1,-3.2199225E0,1.505244E0,2.0099846E1,6.1933422E1,1.9026619E0,1.013981E1,2.986963E1,7.272741E0,8.8420334E1,2.2696037E1,4.5889866E1,-8.952724E-1,3.5436413E-1,1.1422762E0,-5.390909E-1,-1.4770268E0,-1.128326E0,3.8577292E-2,-2.7166889E0,5.467084E-1,2.8009315E0,-4.167287E-1,5.920243E-1,8.256472E0,-7.7268E-2,-5.046422E-1,2.7930312E0,7.142452E0,1.5040989E0,-9.378645E-1,1.107217E0,1.4567826E0,-6.0858746E0,3.9192016E0,1.2603521E0,2.2836728E0,-1.5903488E0,6.7470093E0,1.0274668E1,1.2452186E0,3.972414E0,-1.4016541E0,4.902482E0],"categories":[],"categories_nodes":[],"categories_segments":[],"categories_sizes":[],"default_left":[0,0,0,0,0,0,0,0,0,0,0,0,0,0,0,0,0,0,0,0,0,0,0,0,0,0,0,0,0,0,0,0,0,0,0,0,0,0,0,0,0,0,0,0,0,0,0,0,0,0,0,0,0,0,0,0,0,0,0,0,0,0,0],"id":15,"left_children":[1,3,5,7,9,11,13,15,17,19,21,23,25,27,29,31,33,35,37,39,41,43,45,47,49,51,53,55,57,59,61,-1,-1,-1,-1,-1,-1,-1,-1,-1,-1,-1,-1,-1,-1,-1,-1,-1,-1,-1,-1,-1,-1,-1,-1,-1,-1,-1,-1,-1,-1,-1,-1],"loss_changes":[1.8086359E6,1.8494222E5,2.3603062E5,4.6551312E4,7.452536E4,1.7982338E5,1.05982E5,1.0699805E4,3.425975E4,3.157403E4,2.944766E4,1.376698E5,1.5282194E5,2.8638062E4,8.176606E4,2.0673676E4,1.8842719E4,1.2402875E4,3.380735E4,1.5674375E3,2.764709E4,2.7022305E4,4.0900695E4,1.672811E4,8.83416E4,2.03349E5,1.6272094E5,2.5274707E3,7.1742812E3,5.776608E4,5.4398938E4,0E0,0E0,0E0,0E0,0E0,0E0,0E0,0E0,0E0,0E0,0E0,0E0,0E0,0E0,0E0,0E0,0E0,0E0,0E0,0E0,0E0,0E0,0E0,0E0,0E0,0E0,0E0,0E0,0E0,0E0,0E0,0E0],"parents":[2147483647,0,0,1,1,2,2,3,3,4,4,5,5,6,6,7,7,8,8,9,9,10,10,11,11,12,12,13,13,14,14,15,15,16,16,17,17,18,18,19,19,20,20,21,21,22,22,23,23,24,24,25,25,26,26,27,27,28,28,29,29,30,30],"right_children":[2,4,6,8,10,12,14,16,18,20,22,24,26,28,30,32,34,36,38,40,42,44,46,48,50,52,54,56,58,60,62,-1,-1,-1,-1,-1,-1,-1,-1,-1,-1,-1,-1,-1,-1,-1,-1,-1,-1,-1,-1,-1,-1,-1,-1,-1,-1,-1,-1,-1,-1,-1,-1],"split_conditions":[1.2E2,6.275714E1,2.53E2,4.6416668E1,1.48E2,2.3045833E2,4.6958332E1,5E0,1E1,1.1341666E1,6.0333332E1,1.2091666E1,1.53E2,3.1625E1,2.81E2,1.0025E1,2.6133333E1,3.06E1,2.9154167E1,1.0575E1,1E1,1.4870833E1,8.31E1,4.5E0,1.92375E1,3.0633334E2,1.7554167E1,2.4471428E2,2.31E2,2.81E2,1.20583336E2,-8.952724E-1,3.5436413E-1,1.1422762E0,-5.390909E-1,-1.4770268E0,-1.128326E0,3.8577292E-2,-2.7166889E0,5.467084E-1,2.8009315E0,-4.167287E-1,5.920243E-1,8.256472E0,-7.7268E-2,-5.046422E-1,2.7930312E0,7.142452E0,1.5040989E0,-9.378645E-1,1.107217E0,1.4567826E0,-6.0858746E0,3.9192016E0,1.2603521E0,2.2836728E0,-1.5903488E0,6.7470093E0,1.0274668E1,1.2452186E0,3.972414E0,-1.4016541E0,4.902482E0],"split_indices":[0,4,1,9,2,11,9,5,6,8,9,8,3,9,2,10,8,0,8,8,6,8,0,10,8,11,8,4,2,0,11,0,0,0,0,0,0,0,0,0,0,0,0,0,0,0,0,0,0,0,0,0,0,0,0,0,0,0,0,0,0,0,0],"split_type":[0,0,0,0,0,0,0,0,0,0,0,0,0,0,0,0,0,0,0,0,0,0,0,0,0,0,0,0,0,0,0,0,0,0,0,0,0,0,0,0,0,0,0,0,0,0,0,0,0,0,0,0,0,0,0,0,0,0,0,0,0,0,0],"sum_hessian":[1.2574E4,9.358E3,3.216E3,5.781E3,3.577E3,2.547E3,6.69E2,1.169E3,4.612E3,3.226E3,3.51E2,8.91E2,1.656E3,5.1E1,6.18E2,8.74E2,2.95E2,4.211E3,4.01E2,3.7E1,3.189E3,1.45E2,2.06E2,3.9E1,8.52E2,6.43E2,1.013E3,5E0,4.6E1,3.33E2,2.85E2,7.12E2,1.62E2,1E2,1.95E2,1.817E3,2.394E3,3.51E2,5E1,4E0,3.3E1,2.89E3,2.99E2,3E0,1.42E2,4.9E1,1.57E2,3.2E1,7E0,3.82E2,4.7E2,6.06E2,3.7E1,6.57E2,3.56E2,3E0,2E0,2.1E1,2.5E1,2.09E2,1.24E2,1.4E1,2.71E2],"tree_param":{"num_deleted":"0","num_feature":"13","num_nodes":"63","size_leaf_vector":"1"}},{"base_weights":[9.053207E-3,-6.1330066E0,1.9084929E1,-8.798339E0,5.5075985E-1,1.0416856E1,2.5991909E1,-3.6116872E0,-1.0488429E1,-2.0368881E0,1.2872508E1,1.2155559E1,-4.5814957E1,3.2182926E1,1.1988883E1,-1.5104669E0,-1.295617E1,-4.796661E0,-1.1436398E1,2.5894135E1,-2.633484E0,-9.959193E-2,2.4537338E1,5.967382E0,2.5494717E1,-1.0507708E3,3.2664074E1,5.1733276E1,2.0377321E1,2.1806356E1,-3.434758E1,-2.9832986E-1,7.1696115E0,-9.26476E-1,-3.2203496E0,-1.3553127E0,-2.0926301E-1,-1.8584356E0,-1.0898947E0,1.8668795E0,6.451482E0,-3.1222832E-1,2.252092E0,1.5166446E0,-1.1878899E0,7.662122E-1,3.478804E0,2.604457E0,-4.675811E-1,1.0940721E0,3.523124E0,1.8695401E0,-1.5948515E2,6.321616E-1,7.4390564E0,9.8089045E-1,6.7767196E0,9.8665696E-1,4.187925E0,4.4943738E-1,3.3308198E0,-1.7929373E1,-1.4484711E0],"categories":[],"categories_nodes":[],"categories_segments":[],"categories_sizes":[],"default_left":[0,0,0,0,0,0,0,0,0,0,0,0,0,0,0,0,0,0,0,0,0,0,0,0,0,0,0,0,0,0,0,0,0,0,0,0,0,0,0,0,0,0,0,0,0,0,0,0,0,0,0,0,0,0,0,0,0,0,0,0,0,0,0],"id":16,"left_children":[1,3,5,7,9,11,13,15,17,19,21,23,25,27,29,31,33,35,37,39,41,43,45,47,49,51,53,55,57,59,61,-1,-1,-1,-1,-1,-1,-1,-1,-1,-1,-1,-1,-1,-1,-1,-1,-1,-1,-1,-1,-1,-1,-1,-1,-1,-1,-1,-1,-1,-1,-1,-1],"loss_changes":[1.473469E6,1.6947375E5,1.8311175E5,5.9579062E4,8.652845E4,1.3352462E5,1.4733912E5,3.2829477E4,2.761925E4,3.7444496E4,7.127291E4,1.0880734E5,3.2679082E6,2.71525E5,2.3912025E5,1.4760516E5,2.1513926E4,1.7351113E4,1.6685438E4,1.1910816E4,2.7083432E4,4.046059E4,4.2633188E4,1.9307966E5,5.8847406E4,1.775444E6,4.2397684E4,2.9779738E5,1.6637588E5,8.606908E4,2.6227525E5,0E0,0E0,0E0,0E0,0E0,0E0,0E0,0E0,0E0,0E0,0E0,0E0,0E0,0E0,0E0,0E0,0E0,0E0,0E0,0E0,0E0,0E0,0E0,0E0,0E0,0E0,0E0,0E0,0E0,0E0,0E0,0E0],"parents":[2147483647,0,0,1,1,2,2,3,3,4,4,5,5,6,6,7,7,8,8,9,9,10,10,11,11,12,12,13,13,14,14,15,15,16,16,17,17,18,18,19,19,20,20,21,21,22,22,23,23,24,24,25,25,26,26,27,27,28,28,29,29,30,30],"right_children":[2,4,6,8,10,12,14,16,18,20,22,24,26,28,30,32,34,36,38,40,42,44,46,48,50,52,54,56,58,60,62,-1,-1,-1,-1,-1,-1,-1,-1,-1,-1,-1,-1,-1,-1,-1,-1,-1,-1,-1,-1,-1,-1,-1,-1,-1,-1,-1,-1,-1,-1,-1,-1],"split_conditions":[1.25E2,7.32E1,1.63E2,4.7125E1,1E1,3.0633334E2,7.7125E1,3.4758335E1,2.4054167E1,1.1341666E1,5.6791668E1,2.84E2,5E0,1.7554167E1,1.5258333E1,3.4716667E1,4.5166668E1,1.98375E1,2.5820833E1,1.6514285E2,8.6375E1,4.5E0,2.4E2,4.25E0,1.1E1,1.71E2,1.7671428E2,5.6333332E1,2.48E2,1.65E2,1.54E2,-2.9832986E-1,7.1696115E0,-9.26476E-1,-3.2203496E0,-1.3553127E0,-2.0926301E-1,-1.8584356E0,-1.0898947E0,1.8668795E0,6.451482E0,-3.1222832E-1,2.252092E0,1.5166446E0,-1.1878899E0,7.662122E-1,3.478804E0,2.604457E0,-4.675811E-1,1.0940721E0,3.523124E0,1.8695401E0,-1.5948515E2,6.321616E-1,7.4390564E0,9.8089045E-1,6.7767196E0,9.8665696E-1,4.187925E0,4.4943738E-1,3.3308198E0,-1.7929373E1,-1.4484711E0],"split_indices":[0,2,3,9,6,11,9,8,8,8,9,11,7,8,8,8,9,8,8,4,9,10,11,10,6,0,4,9,1,1,2,0,0,0,0,0,0,0,0,0,0,0,0,0,0,0,0,0,0,0,0,0,0,0,0,0,0,0,0,0,0,0,0],"split_type":[0,0,0,0,0,0,0,0,0,0,0,0,0,0,0,0,0,0,0,0,0,0,0,0,0,0,0,0,0,0,0,0,0,0,0,0,0,0,0,0,0,0,0,0,0,0,0,0,0,0,0,0,0,0,0,0,0,0,0,0,0,0,0],"sum_hessian":[1.2574E4,9.512E3,3.062E3,6.8E3,2.712E3,1.359E3,1.703E3,1.672E3,5.128E3,2.242E3,4.7E2,1.319E3,4E1,1.18E3,5.23E2,1.366E3,3.06E2,7.33E2,4.395E3,4.6E1,2.196E3,2.23E2,2.47E2,9.02E2,4.17E2,2E0,3.8E1,4.43E2,7.37E2,4.32E2,9.1E1,1.34E3,2.6E1,2.58E2,4.8E1,1.72E2,5.61E2,3.05E2,4.09E3,4E1,6E0,2.155E3,4.1E1,9.7E1,1.26E2,9.4E1,1.53E2,3.12E2,5.9E2,1.68E2,2.49E2,1E0,1E0,2.4E1,1.4E1,1.23E2,3.2E2,4.96E2,2.41E2,1.73E2,2.59E2,1E1,8.1E1],"tree_param":{"num_deleted":"0","num_feature":"13","num_nodes":"63","size_leaf_vector":"1"}},{"base_weights":[-2.3828822E-3,-6.6361384E0,1.4309408E1,-9.941773E0,-3.5376122E0,7.614567E0,2.3185793E1,-1.04303665E1,1.4388895E0,5.6204903E1,-3.6852586E0,8.252435E0,-3.7294075E1,3.9791733E1,1.8935205E1,-9.632827E0,-1.43632145E1,2.9982292E1,-8.6071415E0,1.052497E2,-2.2073796E0,-4.327317E0,7.9961524E0,2.5302851E0,1.4111863E1,-3.8409306E1,-1.3609849E-1,3.399812E1,7.904764E1,3.5595467E1,1.2818615E1,-9.884602E-1,4.6846864E-1,-1.3345592E0,-1.9535055E0,-2.91496E-1,6.7717957E0,-2.8278348E0,-4.9187812E-1,1.7149457E0,1.1943987E1,-2.7992692E0,3.2908828E0,3.9937183E-1,-5.251221E-1,5.2033167E0,1.1645925E-1,-3.622328E-1,1.4201239E0,6.024601E0,1.1780847E0,-4.4388433E0,-3.0874233E0,-2.73937E0,3.726802E0,-1.6935462E0,8.402148E0,2.6283872E0,1.3196387E1,2.0781612E0,-3.8596833E-1],"categories":[],"categories_nodes":[],"categories_segments":[],"categories_sizes":[],"default_left":[0,0,0,0,0,0,0,0,0,0,0,0,0,0,0,0,0,0,0,0,0,0,0,0,0,0,0,0,0,0,0,0,0,0,0,0,0,0,0,0,0,0,0,0,0,0,0,0,0,0,0,0,0,0,0,0,0,0,0,0,0],"id":17,"left_children":[1,3,5,7,9,11,13,15,17,19,21,23,25,27,29,31,33,35,37,39,41,43,45,47,49,51,-1,53,55,57,59,-1,-1,-1,-1,-1,-1,-1,-1,-1,-1,-1,-1,-1,-1,-1,-1,-1,-1,-1,-1,-1,-1,-1,-1,-1,-1,-1,-1,-1,-1],"loss_changes":[1.193977E6,8.797947E4,2.3651725E5,2.3130031E4,3.9344844E4,6.5390984E4,1.2008806E5,1.2364156E4,4.9578703E4,3.1745332E4,3.323777E4,7.510172E4,1.2300781E3,7.645931E4,1.3864266E5,1.2003344E4,3.2655E3,5.6060383E4,9.147881E3,5.452617E3,6.3541006E3,3.2286812E4,6.943378E4,8.1552234E4,1.1833641E5,2.6191406E1,0E0,6.2248188E4,2.2428812E4,3.2495922E5,1.328895E5,0E0,0E0,0E0,0E0,0E0,0E0,0E0,0E0,0E0,0E0,0E0,0E0,0E0,0E0,0E0,0E0,0E0,0E0,0E0,0E0,0E0,0E0,0E0,0E0,0E0,0E0,0E0,0E0,0E0,0E0],"parents":[2147483647,0,0,1,1,2,2,3,3,4,4,5,5,6,6,7,7,8,8,9,9,10,10,11,11,12,12,13,13,14,14,15,15,16,16,17,17,18,18,19,19,20,20,21,21,22,22,23,23,24,24,25,25,27,27,28,28,29,29,30,30],"right_children":[2,4,6,8,10,12,14,16,18,20,22,24,26,28,30,32,34,36,38,40,42,44,46,48,50,52,-1,54,56,58,60,-1,-1,-1,-1,-1,-1,-1,-1,-1,-1,-1,-1,-1,-1,-1,-1,-1,-1,-1,-1,-1,-1,-1,-1,-1,-1,-1,-1,-1,-1],"split_conditions":[9.9328575E1,4.67E1,1.79E2,3.3645832E1,2.5916667E0,1.33E1,5.2125E1,9E0,3.4758335E1,9.5E1,2.96125E2,6.0333332E1,2.57E2,2.9058334E2,4.0041666E0,8.725E1,6E0,3.4716667E1,2.1166666E1,4.31E1,1.3E2,4.3958335E0,2.96625E2,2.84E2,6.075E1,1.25E2,-1.3609849E-1,1.18583336E2,4E0,2.65125E2,1.79875E1,-9.884602E-1,4.6846864E-1,-1.3345592E0,-1.9535055E0,-2.91496E-1,6.7717957E0,-2.8278348E0,-4.9187812E-1,1.7149457E0,1.1943987E1,-2.7992692E0,3.2908828E0,3.9937183E-1,-5.251221E-1,5.2033167E0,1.1645925E-1,-3.622328E-1,1.4201239E0,6.024601E0,1.1780847E0,-4.4388433E0,-3.0874233E0,-2.73937E0,3.726802E0,-1.6935462E0,8.402148E0,2.6283872E0,1.3196387E1,2.0781612E0,-3.8596833E-1],"split_indices":[4,1,0,8,10,12,9,12,8,1,11,9,1,11,10,9,5,8,9,3,0,10,11,11,9,0,0,11,6,11,8,0,0,0,0,0,0,0,0,0,0,0,0,0,0,0,0,0,0,0,0,0,0,0,0,0,0,0,0,0,0],"split_type":[0,0,0,0,0,0,0,0,0,0,0,0,0,0,0,0,0,0,0,0,0,0,0,0,0,0,0,0,0,0,0,0,0,0,0,0,0,0,0,0,0,0,0,0,0,0,0,0,0,0,0,0,0,0,0,0,0,0,0,0,0],"sum_hessian":[1.2574E4,8.592E3,3.982E3,4.156E3,4.436E3,2.271E3,1.711E3,3.985E3,1.71E2,1E1,4.426E3,2.24E3,3.1E1,3.47E2,1.364E3,3.316E3,6.69E2,4.4E1,1.27E2,5E0,5E0,4.196E3,2.3E2,1.134E3,1.106E3,3E1,1E0,3.04E2,4.3E1,3.65E2,9.99E2,3.259E3,5.7E1,5.62E2,1.07E2,2.4E1,2E1,1.9E1,1.08E2,1E0,4E0,3E0,2E0,4.19E2,3.777E3,3E1,2E2,7.43E2,3.91E2,5.2E1,1.054E3,1.4E1,1.6E1,1.5E1,2.89E2,2E0,4.1E1,3.34E2,3.1E1,6.76E2,3.23E2],"tree_param":{"num_deleted":"0","num_feature":"13","num_nodes":"61","size_leaf_vector":"1"}},{"base_weights":[1.3957254E-3,-5.777103E0,1.350398E1,-8.790234E0,-2.7393036E0,6.639856E0,2.0874441E1,-9.286896E0,6.808222E0,-1.467273E-1,-6.489999E0,7.934468E0,-4.2791763E1,1.335835E1,2.8568361E1,-9.358065E0,2.9931282E1,6.657348E1,-9.155087E0,6.935856E1,-3.0768675E-1,2.1145E0,-7.9968896E0,-1.0791899E1,1.0425112E1,-7.5203E2,1.84794E1,-3.8180594E0,1.7768969E1,2.6034086E1,6.114676E1,-1.3732914E0,-8.7370914E-1,3.563753E-1,4.5039053E0,3.1418228E0,1.2124405E1,-5.2811044E-1,-1.873217E0,1.0177924E1,3.0114695E-1,-5.1183384E-2,4.7602057E0,-7.88338E-1,6.963666E-1,-2.8342628E0,-7.51425E-1,1.1257961E0,-1.8563884E0,7.2685164E-1,2.907497E0,8.058594E-1,-1.5161479E2,4.732207E0,-1.1133238E0,-1.718403E-1,-1.9927673E1,5.520324E0,1.4530866E0,2.7603385E0,-4.6641064E0,7.816588E0,1.3310918E0],"categories":[],"categories_nodes":[],"categories_segments":[],"categories_sizes":[],"default_left":[0,0,0,0,0,0,0,0,0,0,0,0,0,0,0,0,0,0,0,0,0,0,0,0,0,0,0,0,0,0,0,0,0,0,0,0,0,0,0,0,0,0,0,0,0,0,0,0,0,0,0,0,0,0,0,0,0,0,0,0,0,0,0],"id":18,"left_children":[1,3,5,7,9,11,13,15,17,19,21,23,25,27,29,31,33,35,37,39,41,43,45,47,49,51,53,55,57,59,61,-1,-1,-1,-1,-1,-1,-1,-1,-1,-1,-1,-1,-1,-1,-1,-1,-1,-1,-1,-1,-1,-1,-1,-1,-1,-1,-1,-1,-1,-1,-1,-1],"loss_changes":[9.812382E5,8.0588875E4,1.9054175E5,3.431347E4,4.265808E4,1.2532131E5,1.0469219E5,1.22399375E4,1.3131452E5,2.9052988E4,2.3265023E4,8.89164E4,2.18669E6,6.98415E4,7.2466875E4,1.1501906E4,3.0263281E3,5.1927492E4,3.9451318E3,1.25996E4,2.5356207E4,1.3047906E4,1.47718125E4,3.859614E4,9.874922E4,2.3354072E6,4.0669895E4,7.7222414E4,8.804916E4,9.640444E4,5.106347E4,0E0,0E0,0E0,0E0,0E0,0E0,0E0,0E0,0E0,0E0,0E0,0E0,0E0,0E0,0E0,0E0,0E0,0E0,0E0,0E0,0E0,0E0,0E0,0E0,0E0,0E0,0E0,0E0,0E0,0E0,0E0,0E0],"parents":[2147483647,0,0,1,1,2,2,3,3,4,4,5,5,6,6,7,7,8,8,9,9,10,10,11,11,12,12,13,13,14,14,15,15,16,16,17,17,18,18,19,19,20,20,21,21,22,22,23,23,24,24,25,25,26,26,27,27,28,28,29,29,30,30],"right_children":[2,4,6,8,10,12,14,16,18,20,22,24,26,28,30,32,34,36,38,40,42,44,46,48,50,52,54,56,58,60,62,-1,-1,-1,-1,-1,-1,-1,-1,-1,-1,-1,-1,-1,-1,-1,-1,-1,-1,-1,-1,-1,-1,-1,-1,-1,-1,-1,-1,-1,-1,-1,-1],"split_conditions":[1.05E2,4.85E1,1.66E2,3.4716667E1,2.83125E1,3.0633334E2,1.99E2,2.69E2,3.4758335E1,2.5916667E0,2.1625E1,1.31625E2,5E0,4.1125E0,2.9916666E2,2.27E1,8.04E1,3.18E1,9.945833E0,9.4E1,2.81E2,2.12375E2,2.2125E1,1.14541664E2,1.9728572E2,1.71E2,7.5083336E1,4.075E0,4.9625E1,2.9875E2,7.6375E1,-1.3732914E0,-8.7370914E-1,3.563753E-1,4.5039053E0,3.1418228E0,1.2124405E1,-5.2811044E-1,-1.873217E0,1.0177924E1,3.0114695E-1,-5.1183384E-2,4.7602057E0,-7.88338E-1,6.963666E-1,-2.8342628E0,-7.51425E-1,1.1257961E0,-1.8563884E0,7.2685164E-1,2.907497E0,8.058594E-1,-1.5161479E2,4.732207E0,-1.1133238E0,-1.718403E-1,-1.9927673E1,5.520324E0,1.4530866E0,2.7603385E0,-4.6641064E0,7.816588E0,1.3310918E0],"split_indices":[0,0,3,8,8,11,0,3,8,10,9,11,7,10,11,4,2,0,10,1,2,11,9,11,4,0,9,10,9,11,9,0,0,0,0,0,0,0,0,0,0,0,0,0,0,0,0,0,0,0,0,0,0,0,0,0,0,0,0,0,0,0,0],"split_type":[0,0,0,0,0,0,0,0,0,0,0,0,0,0,0,0,0,0,0,0,0,0,0,0,0,0,0,0,0,0,0,0,0,0,0,0,0,0,0,0,0,0,0,0,0,0,0,0,0,0,0,0,0,0,0,0,0,0,0,0,0,0,0],"sum_hessian":[1.2574E4,8.806E3,3.768E3,4.42E3,4.386E3,1.952E3,1.816E3,4.284E3,1.36E2,2.594E3,1.792E3,1.903E3,4.9E1,9.2E2,8.96E2,4.277E3,7E0,2.8E1,1.08E2,5E0,2.589E3,2.67E2,1.525E3,2.23E2,1.68E3,3E0,4.6E1,1.88E2,7.32E2,8.33E2,6.3E1,5.29E2,3.748E3,3E0,4E0,1.8E1,1E1,7.8E1,3E1,3E0,2E0,2.579E3,1E1,8.7E1,1.8E2,3.4E1,1.491E3,5.8E1,1.65E2,1.438E3,2.42E2,2E0,1E0,2.3E1,2.3E1,1.87E2,1E0,5.7E1,6.75E2,8.16E2,1.7E1,4.6E1,1.7E1],"tree_param":{"num_deleted":"0","num_feature":"13","num_nodes":"63","size_leaf_vector":"1"}},{"base_weights":[-8.538732E-3,-4.1701055E0,1.5300084E1,-6.4358306E0,1.3779515E0,1.0770361E1,2.3809082E1,-4.8774037E0,-9.614017E0,-5.503897E-1,1.3381683E1,3.3180122E1,7.183607E0,-4.531406E0,2.6436049E1,2.7159324E0,-5.553501E0,-1.044041E1,-5.469985E0,9.5398796E-1,-1.1872825E1,1.8549457E-1,2.0334347E1,1.8750889E1,1.3851376E2,2.4278744E1,2.0077724E0,-1.2246868E1,4.021012E1,6.1945107E1,2.4978342E1,-7.682484E-2,1.204758E0,-3.6497504E-1,-7.682945E-1,-7.359721E-1,-1.1696633E0,2.8130505E0,-5.895463E-1,-2.3644935E-1,5.9649426E-1,-1.3912326E0,8.508703E-1,1.3927194E0,-1.2978182E0,-2.2814753E0,2.422115E0,4.13077E0,6.028964E-1,7.579445E-1,1.429193E1,3.1111836E0,-2.6896746E0,-2.6772258E0,5.8730465E-1,-8.052856E-1,-3.931219E0,9.030556E-1,4.9599915E0,6.0577005E-1,7.4140167E0,2.3260987E0,5.8861117E0],"categories":[],"categories_nodes":[],"categories_segments":[],"categories_sizes":[],"default_left":[0,0,0,0,0,0,0,0,0,0,0,0,0,0,0,0,0,0,0,0,0,0,0,0,0,0,0,0,0,0,0,0,0,0,0,0,0,0,0,0,0,0,0,0,0,0,0,0,0,0,0,0,0,0,0,0,0,0,0,0,0,0,0],"id":19,"left_children":[1,3,5,7,9,11,13,15,17,19,21,23,25,27,29,31,33,35,37,39,41,43,45,47,49,51,53,55,57,59,61,-1,-1,-1,-1,-1,-1,-1,-1,-1,-1,-1,-1,-1,-1,-1,-1,-1,-1,-1,-1,-1,-1,-1,-1,-1,-1,-1,-1,-1,-1,-1,-1],"loss_changes":[8.0119006E5,1.243047E5,1.0334825E5,3.4727906E4,6.63938E4,1.4090594E5,6.958119E4,2.4210867E4,7.8503125E3,4.211744E4,3.6420438E4,3.6521462E5,1.3400089E5,2.810857E4,4.265725E4,1.255933E4,1.751736E4,7.3598438E3,5.684198E3,3.631468E4,1.2173141E4,2.5143744E4,4.4157727E4,6.1161688E4,1.56449375E4,1.2392656E5,1.2964374E5,7.5157744E3,3.0653223E3,2.2042047E4,4.646203E4,0E0,0E0,0E0,0E0,0E0,0E0,0E0,0E0,0E0,0E0,0E0,0E0,0E0,0E0,0E0,0E0,0E0,0E0,0E0,0E0,0E0,0E0,0E0,0E0,0E0,0E0,0E0,0E0,0E0,0E0,0E0,0E0],"parents":[2147483647,0,0,1,1,2,2,3,3,4,4,5,5,6,6,7,7,8,8,9,9,10,10,11,11,12,12,13,13,14,14,15,15,16,16,17,17,18,18,19,19,20,20,21,21,22,22,23,23,24,24,25,25,26,26,27,27,28,28,29,29,30,30],"right_children":[2,4,6,8,10,12,14,16,18,20,22,24,26,28,30,32,34,36,38,40,42,44,46,48,50,52,54,56,58,60,62,-1,-1,-1,-1,-1,-1,-1,-1,-1,-1,-1,-1,-1,-1,-1,-1,-1,-1,-1,-1,-1,-1,-1,-1,-1,-1,-1,-1,-1,-1,-1,-1],"split_conditions":[1.37E2,7.4E1,2.17E2,7.5458336E1,1.54E2,3.65E0,1.6757143E2,1.02625E2,2.1983333E2,4E-1,5.6125E1,2.6770834E2,5.0416668E1,8.8E1,4.8958332E1,1.1E0,4E0,2.7933332E1,1.3816667E1,4E0,1.65E2,4.9625E1,3.9041667E0,1.17E2,1.1341666E1,3.0195833E1,5E0,6E0,2.58E2,2.7404166E2,3.3714285E2,-7.682484E-2,1.204758E0,-3.6497504E-1,-7.682945E-1,-7.359721E-1,-1.1696633E0,2.8130505E0,-5.895463E-1,-2.3644935E-1,5.9649426E-1,-1.3912326E0,8.508703E-1,1.3927194E0,-1.2978182E0,-2.2814753E0,2.422115E0,4.13077E0,6.028964E-1,7.579445E-1,1.429193E1,3.1111836E0,-2.6896746E0,-2.6772258E0,5.8730465E-1,-8.052856E-1,-3.931219E0,9.030556E-1,4.9599915E0,6.0577005E-1,7.4140167E0,2.3260987E0,5.8861117E0],"split_indices":[0,0,3,9,2,10,4,11,11,12,9,11,9,9,9,12,5,8,8,5,1,9,10,3,8,8,7,5,3,11,4,0,0,0,0,0,0,0,0,0,0,0,0,0,0,0,0,0,0,0,0,0,0,0,0,0,0,0,0,0,0,0,0],"split_type":[0,0,0,0,0,0,0,0,0,0,0,0,0,0,0,0,0,0,0,0,0,0,0,0,0,0,0,0,0,0,0,0,0,0,0,0,0,0,0,0,0,0,0,0,0,0,0,0,0,0,0,0,0,0,0,0,0,0,0,0,0,0,0],"sum_hessian":[1.2574E4,9.887E3,2.687E3,7.02E3,2.867E3,1.755E3,9.32E2,4.712E3,2.308E3,2.471E3,3.96E2,2.41E2,1.514E3,7.9E1,8.53E2,3.85E2,4.327E3,1.923E3,3.85E2,2.182E3,2.89E2,1.37E2,2.59E2,2.13E2,2.8E1,3.51E2,1.163E3,6.8E1,1.1E1,3.2E1,8.21E2,2.81E2,1.04E2,2.286E3,2.041E3,5.59E2,1.364E3,4E0,3.81E2,1.313E3,8.69E2,2.63E2,2.6E1,6.7E1,7E1,2.1E1,2.38E2,7.6E1,1.37E2,1E0,2.7E1,3.1E2,4.1E1,1.37E2,1.026E3,6E1,8E0,3E0,8E0,6E0,2.6E1,7.83E2,3.8E1],"tree_param":{"num_deleted":"0","num_feature":"13","num_nodes":"63","size_leaf_vector":"1"}},{"base_weights":[-4.834939E-3,-3.6907043E0,1.4103346E1,-6.936523E0,-2.1636662E-1,1.7866959E1,3.3157306E0,-5.9364915E0,-9.41805E0,1.7471159E1,-1.0949155E0,4.1323685E1,1.4842223E1,1.1590275E1,-2.9563457E1,-5.7462435E0,-2.6152004E1,-6.2903247E0,-1.1394873E1,8.901745E0,4.2434925E1,2.8785539E0,-3.1937175E0,3.0780674E1,8.52731E1,-1.3809454E1,1.8835577E1,-3.4247337E1,1.5524867E1,-1.1360873E2,-1.741068E1,2.2876541E-1,-6.1765873E-1,4.700989E0,-2.9793575E0,9.8600976E-2,-9.5818657E-1,-8.820279E-1,-1.2475692E0,3.613165E-1,2.9348423E0,3.152935E0,1.066536E1,1.193637E0,1.1598227E-1,-1.9807597E-1,-1.110794E0,-9.869933E-1,3.7138638E0,1.3431394E1,5.595576E0,-3.0634596E0,-3.0073515E-1,2.201799E0,-9.1845083E-1,-6.625057E-1,-4.241697E0,6.303145E-1,2.6776872E0,-6.1336773E1,-6.0830164E-1,-3.4247606E0,-2.1432547E-1],"categories":[],"categories_nodes":[],"categories_segments":[],"categories_sizes":[],"default_left":[0,0,0,0,0,0,0,0,0,0,0,0,0,0,0,0,0,0,0,0,0,0,0,0,0,0,0,0,0,0,0,0,0,0,0,0,0,0,0,0,0,0,0,0,0,0,0,0,0,0,0,0,0,0,0,0,0,0,0,0,0,0,0],"id":20,"left_children":[1,3,5,7,9,11,13,15,17,19,21,23,25,27,29,31,33,35,37,39,41,43,45,47,49,51,53,55,57,59,61,-1,-1,-1,-1,-1,-1,-1,-1,-1,-1,-1,-1,-1,-1,-1,-1,-1,-1,-1,-1,-1,-1,-1,-1,-1,-1,-1,-1,-1,-1,-1,-1],"loss_changes":[6.5396344E5,1.1244216E5,1.0570481E5,1.2736781E4,7.4872195E4,1.3639194E5,1.8398334E5,1.3991336E4,9.072922E3,4.8397125E4,3.8287613E4,9.931422E4,1.9614069E5,9.792193E4,1.3693016E5,1.2612656E4,1.045901E4,1.3780898E4,2.4082734E3,1.8384854E4,3.72571E4,2.4692492E4,2.8815244E4,4.663003E4,5.286975E4,3.807472E4,1.34227E5,9.422523E3,5.1505125E4,9.097968E5,3.0773375E4,0E0,0E0,0E0,0E0,0E0,0E0,0E0,0E0,0E0,0E0,0E0,0E0,0E0,0E0,0E0,0E0,0E0,0E0,0E0,0E0,0E0,0E0,0E0,0E0,0E0,0E0,0E0,0E0,0E0,0E0,0E0,0E0],"parents":[2147483647,0,0,1,1,2,2,3,3,4,4,5,5,6,6,7,7,8,8,9,9,10,10,11,11,12,12,13,13,14,14,15,15,16,16,17,17,18,18,19,19,20,20,21,21,22,22,23,23,24,24,25,25,26,26,27,27,28,28,29,29,30,30],"right_children":[2,4,6,8,10,12,14,16,18,20,22,24,26,28,30,32,34,36,38,40,42,44,46,48,50,52,54,56,58,60,62,-1,-1,-1,-1,-1,-1,-1,-1,-1,-1,-1,-1,-1,-1,-1,-1,-1,-1,-1,-1,-1,-1,-1,-1,-1,-1,-1,-1,-1,-1,-1,-1],"split_conditions":[1.465E2,5.55E1,7.7208336E1,7.95E1,3.65E0,1.5233334E1,1.5258333E1,1.35E2,2.7954166E1,1.44E2,2.3458334E1,2.44E2,5E0,1.17208336E2,5E0,9.8166664E1,2.5916667E0,8.3E0,2.7E0,2.7266666E1,2.6770834E2,5.0416668E1,1.3E0,5.6333332E1,1.4033334E1,2E0,2.98E2,2E0,8.25E1,1.54E2,2E0,2.2876541E-1,-6.1765873E-1,4.700989E0,-2.9793575E0,9.8600976E-2,-9.5818657E-1,-8.820279E-1,-1.2475692E0,3.613165E-1,2.9348423E0,3.152935E0,1.066536E1,1.193637E0,1.1598227E-1,-1.9807597E-1,-1.110794E0,-9.869933E-1,3.7138638E0,1.3431394E1,5.595576E0,-3.0634596E0,-3.0073515E-1,2.201799E0,-9.1845083E-1,-6.625057E-1,-4.241697E0,6.303145E-1,2.6776872E0,-6.1336773E1,-6.0830164E-1,-3.4247606E0,-2.1432547E-1],"split_indices":[4,2,9,9,10,8,8,0,8,0,8,2,6,11,7,11,10,12,12,8,11,9,12,9,8,6,11,6,9,2,5,0,0,0,0,0,0,0,0,0,0,0,0,0,0,0,0,0,0,0,0,0,0,0,0,0,0,0,0,0,0,0,0],"split_type":[0,0,0,0,0,0,0,0,0,0,0,0,0,0,0,0,0,0,0,0,0,0,0,0,0,0,0,0,0,0,0,0,0,0,0,0,0,0,0,0,0,0,0,0,0,0,0,0,0,0,0,0,0,0,0,0,0,0,0,0,0,0,0],"sum_hessian":[1.2574E4,9.97E3,2.604E3,5.154E3,4.816E3,1.93E3,6.74E2,3.676E3,1.478E3,2.27E2,4.589E3,2.19E2,1.711E3,5.39E2,1.35E2,3.643E3,3.3E1,5.74E2,9.04E2,1.7E2,5.7E1,1.586E3,3.003E3,1.78E2,4.1E1,2.09E2,1.502E3,4.2E1,4.97E2,1.6E1,1.19E2,1.85E2,3.458E3,1E0,3.2E1,1.79E2,3.95E2,2.7E2,6.34E2,1.36E2,3.4E1,5E1,7E0,2.52E2,1.334E3,2.605E3,3.98E2,2.4E1,1.54E2,1.4E1,2.7E1,8.1E1,1.28E2,1.349E3,1.53E2,1E1,3.2E1,2.74E2,2.23E2,2E0,1.4E1,5.6E1,6.3E1],"tree_param":{"num_deleted":"0","num_feature":"13","num_nodes":"63","size_leaf_vector":"1"}},{"base_weights":[-6.899591E-3,-3.4142323E0,1.252722E1,-5.9914584E0,-6.639918E-2,1.0189826E1,2.6872604E1,-8.692953E0,-4.936251E0,-2.363639E0,5.329038E0,2.2734072E1,6.744218E0,2.3677124E1,7.079005E1,1.2257378E1,-8.889583E0,5.104225E-1,-5.31922E0,-1.7705609E0,-2.2323893E1,2.2269933E0,2.7282972E1,1.1767269E1,4.1066734E1,-7.0323796E0,1.3263917E1,8.485344E0,3.4153717E1,1.1612925E2,2.5284078E0,-3.896605E-1,2.687919E0,-1.1619502E0,-7.706057E-1,6.582956E-1,-1.9478403E0,-5.849652E-1,1.088376E-1,1.6733513E0,-2.2555278E-1,-1.7742857E0,-3.3609827E0,2.7389584E-2,1.524578E0,-5.5691373E-1,3.4044912E0,1.6351086E0,-2.899534E0,2.4661553E0,6.669908E0,-3.5079598E-1,-4.379724E0,6.3915067E0,1.0390424E0,1.471746E-1,3.9082859E0,-1.9676479E0,3.8139794E0,6.4427834E0,2.0664652E1,1.3681675E0,-3.1774194E0],"categories":[],"categories_nodes":[],"categories_segments":[],"categories_sizes":[],"default_left":[0,0,0,0,0,0,0,0,0,0,0,0,0,0,0,0,0,0,0,0,0,0,0,0,0,0,0,0,0,0,0,0,0,0,0,0,0,0,0,0,0,0,0,0,0,0,0,0,0,0,0,0,0,0,0,0,0,0,0,0,0,0,0],"id":21,"left_children":[1,3,5,7,9,11,13,15,17,19,21,23,25,27,29,31,33,35,37,39,41,43,45,47,49,51,53,55,57,59,61,-1,-1,-1,-1,-1,-1,-1,-1,-1,-1,-1,-1,-1,-1,-1,-1,-1,-1,-1,-1,-1,-1,-1,-1,-1,-1,-1,-1,-1,-1,-1,-1],"loss_changes":[5.3709475E5,8.5314484E4,8.985697E4,1.5883609E4,5.3334227E4,9.982044E4,5.109075E4,6.568258E3,8.3880625E3,3.5687535E4,8.745041E4,9.964E4,1.6320506E5,5.573383E4,7.7079586E4,3.6477446E3,4.931328E3,3.229467E4,1.2772234E4,2.6349102E4,3.9016797E3,2.8652008E4,3.5510492E4,5.895762E4,7.656872E4,7.551805E4,1.787938E5,3.1059285E4,4.538133E4,5.688428E4,4.6431714E3,0E0,0E0,0E0,0E0,0E0,0E0,0E0,0E0,0E0,0E0,0E0,0E0,0E0,0E0,0E0,0E0,0E0,0E0,0E0,0E0,0E0,0E0,0E0,0E0,0E0,0E0,0E0,0E0,0E0,0E0,0E0,0E0],"parents":[2147483647,0,0,1,1,2,2,3,3,4,4,5,5,6,6,7,7,8,8,9,9,10,10,11,11,12,12,13,13,14,14,15,15,16,16,17,17,18,18,19,19,20,20,21,21,22,22,23,23,24,24,25,25,26,26,27,27,28,28,29,29,30,30],"right_children":[2,4,6,8,10,12,14,16,18,20,22,24,26,28,30,32,34,36,38,40,42,44,46,48,50,52,54,56,58,60,62,-1,-1,-1,-1,-1,-1,-1,-1,-1,-1,-1,-1,-1,-1,-1,-1,-1,-1,-1,-1,-1,-1,-1,-1,-1,-1,-1,-1,-1,-1,-1,-1],"split_conditions":[1.37E2,5.9E1,2.87E2,2.74E1,6.0416668E1,5.2125E1,2.9366666E2,1.7829166E1,2.525E1,2.7E0,1.1E1,6.7833333E0,6.0291668E1,2.73E2,2.53E2,9.01E1,2.25E1,1.0041667E1,1.0941667E1,3.3208334E0,8.68E1,6E0,5.425E0,2.97E1,1.7E2,5.85E1,6.0791668E1,2.8941666E2,1.3816667E1,1.1E1,1.9E2,-3.896605E-1,2.687919E0,-1.1619502E0,-7.706057E-1,6.582956E-1,-1.9478403E0,-5.849652E-1,1.088376E-1,1.6733513E0,-2.2555278E-1,-1.7742857E0,-3.3609827E0,2.7389584E-2,1.524578E0,-5.5691373E-1,3.4044912E0,1.6351086E0,-2.899534E0,2.4661553E0,6.669908E0,-3.5079598E-1,-4.379724E0,6.3915067E0,1.0390424E0,1.471746E-1,3.9082859E0,-1.9676479E0,3.8139794E0,6.4427834E0,2.0664652E1,1.3681675E0,-3.1774194E0],"split_indices":[0,0,2,0,9,9,11,8,9,12,6,10,9,4,3,3,3,10,10,10,2,5,10,8,3,9,9,11,8,6,0,0,0,0,0,0,0,0,0,0,0,0,0,0,0,0,0,0,0,0,0,0,0,0,0,0,0,0,0,0,0,0,0],"split_type":[0,0,0,0,0,0,0,0,0,0,0,0,0,0,0,0,0,0,0,0,0,0,0,0,0,0,0,0,0,0,0,0,0,0,0,0,0,0,0,0,0,0,0,0,0,0,0,0,0,0,0,0,0,0,0,0,0,0,0,0,0,0,0],"sum_hessian":[1.2574E4,9.887E3,2.687E3,5.586E3,4.301E3,2.312E3,3.75E2,1.567E3,4.019E3,3.017E3,1.284E3,4.97E2,1.815E3,3.51E2,2.4E1,1.4E1,1.553E3,2.64E2,3.755E3,2.931E3,8.6E1,1.126E3,1.58E2,3.12E2,1.85E2,5.83E2,1.232E3,1.44E2,2.07E2,1.4E1,1E1,7E0,7E0,4.67E2,1.086E3,2.03E2,6.1E1,3.468E3,2.87E2,7.4E1,2.857E3,6.3E1,2.3E1,9.8E2,1.46E2,2.7E1,1.31E2,2.81E2,3.1E1,1.14E2,7.1E1,5.33E2,5E1,6.5E1,1.167E3,1.18E2,2.6E1,1.4E1,1.93E2,1E1,4E0,8E0,2E0],"tree_param":{"num_deleted":"0","num_feature":"13","num_nodes":"63","size_leaf_vector":"1"}},{"base_weights":[-2.9419304E-3,-4.0557065E0,8.588196E0,-6.3799753E0,-2.3451955E0,6.1724806E0,2.0462606E1,-6.8802037E0,1.1126793E1,-3.3393484E-1,-4.4329057E0,-1.6656283E0,1.0427912E1,5.3493237E1,1.7703789E1,-6.965008E0,2.6995556E1,5.9322094E1,-7.2596283E0,-1.186053E0,2.2849346E1,1.4505697E0,-5.2392783E0,4.1974705E1,-3.2336879E0,1.770223E1,5.027934E0,-2.913386E0,5.9555927E1,3.0375069E1,1.0088282E1,7.6254123E-1,-7.080169E-1,3.9411392E0,-1.0973248E0,3.142091E0,1.1473338E1,-1.0518663E0,3.4639597E-1,-3.0853475E-2,-1.1667696E0,7.109438E-1,4.810186E0,-1.0141184E0,4.492149E-1,-4.123809E-1,-1.0191114E0,3.555568E0,1.11430435E1,-1.153653E0,2.461663E-1,1.248149E0,8.774248E0,3.1798224E0,8.055272E-2,1.1276569E0,-2.0862198E0,1.0785503E0,6.263606E0,-1.1012678E0,3.5331025E0,5.5084306E-1,4.1579084E0],"categories":[],"categories_nodes":[],"categories_segments":[],"categories_sizes":[],"default_left":[0,0,0,0,0,0,0,0,0,0,0,0,0,0,0,0,0,0,0,0,0,0,0,0,0,0,0,0,0,0,0,0,0,0,0,0,0,0,0,0,0,0,0,0,0,0,0,0,0,0,0,0,0,0,0,0,0,0,0,0,0,0,0],"id":22,"left_children":[1,3,5,7,9,11,13,15,17,19,21,23,25,27,29,31,33,35,37,39,41,43,45,47,49,51,53,55,57,59,61,-1,-1,-1,-1,-1,-1,-1,-1,-1,-1,-1,-1,-1,-1,-1,-1,-1,-1,-1,-1,-1,-1,-1,-1,-1,-1,-1,-1,-1,-1,-1,-1],"loss_changes":[4.3786944E5,3.395728E4,1.1550375E5,3.1795797E4,2.0674047E4,1.1178838E5,6.1109406E4,1.0306047E4,8.99307E4,4.959213E4,1.1469766E4,8.088389E4,8.522969E4,1.795625E4,6.0487453E4,5.958375E3,4.6752007E3,3.96841E4,2.622628E3,2.2264352E4,3.5033047E4,1.034067E4,1.1695672E4,1.4317375E4,5.3936266E4,3.371421E5,1.4104214E5,1.7634111E3,6.38475E3,4.879639E4,5.6739117E4,0E0,0E0,0E0,0E0,0E0,0E0,0E0,0E0,0E0,0E0,0E0,0E0,0E0,0E0,0E0,0E0,0E0,0E0,0E0,0E0,0E0,0E0,0E0,0E0,0E0,0E0,0E0,0E0,0E0,0E0,0E0,0E0],"parents":[2147483647,0,0,1,1,2,2,3,3,4,4,5,5,6,6,7,7,8,8,9,9,10,10,11,11,12,12,13,13,14,14,15,15,16,16,17,17,18,18,19,19,20,20,21,21,22,22,23,23,24,24,25,25,26,26,27,27,28,28,29,29,30,30],"right_children":[2,4,6,8,10,12,14,16,18,20,22,24,26,28,30,32,34,36,38,40,42,44,46,48,50,52,54,56,58,60,62,-1,-1,-1,-1,-1,-1,-1,-1,-1,-1,-1,-1,-1,-1,-1,-1,-1,-1,-1,-1,-1,-1,-1,-1,-1,-1,-1,-1,-1,-1,-1,-1],"split_conditions":[9.87E1,4.19E1,2.53E2,3.4716667E1,2.7483334E1,2.3045833E2,4.6958332E1,1.5E2,3.4758335E1,2.7208334E1,2.1625E1,1.2091666E1,5.75E0,3.1625E1,4.5E0,1.7829166E1,3.59E1,3.25E1,6.36E1,2.6783333E1,2.8541666E2,5.3708334E0,2.54375E2,3.7E1,2.03E1,5.6625E0,1.4870833E1,2.4471428E2,8.39E1,2.3208334E0,7.8791666E0,7.6254123E-1,-7.080169E-1,3.9411392E0,-1.0973248E0,3.142091E0,1.1473338E1,-1.0518663E0,3.4639597E-1,-3.0853475E-2,-1.1667696E0,7.109438E-1,4.810186E0,-1.0141184E0,4.492149E-1,-4.123809E-1,-1.0191114E0,3.555568E0,1.11430435E1,-1.153653E0,2.461663E-1,1.248149E0,8.774248E0,3.1798224E0,8.055272E-2,1.1276569E0,-2.0862198E0,1.0785503E0,6.263606E0,-1.1012678E0,3.5331025E0,5.5084306E-1,4.1579084E0],"split_indices":[0,0,1,8,8,11,9,2,8,8,9,8,10,9,10,8,0,0,3,8,11,10,11,7,8,10,8,4,3,10,10,0,0,0,0,0,0,0,0,0,0,0,0,0,0,0,0,0,0,0,0,0,0,0,0,0,0,0,0,0,0,0,0],"split_type":[0,0,0,0,0,0,0,0,0,0,0,0,0,0,0,0,0,0,0,0,0,0,0,0,0,0,0,0,0,0,0,0,0,0,0,0,0,0,0,0,0,0,0,0,0,0,0,0,0,0,0,0,0,0,0,0,0,0,0,0,0,0,0],"sum_hessian":[1.2574E4,8.544E3,4.03E3,3.621E3,4.923E3,3.35E3,6.8E2,3.521E3,1E2,2.508E3,2.415E3,1.179E3,2.171E3,5.1E1,6.29E2,3.513E3,8E0,2.7E1,7.3E1,2.42E3,8.8E1,2.91E2,2.124E3,4E1,1.139E3,9.24E2,1.247E3,5E0,4.6E1,2.35E2,3.94E2,2.7E1,3.486E3,6E0,2E0,1.9E1,8E0,5.6E1,1.7E1,2.234E3,1.86E2,5.5E1,3.3E1,6E1,2.31E2,1.735E3,3.89E2,3.8E1,2E0,4.63E2,6.76E2,8.61E2,6.3E1,1.69E2,1.078E3,3E0,2E0,3E0,4.3E1,2.5E1,2.1E2,3.45E2,4.9E1],"tree_param":{"num_deleted":"0","num_feature":"13","num_nodes":"63","size_leaf_vector":"1"}},{"base_weights":[2.102053E-3,-2.7240827E0,1.0647407E1,-4.0609345E0,1.8763697E0,1.3737547E1,1.3748405E0,-2.9384792E0,-6.6301966E0,-3.6723077E0,5.2740397E0,4.0528637E1,1.1049051E1,9.049367E0,-3.4632893E1,-3.1532214E0,1.3949351E1,-6.470226E0,-2.8278526E1,6.7122517E0,-6.70082E0,3.540183E0,2.1751648E1,3.655529E-2,4.924543E1,-1.350137E1,1.3979237E1,-2.662932E1,1.349003E1,-1.2551729E2,-2.0512701E1,7.962056E-2,-3.9157245E-1,1.6310303E0,-1.3165542E0,-6.7523426E-1,7.449152E-1,-3.389167E0,9.2133635E-1,9.375934E-1,-8.766487E-1,-9.666683E-1,9.3621635E-1,2.1487834E0,1.6264367E-1,3.3307061E0,5.9504222E-2,8.102533E0,-1.1135571E0,6.241567E0,2.323706E0,2.161851E-1,-2.575419E0,-1.3585304E0,1.7442026E0,-8.8433105E-1,-3.9447172E0,1.0553478E0,6.149791E0,-5.8579693E1,-9.6437246E-1,9.099865E-1,-3.3519611E0],"categories":[],"categories_nodes":[],"categories_segments":[],"categories_sizes":[],"default_left":[0,0,0,0,0,0,0,0,0,0,0,0,0,0,0,0,0,0,0,0,0,0,0,0,0,0,0,0,0,0,0,0,0,0,0,0,0,0,0,0,0,0,0,0,0,0,0,0,0,0,0,0,0,0,0,0,0,0,0,0,0,0,0],"id":23,"left_children":[1,3,5,7,9,11,13,15,17,19,21,23,25,27,29,31,33,35,37,39,41,43,45,47,49,51,53,55,57,59,61,-1,-1,-1,-1,-1,-1,-1,-1,-1,-1,-1,-1,-1,-1,-1,-1,-1,-1,-1,-1,-1,-1,-1,-1,-1,-1,-1,-1,-1,-1,-1,-1],"loss_changes":[3.649689E5,6.1582656E4,7.344875E4,2.2353664E4,4.253192E4,1.3806153E5,1.7772514E5,1.9630855E4,7.9830312E3,2.699743E4,3.9892156E4,6.1766344E4,1.2600703E5,8.433086E4,1.4243877E5,1.6066199E4,4.5678857E3,9.247078E3,3.8898604E3,8.0808984E3,3.172387E4,4.3483016E4,3.2495125E4,2.9856398E4,4.7874938E4,3.5944457E4,1.4942566E5,1.3101883E4,6.5892445E4,7.943644E5,3.8436656E4,0E0,0E0,0E0,0E0,0E0,0E0,0E0,0E0,0E0,0E0,0E0,0E0,0E0,0E0,0E0,0E0,0E0,0E0,0E0,0E0,0E0,0E0,0E0,0E0,0E0,0E0,0E0,0E0,0E0,0E0,0E0,0E0],"parents":[2147483647,0,0,1,1,2,2,3,3,4,4,5,5,6,6,7,7,8,8,9,9,10,10,11,11,12,12,13,13,14,14,15,15,16,16,17,17,18,18,19,19,20,20,21,21,22,22,23,23,24,24,25,25,26,26,27,27,28,28,29,29,30,30],"right_children":[2,4,6,8,10,12,14,16,18,20,22,24,26,28,30,32,34,36,38,40,42,44,46,48,50,52,54,56,58,60,62,-1,-1,-1,-1,-1,-1,-1,-1,-1,-1,-1,-1,-1,-1,-1,-1,-1,-1,-1,-1,-1,-1,-1,-1,-1,-1,-1,-1,-1,-1,-1,-1],"split_conditions":[1.42E2,8.37E1,7.7208336E1,7.5458336E1,2.4E2,1.5233334E1,1.5258333E1,8.8E0,1.2671429E2,1E0,1.7842857E2,6.2625E1,3E0,1.17208336E2,5E0,5.2125E0,6E0,2.8933334E2,2.48E2,6E0,6E0,2.5245833E2,7.6E1,5.1541668E1,7.6375E1,1.7279167E1,1.6995832E1,2E0,6.5291667E0,1.74E2,8.0291664E1,7.962056E-2,-3.9157245E-1,1.6310303E0,-1.3165542E0,-6.7523426E-1,7.449152E-1,-3.389167E0,9.2133635E-1,9.375934E-1,-8.766487E-1,-9.666683E-1,9.3621635E-1,2.1487834E0,1.6264367E-1,3.3307061E0,5.9504222E-2,8.102533E0,-1.1135571E0,6.241567E0,2.323706E0,2.161851E-1,-2.575419E0,-1.3585304E0,1.7442026E0,-8.8433105E-1,-3.9447172E0,1.0553478E0,6.149791E0,-5.8579693E1,-9.6437246E-1,9.099865E-1,-3.3519611E0],"split_indices":[0,0,9,9,11,8,8,12,4,5,4,9,6,11,7,10,6,11,3,6,5,11,9,9,9,8,8,6,10,0,9,0,0,0,0,0,0,0,0,0,0,0,0,0,0,0,0,0,0,0,0,0,0,0,0,0,0,0,0,0,0,0,0],"split_type":[0,0,0,0,0,0,0,0,0,0,0,0,0,0,0,0,0,0,0,0,0,0,0,0,0,0,0,0,0,0,0,0,0,0,0,0,0,0,0,0,0,0,0,0,0,0,0,0,0,0,0,0,0,0,0,0,0,0,0,0,0,0,0],"sum_hessian":[1.2574E4,1.0011E4,2.563E3,7.757E3,2.254E3,1.922E3,6.41E2,5.4E3,2.357E3,8.56E2,1.398E3,1.74E2,1.748E3,5.29E2,1.12E2,5.333E3,6.7E1,2.341E3,1.6E1,1.93E2,6.63E2,1.266E3,1.32E2,3.1E1,1.43E2,1.86E2,1.562E3,5.8E1,4.71E2,1.4E1,9.8E1,8.63E2,4.47E3,6.2E1,5E0,2.295E3,4.6E1,1.4E1,2E0,1.65E2,2.8E1,5.6E2,1.03E2,1.21E2,1.145E3,8.5E1,4.7E1,3E0,2.8E1,9.4E1,4.9E1,8.2E1,1.04E2,1.74E2,1.388E3,2.5E1,3.3E1,4.45E2,2.6E1,2E0,1.2E1,3E1,6.8E1],"tree_param":{"num_deleted":"0","num_feature":"13","num_nodes":"63","size_leaf_vector":"1"}},{"base_weights":[-1.5032795E-3,-2.3652182E0,1.0140494E1,-2.1247797E0,-4.92422E1,2.2115388E0,1.5253003E1,-2.556792E0,1.6189442E1,5.9669166E0,-9.529801E2,-1.0947314E1,9.464907E0,-4.3816814E0,1.882069E1,-4.606495E0,-8.5274085E-2,2.4631708E1,-1.3106445E1,-8.659728E0,3.758977E1,-1.4390071E2,9.536972E-1,1.0529431E1,-1.6725565E1,2.6707544E1,3.3215325E0,2.427778E1,-1.6070255E1,3.4670567E1,1.3699649E1,-4.4597265E-1,-2.2437544E0,8.742631E-1,-1.3976E-1,9.057941E0,2.1476204E0,-2.5835085E0,4.619391E-1,-2.6440825E0,9.6024626E-1,7.723564E0,1.7938178E0,6.24095E0,2.9508588E-1,-2.5315232E0,8.434806E-2,1.523769E0,8.711766E0,-5.659206E-1,1.9045041E0,4.9347053E0,-1.283257E0,7.589206E0,-2.0172648E0,1.0781698E0,5.3601584E0,-2.8275755E-1,2.001875E0],"categories":[],"categories_nodes":[],"categories_segments":[],"categories_sizes":[],"default_left":[0,0,0,0,0,0,0,0,0,0,0,0,0,0,0,0,0,0,0,0,0,0,0,0,0,0,0,0,0,0,0,0,0,0,0,0,0,0,0,0,0,0,0,0,0,0,0,0,0,0,0,0,0,0,0,0,0,0,0],"id":24,"left_children":[1,3,5,7,9,11,13,15,17,19,21,23,25,27,29,31,33,35,37,39,41,-1,-1,43,45,47,49,51,53,55,57,-1,-1,-1,-1,-1,-1,-1,-1,-1,-1,-1,-1,-1,-1,-1,-1,-1,-1,-1,-1,-1,-1,-1,-1,-1,-1,-1,-1],"loss_changes":[3.014818E5,1.1484854E5,9.632239E4,8.033208E4,2.600204E6,8.915474E4,1.0130531E5,5.0227777E4,5.819658E4,2.3452328E4,1.4171518E6,4.1376652E4,6.3679934E4,7.509253E4,9.879328E4,1.4084242E4,5.2098773E4,3.592858E4,1.2077507E4,1.1619158E4,1.1080207E4,0E0,0E0,2.77314E4,3.956036E4,1.08149984E5,6.294566E4,6.1104668E4,6.151614E4,1.3418978E5,9.676544E4,0E0,0E0,0E0,0E0,0E0,0E0,0E0,0E0,0E0,0E0,0E0,0E0,0E0,0E0,0E0,0E0,0E0,0E0,0E0,0E0,0E0,0E0,0E0,0E0,0E0,0E0,0E0,0E0],"parents":[2147483647,0,0,1,1,2,2,3,3,4,4,5,5,6,6,7,7,8,8,9,9,10,10,11,11,12,12,13,13,14,14,15,15,16,16,17,17,18,18,19,19,20,20,23,23,24,24,25,25,26,26,27,27,28,28,29,29,30,30],"right_children":[2,4,6,8,10,12,14,16,18,20,22,24,26,28,30,32,34,36,38,40,42,-1,-1,44,46,48,50,52,54,56,58,-1,-1,-1,-1,-1,-1,-1,-1,-1,-1,-1,-1,-1,-1,-1,-1,-1,-1,-1,-1,-1,-1,-1,-1,-1,-1,-1,-1],"split_conditions":[1.5E2,1.48E2,1.1E1,1.8985715E2,3.00875E2,6.8125E1,1E0,5.83E1,8.3125E1,1.74E2,2.16E2,1E0,7.6375E1,5.0416668E1,1.58E2,1.28E2,4.3958335E0,1.4033334E1,8.3583336E1,2.0995832E1,5.016667E0,-1.4390071E2,9.536972E-1,1.6995832E1,7.1208334E0,2.23E2,8.5083336E1,1.2E1,1.6508333E2,5.7E1,1.93E2,-4.4597265E-1,-2.2437544E0,8.742631E-1,-1.3976E-1,9.057941E0,2.1476204E0,-2.5835085E0,4.619391E-1,-2.6440825E0,9.6024626E-1,7.723564E0,1.7938178E0,6.24095E0,2.9508588E-1,-2.5315232E0,8.434806E-2,1.523769E0,8.711766E0,-5.659206E-1,1.9045041E0,4.9347053E0,-1.283257E0,7.589206E0,-2.0172648E0,1.0781698E0,5.3601584E0,-2.8275755E-1,2.001875E0],"split_indices":[3,3,6,4,11,9,5,2,9,0,0,5,9,9,1,0,10,8,9,8,10,0,0,8,10,2,9,6,11,9,0,0,0,0,0,0,0,0,0,0,0,0,0,0,0,0,0,0,0,0,0,0,0,0,0,0,0,0,0],"split_type":[0,0,0,0,0,0,0,0,0,0,0,0,0,0,0,0,0,0,0,0,0,0,0,0,0,0,0,0,0,0,0,0,0,0,0,0,0,0,0,0,0,0,0,0,0,0,0,0,0,0,0,0,0,0,0,0,0,0,0],"sum_hessian":[1.2574E4,1.0198E4,2.376E3,1.0147E4,5.1E1,9.32E2,1.444E3,9.914E3,2.33E2,4.9E1,2E0,3.31E2,6.01E2,2.22E2,1.222E3,5.419E3,4.495E3,1.81E2,5.2E1,3.4E1,1.5E1,1E0,1E0,7E1,2.61E2,1.57E2,4.44E2,6.4E1,1.58E2,2.97E2,9.25E2,5.376E3,4.3E1,5.81E2,3.914E3,7E0,1.74E2,3E1,2.2E1,1.7E1,1.7E1,4E0,1.1E1,8E0,6.2E1,1.75E2,8.6E1,1.33E2,2.4E1,2.83E2,1.61E2,3.8E1,2.6E1,6E0,1.52E2,1.32E2,1.65E2,2.56E2,6.69E2],"tree_param":{"num_deleted":"0","num_feature":"13","num_nodes":"59","size_leaf_vector":"1"}},{"base_weights":[-8.902406E-3,-2.3168838E0,8.481174E0,-1.0490199E0,-5.7847915E0,6.50191E0,2.0634256E1,-1.9516523E0,4.6465464E0,-1.4421185E1,-5.0692005E0,1.7239614E1,3.393626E0,1.7797482E1,5.9750656E1,-2.197424E0,1.728057E1,-2.248299E0,1.2907001E1,-3.2481446E0,-1.1449137E1,-1.4263503E-1,-6.111053E0,6.2826467E-1,2.5834879E1,9.907744E0,-8.521783E0,4.611611E0,2.690399E1,2.670061E1,1.4092212E2,2.3547761E0,-2.343822E-1,-2.657401E-1,3.4034622E0,8.175414E-1,-9.80995E-1,-1.6996285E0,1.5078248E0,-1.3954681E0,-1.3873222E-1,1.3991293E0,-3.6346155E-1,-6.0160595E-1,-5.2460203E0,4.4522934E0,-5.5265826E-1,1.2932678E-1,3.640598E0,2.4527676E-1,4.7755256E0,3.7657055E-1,-3.0623374E0,2.0323462E0,-6.4037687E-1,-1.6871455E0,3.015001E0,7.2262063E0,1.1362634E-2,1.8154367E0,1.8639835E1],"categories":[],"categories_nodes":[],"categories_segments":[],"categories_sizes":[],"default_left":[0,0,0,0,0,0,0,0,0,0,0,0,0,0,0,0,0,0,0,0,0,0,0,0,0,0,0,0,0,0,0,0,0,0,0,0,0,0,0,0,0,0,0,0,0,0,0,0,0,0,0,0,0,0,0,0,0,0,0,0,0],"id":25,"left_children":[1,3,5,7,9,11,13,15,17,19,21,23,25,27,29,31,33,35,37,-1,39,41,43,45,47,49,51,53,55,57,59,-1,-1,-1,-1,-1,-1,-1,-1,-1,-1,-1,-1,-1,-1,-1,-1,-1,-1,-1,-1,-1,-1,-1,-1,-1,-1,-1,-1,-1,-1],"loss_changes":[2.4642602E5,4.3469824E4,6.4523438E4,3.7240203E4,1.6285695E4,7.713979E4,4.0659203E4,2.9589514E4,5.6470977E4,1.047066E4,1.2553859E4,7.408605E4,1.3940944E5,4.214311E4,6.3305305E4,2.3325277E4,2.6479746E4,4.272208E4,2.953854E4,0E0,4.3924453E3,2.1174963E4,8.5738125E3,4.833543E4,8.867858E4,3.274617E5,1.725642E5,2.5225586E4,3.0064625E4,2.3007281E4,3.569717E4,0E0,0E0,0E0,0E0,0E0,0E0,0E0,0E0,0E0,0E0,0E0,0E0,0E0,0E0,0E0,0E0,0E0,0E0,0E0,0E0,0E0,0E0,0E0,0E0,0E0,0E0,0E0,0E0,0E0,0E0],"parents":[2147483647,0,0,1,1,2,2,3,3,4,4,5,5,6,6,7,7,8,8,9,9,10,10,11,11,12,12,13,13,14,14,15,15,16,16,17,17,18,18,20,20,21,21,22,22,23,23,24,24,25,25,26,26,27,27,28,28,29,29,30,30],"right_children":[2,4,6,8,10,12,14,16,18,20,22,24,26,28,30,32,34,36,38,-1,40,42,44,46,48,50,52,54,56,58,60,-1,-1,-1,-1,-1,-1,-1,-1,-1,-1,-1,-1,-1,-1,-1,-1,-1,-1,-1,-1,-1,-1,-1,-1,-1,-1,-1,-1,-1,-1],"split_conditions":[1.37E2,1.3E0,2.87E2,1E1,5.3958332E1,5.2291668E1,2.9366666E2,8.5083336E1,6.0416668E1,4E0,7.0458336E1,2.54375E2,1.79875E1,2.73E2,2.3129168E1,1.1341666E1,5.925E0,4.233333E0,4.0625E0,-3.2481446E0,1.27583336E2,9.55E1,2.2E2,2.5916667E0,1.01E2,1.7279167E1,2.6770834E2,5.5916667E0,1.3816667E1,1.99E2,1.74E2,2.3547761E0,-2.343822E-1,-2.657401E-1,3.4034622E0,8.175414E-1,-9.80995E-1,-1.6996285E0,1.5078248E0,-1.3954681E0,-1.3873222E-1,1.3991293E0,-3.6346155E-1,-6.0160595E-1,-5.2460203E0,4.4522934E0,-5.5265826E-1,1.2932678E-1,3.640598E0,2.4527676E-1,4.7755256E0,3.7657055E-1,-3.0623374E0,2.0323462E0,-6.4037687E-1,-1.6871455E0,3.015001E0,7.2262063E0,1.1362634E-2,1.8154367E0,1.8639835E1],"split_indices":[0,12,2,6,9,9,11,9,9,6,9,11,8,4,8,8,10,10,10,0,11,11,2,10,3,8,11,10,8,3,0,0,0,0,0,0,0,0,0,0,0,0,0,0,0,0,0,0,0,0,0,0,0,0,0,0,0,0,0,0,0],"split_type":[0,0,0,0,0,0,0,0,0,0,0,0,0,0,0,0,0,0,0,0,0,0,0,0,0,0,0,0,0,0,0,0,0,0,0,0,0,0,0,0,0,0,0,0,0,0,0,0,0,0,0,0,0,0,0,0,0,0,0,0,0],"sum_hessian":[1.2574E4,9.887E3,2.687E3,7.241E3,2.646E3,2.312E3,3.75E2,6.251E3,9.9E2,2.01E2,2.445E3,5.18E2,1.794E3,3.51E2,2.4E1,6.173E3,7.8E1,5.4E2,4.5E2,2.7E1,1.74E2,4.27E2,2.018E3,1.77E2,3.41E2,1.16E3,6.34E2,1.44E2,2.07E2,1.8E1,6E0,3.4E1,6.139E3,3.6E1,4.2E1,2.27E2,3.13E2,3E1,4.2E2,1.39E2,3.5E1,8.4E1,3.43E2,2.015E3,3E0,2.1E1,1.56E2,1.03E2,2.38E2,9.7E2,1.9E2,4.08E2,2.26E2,5.9E1,8.5E1,1.4E1,1.93E2,6E0,1.2E1,2E0,4E0],"tree_param":{"num_deleted":"0","num_feature":"13","num_nodes":"61","size_leaf_vector":"1"}},{"base_weights":[-5.1708817E-3,-1.7853885E0,9.325293E0,-2.066815E0,1.8444986E1,7.9006176E0,2.849644E1,-1.82117E0,-2.5752737E2,1.3957198E1,7.763441E1,1.2165245E1,2.0044448E0,1.5331435E1,4.368463E1,2.324682E1,-2.0371807E0,-1.3671793E2,1.7676085E1,4.965936E0,4.3023613E1,1.2903857E2,2.1858528E1,5.457894E0,4.8141212E1,-1.7567327E1,6.9718723E0,2.2639313E1,-7.783741E0,6.711645E1,2.1035484E1,1.6999468E0,9.400159E0,-4.7647048E-2,-4.82241E-1,2.9041798E0,-3.662481E0,1.65916E0,-6.32111E-1,2.35302E0,5.0814705E0,1.604306E1,1.73526E-1,2.9688308E0,-8.6451876E-1,1.1982863E0,-1.112648E0,1.210606E0,1.2392252E1,-2.9381192E0,-2.963527E-2,4.5518532E-1,3.6893559E0,4.083722E0,1.1986804E0,-1.5105336E0,2.344857E0,8.043829E0,1.8761364E0,9.449206E0,1.0878652E0],"categories":[],"categories_nodes":[],"categories_segments":[],"categories_sizes":[],"default_left":[0,0,0,0,0,0,0,0,0,0,0,0,0,0,0,0,0,0,0,0,0,0,0,0,0,0,0,0,0,0,0,0,0,0,0,0,0,0,0,0,0,0,0,0,0,0,0,0,0,0,0,0,0,0,0,0,0,0,0,0,0],"id":26,"left_children":[1,3,5,7,9,11,13,15,17,19,21,23,25,27,29,31,33,-1,35,37,39,41,43,45,47,49,51,53,55,57,59,-1,-1,-1,-1,-1,-1,-1,-1,-1,-1,-1,-1,-1,-1,-1,-1,-1,-1,-1,-1,-1,-1,-1,-1,-1,-1,-1,-1,-1,-1],"loss_changes":[2.088906E5,6.0165723E4,5.4809875E4,6.532247E5,3.743273E4,4.7172742E4,2.7123656E4,5.640619E4,3.0779665E6,3.53291E4,2.5850535E4,2.625167E5,7.6830125E4,1.3014359E4,3.2553656E4,3.7742688E4,4.4858086E4,0E0,6.6181665E3,1.3882917E4,3.6643164E3,1.9703156E4,1.6896855E3,9.958064E4,4.6546503E5,3.2637207E4,4.5451023E4,1.0753982E4,4.698934E3,1.8460406E4,2.4338988E4,0E0,0E0,0E0,0E0,0E0,0E0,0E0,0E0,0E0,0E0,0E0,0E0,0E0,0E0,0E0,0E0,0E0,0E0,0E0,0E0,0E0,0E0,0E0,0E0,0E0,0E0,0E0,0E0,0E0,0E0],"parents":[2147483647,0,0,1,1,2,2,3,3,4,4,5,5,6,6,7,7,8,8,9,9,10,10,11,11,12,12,13,13,14,14,15,15,16,16,18,18,19,19,20,20,21,21,22,22,23,23,24,24,25,25,26,26,27,27,28,28,29,29,30,30],"right_children":[2,4,6,8,10,12,14,16,18,20,22,24,26,28,30,32,34,-1,36,38,40,42,44,46,48,50,52,54,56,58,60,-1,-1,-1,-1,-1,-1,-1,-1,-1,-1,-1,-1,-1,-1,-1,-1,-1,-1,-1,-1,-1,-1,-1,-1,-1,-1,-1,-1,-1,-1],"split_conditions":[1.66E2,2.3371428E2,3.29E2,2.2985715E2,2.9958334E2,1.7554167E1,2.8E1,1.2091666E1,1.54E2,7.8791666E0,2.5842856E2,1.7279167E1,1.8958334E1,6E0,3.1E1,1.9728572E2,4E-1,-1.3671793E2,3.44E2,6.925E1,1.99E2,2.3E1,1.59E2,1.5233334E1,1.2E1,5.0958333E0,6.9666664E1,3.4958334E0,4.3083334E0,3.97E2,2.0542857E2,1.6999468E0,9.400159E0,-4.7647048E-2,-4.82241E-1,2.9041798E0,-3.662481E0,1.65916E0,-6.32111E-1,2.35302E0,5.0814705E0,1.604306E1,1.73526E-1,2.9688308E0,-8.6451876E-1,1.1982863E0,-1.112648E0,1.210606E0,1.2392252E1,-2.9381192E0,-2.963527E-2,4.5518532E-1,3.6893559E0,4.083722E0,1.1986804E0,-1.5105336E0,2.344857E0,8.043829E0,1.8761364E0,9.449206E0,1.0878652E0],"split_indices":[3,4,0,4,11,8,7,8,1,10,4,8,8,5,7,4,12,0,1,9,1,7,3,8,6,10,9,10,10,1,4,0,0,0,0,0,0,0,0,0,0,0,0,0,0,0,0,0,0,0,0,0,0,0,0,0,0,0,0,0,0],"split_type":[0,0,0,0,0,0,0,0,0,0,0,0,0,0,0,0,0,0,0,0,0,0,0,0,0,0,0,0,0,0,0,0,0,0,0,0,0,0,0,0,0,0,0,0,0,0,0,0,0,0,0,0,0,0,0,0,0,0,0,0,0],"sum_hessian":[1.2574E4,1.056E4,2.014E3,1.0416E4,1.44E2,1.876E3,1.38E2,1.0407E4,9E0,1.35E2,9E0,1.088E3,7.88E2,7.5E1,6.3E1,8.8E1,1.0319E4,1E0,8E0,1.04E2,3.1E1,4E0,5E0,9.18E2,1.7E2,1.59E2,6.29E2,5.7E1,1.8E1,3E1,3.3E1,8.2E1,6E0,6.614E3,3.705E3,7E0,1E0,5.1E1,5.3E1,1E1,2.1E1,3E0,1E0,4E0,1E0,6.59E2,2.59E2,1.16E2,5.4E1,9.4E1,6.5E1,5.83E2,4.6E1,2E1,3.7E1,1.5E1,3E0,2.3E1,7E0,3E0,3E1],"tree_param":{"num_deleted":"0","num_feature":"13","num_nodes":"61","size_leaf_vector":"1"}},{"base_weights":[-9.3205795E-3,-2.1119854E0,6.7053275E0,1.296861E1,-2.7587235E0,8.772573E0,-7.187435E0,2.7240462E0,3.3992527E1,-3.8147066E-2,-3.86914E0,2.1870441E1,4.1854787E0,-2.1015638E1,1.1912329E1,1.8244113E0,1.2056365E1,3.0302578E1,1.0458604E2,-9.2017215E-1,3.1715286E1,-3.541338E0,-1.26238165E1,6.874779E0,6.2011673E1,-1.43141985E1,7.0528593E0,-7.3438866E1,-1.3833424E1,2.295776E1,-1.4479145E1,1.5940707E0,-5.4045147E-1,5.907748E0,2.0896795E0,1.4171445E1,2.0219474E0,5.49483E-1,-2.7639487E-1,4.416018E0,1.9418272E0,2.5312378E0,-3.7254646E-1,-6.579806E-1,-4.697303E0,-8.661719E-2,3.663281E0,3.3466535E0,1.1630526E1,2.6588392E0,-1.9764919E0,1.5057619E0,1.545512E-1,-8.41306E1,-1.1547598E0,-7.361763E-1,-3.0343378E0,3.1678286E0,-4.2961746E-1,4.226433E0,-1.9098597E0],"categories":[],"categories_nodes":[],"categories_segments":[],"categories_sizes":[],"default_left":[0,0,0,0,0,0,0,0,0,0,0,0,0,0,0,0,0,0,0,0,0,0,0,0,0,0,0,0,0,0,0,0,0,0,0,0,0,0,0,0,0,0,0,0,0,0,0,0,0,0,0,0,0,0,0,0,0,0,0,0,0],"id":27,"left_children":[1,3,5,7,9,11,13,15,17,19,21,23,25,27,29,31,-1,33,35,37,39,41,43,45,47,49,51,53,55,57,59,-1,-1,-1,-1,-1,-1,-1,-1,-1,-1,-1,-1,-1,-1,-1,-1,-1,-1,-1,-1,-1,-1,-1,-1,-1,-1,-1,-1,-1,-1],"loss_changes":[1.7755625E5,9.344212E4,8.619361E4,8.476746E4,2.774446E4,1.5678038E5,1.0299124E5,2.7979398E4,3.0433516E4,7.461269E4,1.8672133E4,4.0709006E5,1.0274422E5,8.4076445E4,4.8139258E4,2.7128248E4,0E0,3.232614E4,1.5928992E4,3.0672924E4,1.0161016E4,3.350079E4,4.847857E4,1.1382733E5,2.812742E5,5.8492164E4,7.386318E4,1.2734402E6,2.114598E4,2.770566E4,1.365125E4,0E0,0E0,0E0,0E0,0E0,0E0,0E0,0E0,0E0,0E0,0E0,0E0,0E0,0E0,0E0,0E0,0E0,0E0,0E0,0E0,0E0,0E0,0E0,0E0,0E0,0E0,0E0,0E0,0E0,0E0],"parents":[2147483647,0,0,1,1,2,2,3,3,4,4,5,5,6,6,7,7,8,8,9,9,10,10,11,11,12,12,13,13,14,14,15,15,17,