{"learner":{"attributes":{"scikit_learn":"{\"_estimator_type\": \"regressor\"}"},"feature_names":["pm25","pm25_lag1","pm25_lag2","pm25_lag7","pm25_roll7","day_of_week","month","station_id","temp_mean","humidity_mean","windspeed_mean","winddirection_mean","precipitation_sum"],"feature_types":["float","float","float","float","float","int","int","int","float","float","float","float","float"],"gradient_booster":{"model":{"cats":{"enc":[],"feature_segments":[],"sorted_idx":[]},"gbtree_model_param":{"num_parallel_tree":"1","num_trees":"150"},"iteration_indptr":[0,1,2,3,4,5,6,7,8,9,10,11,12,13,14,15,16,17,18,19,20,21,22,23,24,25,26,27,28,29,30,31,32,33,34,35,36,37,38,39,40,41,42,43,44,45,46,47,48,49,50,51,52,53,54,55,56,57,58,59,60,61,62,63,64,65,66,67,68,69,70,71,72,73,74,75,76,77,78,79,80,81,82,83,84,85,86,87,88,89,90,91,92,93,94,95,96,97,98,99,100,101,102,103,104,105,106,107,108,109,110,111,112,113,114,115,116,117,118,119,120,121,122,123,124,125,126,127,128,129,130,131,132,133,134,135,136,137,138,139,140,141,142,143,144,145,146,147,148,149,150],"tree_info":[0,0,0,0,0,0,0,0,0,0,0,0,0,0,0,0,0,0,0,0,0,0,0,0,0,0,0,0,0,0,0,0,0,0,0,0,0,0,0,0,0,0,0,0,0,0,0,0,0,0,0,0,0,0,0,0,0,0,0,0,0,0,0,0,0,0,0,0,0,0,0,0,0,0,0,0,0,0,0,0,0,0,0,0,0,0,0,0,0,0,0,0,0,0,0,0,0,0,0,0,0,0,0,0,0,0,0,0,0,0,0,0,0,0,0,0,0,0,0,0,0,0,0,0,0,0,0,0,0,0,0,0,0,0,0,0,0,0,0,0,0,0,0,0,0,0,0,0,0,0],"trees":[{"base_weights":[8.2937436E-7,-3.462616E1,9.915529E1,-5.280054E1,-9.604976E0,6.3354877E1,1.5427367E2,-5.2485615E1,-6.0175586E2,-1.7263157E1,2.1424494E1,5.213732E1,9.2470406E1,1.3572765E2,2.1553079E2,-6.2452198E1,-4.2602543E1,5.8433075E0,-9.610669E1,-2.3242826E1,-3.554985E0,3.0868996E1,3.9739375E0,7.14852E1,4.263077E1,9.887141E1,2.373352E1,9.7867805E1,1.492222E2,2.5472466E2,1.9514622E2,-6.554418E0,-5.447603E0,-4.631916E0,-3.2955704E0,-1.9715351E0,-3.3408036E0,1.709759E-1,-1.7166907E0,1.731301E0,4.3423753E0,-9.441927E-1,1.6330023E0,3.329186E0,7.949182E0,4.654449E0,-3.9903533E0,8.80602E0,1.2667148E1,3.2369497E0,-1.7285645E0,1.4532127E1,7.841633E0,1.6221476E1,1.3789542E1,1.9019306E1,2.8039753E1,6.4939537E0,2.0097212E1],"categories":[],"categories_nodes":[],"categories_segments":[],"categories_sizes":[],"default_left":[0,0,0,0,0,0,0,0,0,0,0,0,0,0,0,0,0,0,0,0,0,0,0,0,0,0,0,0,0,0,0,0,0,0,0,0,0,0,0,0,0,0,0,0,0,0,0,0,0,0,0,0,0,0,0,0,0,0,0],"id":0,"left_children":[1,3,5,7,9,11,13,15,17,19,21,23,25,27,29,31,33,-1,-1,35,37,39,41,43,45,47,49,51,53,55,57,-1,-1,-1,-1,-1,-1,-1,-1,-1,-1,-1,-1,-1,-1,-1,-1,-1,-1,-1,-1,-1,-1,-1,-1,-1,-1,-1,-1],"loss_changes":[4.3178024E7,4.238167E6,6.41319E6,9.01802E5,9.3258944E5,6.402235E5,1.42606E6,5.28947E5,7.677976E5,2.5787806E5,1.27936125E5,2.5960675E5,2.387655E5,4.89146E5,1.86781E5,6.2647E4,9.5744E4,0E0,0E0,7.7905125E4,6.861111E4,8.502497E4,4.5574496E4,1.40774E5,3.1195262E5,1.394215E5,1.7563068E4,2.3044075E5,8.4324E4,1.09028E5,1.37905E5,0E0,0E0,0E0,0E0,0E0,0E0,0E0,0E0,0E0,0E0,0E0,0E0,0E0,0E0,0E0,0E0,0E0,0E0,0E0,0E0,0E0,0E0,0E0,0E0,0E0,0E0,0E0,0E0],"parents":[2147483647,0,0,1,1,2,2,3,3,4,4,5,5,6,6,7,7,8,8,9,9,10,10,11,11,12,12,13,13,14,14,15,15,16,16,19,19,20,20,21,21,22,22,23,23,24,24,25,25,26,26,27,27,28,28,29,29,30,30],"right_children":[2,4,6,8,10,12,14,16,18,20,22,24,26,28,30,32,34,-1,-1,36,38,40,42,44,46,48,50,52,54,56,58,-1,-1,-1,-1,-1,-1,-1,-1,-1,-1,-1,-1,-1,-1,-1,-1,-1,-1,-1,-1,-1,-1,-1,-1,-1,-1,-1,-1],"split_conditions":[1.19E2,5.73E1,2.06E2,1.2E1,1.03E2,1.74E2,3.06E2,3.52E1,8.02E0,8.37E1,7.633333E0,4.733333E0,1E-1,1.1E1,3.7E0,3.5914288E1,5.895714E1,5.8433075E0,-9.610669E1,1E-1,2.8725E1,6.0791668E1,9.09E1,1.0038571E2,1.71E2,2.0542857E2,8.5375E1,1.33125E1,5.016667E0,2.3208334E0,8.74E1,-6.554418E0,-5.447603E0,-4.631916E0,-3.2955704E0,-1.9715351E0,-3.3408036E0,1.709759E-1,-1.7166907E0,1.731301E0,4.3423753E0,-9.441927E-1,1.6330023E0,3.329186E0,7.949182E0,4.654449E0,-3.9903533E0,8.80602E0,1.2667148E1,3.2369497E0,-1.7285645E0,1.4532127E1,7.841633E0,1.6221476E1,1.3789542E1,1.9019306E1,2.8039753E1,6.4939537E0,2.0097212E1],"split_indices":[0,0,0,6,4,0,0,0,1,0,10,10,12,6,10,4,4,0,0,12,8,9,0,4,0,4,9,8,10,10,3,0,0,0,0,0,0,0,0,0,0,0,0,0,0,0,0,0,0,0,0,0,0,0,0,0,0,0,0],"split_type":[0,0,0,0,0,0,0,0,0,0,0,0,0,0,0,0,0,0,0,0,0,0,0,0,0,0,0,0,0,0,0,0,0,0,0,0,0,0,0,0,0,0,0,0,0,0,0,0,0,0,0,0,0,0,0,0,0,0,0],"sum_hessian":[1.2574E4,9.32E3,3.254E3,5.398E3,3.922E3,1.974E3,1.28E3,5.396E3,2E0,3.146E3,7.76E2,1.427E3,5.47E2,9.85E2,2.95E2,2.684E3,2.712E3,1E0,1E0,2.19E3,9.56E2,5.03E2,2.73E2,4.68E2,9.59E2,5E2,4.7E1,2.61E2,7.24E2,9.7E1,1.98E2,1.929E3,7.55E2,1.955E3,7.57E2,1.628E3,5.62E2,6.9E2,2.66E2,2.43E2,2.6E2,1.31E2,1.42E2,8.2E1,3.86E2,9.16E2,4.3E1,3.63E2,1.37E2,3.9E1,8E0,7.4E1,1.87E2,3.31E2,3.93E2,3E1,6.7E1,9E0,1.89E2],"tree_param":{"num_deleted":"0","num_feature":"13","num_nodes":"59","size_leaf_vector":"1"}},{"base_weights":[4.02976E-3,-2.9940685E1,9.3005684E1,-4.511354E1,-2.9328518E0,6.502174E1,1.478552E2,-5.5442574E1,-3.4487644E1,-1.1334815E1,2.3794922E1,5.0093403E1,9.011251E1,1.2908148E2,1.9422653E2,-5.49226E1,-5.716681E2,-4.200565E1,-2.975139E1,-1.6585371E1,2.5140483E0,3.1368845E1,7.1104336E0,8.963534E1,4.564091E1,9.5503235E1,3.416656E1,9.252863E1,1.3983975E2,2.760159E2,1.8532823E2,-5.925517E0,-4.906137E0,5.551142E0,-9.130135E1,-3.4952703E0,-4.4951987E0,-3.002033E0,7.5329375E0,-2.6055362E0,-1.2930917E0,8.3311284E-1,-1.4137567E0,1.9306278E0,4.2901816E0,-1.6457294E0,1.4062121E0,7.8821273E0,1.2233391E1,1.1236283E0,5.1942754E0,8.341637E0,1.1587478E1,6.657226E0,1.7220961E0,1.00643015E1,1.4295529E-1,1.2874785E1,1.5551211E1,2.8206385E1,5.938447E0,2.8003342E0,1.8879774E1],"categories":[],"categories_nodes":[],"categories_segments":[],"categories_sizes":[],"default_left":[0,0,0,0,0,0,0,0,0,0,0,0,0,0,0,0,0,0,0,0,0,0,0,0,0,0,0,0,0,0,0,0,0,0,0,0,0,0,0,0,0,0,0,0,0,0,0,0,0,0,0,0,0,0,0,0,0,0,0,0,0,0,0],"id":1,"left_children":[1,3,5,7,9,11,13,15,17,19,21,23,25,27,29,31,33,35,37,39,41,43,45,47,49,51,53,55,57,59,61,-1,-1,-1,-1,-1,-1,-1,-1,-1,-1,-1,-1,-1,-1,-1,-1,-1,-1,-1,-1,-1,-1,-1,-1,-1,-1,-1,-1,-1,-1,-1,-1],"loss_changes":[3.5023004E7,3.898162E6,4.691802E6,6.66607E5,7.6895825E5,7.5585E5,8.7509E5,7.97226E5,1.0575E5,1.8946225E5,1.0327153E5,2.203855E5,2.247385E5,2.77669E5,1.64271E5,7.5434E4,6.929373E5,2.2513125E4,5.4457875E4,6.5036938E4,6.95691E4,7.749475E4,4.2337133E4,3.5618812E4,2.4831725E5,1.59985E5,3.6194664E4,1.262615E5,7.8892E4,1.8624625E4,1.42089E5,0E0,0E0,0E0,0E0,0E0,0E0,0E0,0E0,0E0,0E0,0E0,0E0,0E0,0E0,0E0,0E0,0E0,0E0,0E0,0E0,0E0,0E0,0E0,0E0,0E0,0E0,0E0,0E0,0E0,0E0,0E0,0E0],"parents":[2147483647,0,0,1,1,2,2,3,3,4,4,5,5,6,6,7,7,8,8,9,9,10,10,11,11,12,12,13,13,14,14,15,15,16,16,17,17,18,18,19,19,20,20,21,21,22,22,23,23,24,24,25,25,26,26,27,27,28,28,29,29,30,30],"right_children":[2,4,6,8,10,12,14,16,18,20,22,24,26,28,30,32,34,36,38,40,42,44,46,48,50,52,54,56,58,60,62,-1,-1,-1,-1,-1,-1,-1,-1,-1,-1,-1,-1,-1,-1,-1,-1,-1,-1,-1,-1,-1,-1,-1,-1,-1,-1,-1,-1,-1,-1,-1,-1],"split_conditions":[1.25E2,6.4E1,2.23E2,3.81E1,1.0641428E2,1.77E2,3.06E2,1.2E1,4.8642857E1,9.19E1,7.633333E0,3.65E0,1E-1,1.1E1,1.15625E2,3.2657143E1,8.02E0,5.2916668E1,1.7671428E2,1.7E2,2.8725E1,6.1541668E1,2.755E2,3.575E0,1.1158572E2,2.0314285E2,3E0,8.9916664E1,2.84E2,2.48E2,1.54E2,-5.925517E0,-4.906137E0,5.551142E0,-9.130135E1,-3.4952703E0,-4.4951987E0,-3.002033E0,7.5329375E0,-2.6055362E0,-1.2930917E0,8.3311284E-1,-1.4137567E0,1.9306278E0,4.2901816E0,-1.6457294E0,1.4062121E0,7.8821273E0,1.2233391E1,1.1236283E0,5.1942754E0,8.341637E0,1.1587478E1,6.657226E0,1.7220961E0,1.00643015E1,1.4295529E-1,1.2874785E1,1.5551211E1,2.8206385E1,5.938447E0,2.8003342E0,1.8879774E1],"split_indices":[0,0,0,0,4,0,0,6,4,0,10,10,12,6,11,4,1,9,4,11,8,9,11,10,4,4,5,9,11,3,1,0,0,0,0,0,0,0,0,0,0,0,0,0,0,0,0,0,0,0,0,0,0,0,0,0,0,0,0,0,0,0,0],"split_type":[0,0,0,0,0,0,0,0,0,0,0,0,0,0,0,0,0,0,0,0,0,0,0,0,0,0,0,0,0,0,0,0,0,0,0,0,0,0,0,0,0,0,0,0,0,0,0,0,0,0,0,0,0,0,0,0,0,0,0,0,0,0,0],"sum_hessian":[1.2574E4,9.512E3,3.062E3,6.09E3,3.422E3,2.029E3,1.033E3,3.086E3,3.004E3,2.604E3,8.18E2,1.274E3,7.55E2,7.38E2,2.95E2,3.084E3,2E0,1.158E3,1.846E3,1.888E3,7.16E2,5.62E2,2.56E2,1.27E2,1.147E3,6.88E2,6.7E1,1.7E2,5.68E2,2.6E1,2.69E2,1.768E3,1.316E3,1E0,1E0,3.45E2,8.13E2,1.842E3,4E0,5.24E2,1.364E3,5.31E2,1.85E2,2.76E2,2.86E2,5.8E1,1.98E2,9.8E1,2.9E1,1.78E2,9.69E2,4.35E2,2.53E2,2.2E1,4.5E1,1.56E2,1.4E1,3.38E2,2.3E2,2.5E1,1E0,6E0,2.63E2],"tree_param":{"num_deleted":"0","num_feature":"13","num_nodes":"63","size_leaf_vector":"1"}},{"base_weights":[7.654539E-3,-2.8089113E1,8.04654E1,-4.3541775E1,-8.528941E0,5.2872215E1,1.2792484E2,-4.324549E1,-5.430847E2,-1.460851E1,1.7401764E1,4.236035E1,7.650266E1,1.1040265E2,1.7030536E2,-5.1160664E1,-3.57287E1,5.2735853E0,-8.673629E1,-2.0234781E1,-4.185018E0,2.527701E1,2.8722305E0,3.556808E1,6.557985E1,8.155944E1,2.496464E1,7.889727E1,1.2122929E2,2.0396025E2,1.5368234E2,-5.305954E0,-4.246496E0,-3.0787137E0,-4.0592203E0,-3.4678178E0,-1.8550084E0,-1.1156473E-1,-2.223358E0,1.7799066E0,3.999623E0,-6.974949E-1,1.6313912E0,3.9323385E0,-1.8154196E1,7.8116083E0,5.2558436E0,1.3474022E1,7.765883E0,3.3331387E0,-1.8528885E0,1.2239226E1,6.329902E0,1.0345885E1,1.29254E1,1.5351653E1,2.2054314E1,1.2687449E1,1.8101873E1],"categories":[],"categories_nodes":[],"categories_segments":[],"categories_sizes":[],"default_left":[0,0,0,0,0,0,0,0,0,0,0,0,0,0,0,0,0,0,0,0,0,0,0,0,0,0,0,0,0,0,0,0,0,0,0,0,0,0,0,0,0,0,0,0,0,0,0,0,0,0,0,0,0,0,0,0,0,0,0],"id":2,"left_children":[1,3,5,7,9,11,13,15,17,19,21,23,25,27,29,31,33,-1,-1,35,37,39,41,43,45,47,49,51,53,55,57,-1,-1,-1,-1,-1,-1,-1,-1,-1,-1,-1,-1,-1,-1,-1,-1,-1,-1,-1,-1,-1,-1,-1,-1,-1,-1,-1,-1],"loss_changes":[2.8429338E7,2.8169645E6,4.255846E6,7.4719E5,6.4897375E5,5.084635E5,8.69346E5,3.07853E5,6.25376E5,1.95439E5,8.940667E4,2.22882E5,1.6293375E5,2.80026E5,1.63342E5,3.9572E4,6.29915E4,0E0,0E0,5.2037125E4,6.479054E4,5.5093344E4,3.664588E4,9.0969075E5,4.8457375E4,1.0902025E5,2.1723754E4,1.4151075E5,7.6468E4,5.9831E4,1.50714E5,0E0,0E0,0E0,0E0,0E0,0E0,0E0,0E0,0E0,0E0,0E0,0E0,0E0,0E0,0E0,0E0,0E0,0E0,0E0,0E0,0E0,0E0,0E0,0E0,0E0,0E0,0E0,0E0],"parents":[2147483647,0,0,1,1,2,2,3,3,4,4,5,5,6,6,7,7,8,8,9,9,10,10,11,11,12,12,13,13,14,14,15,15,16,16,19,19,20,20,21,21,22,22,23,23,24,24,25,25,26,26,27,27,28,28,29,29,30,30],"right_children":[2,4,6,8,10,12,14,16,18,20,22,24,26,28,30,32,34,-1,-1,36,38,40,42,44,46,48,50,52,54,56,58,-1,-1,-1,-1,-1,-1,-1,-1,-1,-1,-1,-1,-1,-1,-1,-1,-1,-1,-1,-1,-1,-1,-1,-1,-1,-1,-1,-1],"split_conditions":[1.19E2,5.55E1,2.12E2,1.2E1,1.03E2,1.74E2,2.94E2,3.41E1,8.02E0,8.01E1,7.6875E0,2.1E2,1E-1,1.1E1,3.7E0,4.0442856E1,6E0,5.2735853E0,-8.673629E1,3.76E1,2E-1,1.4274286E2,9.49E1,2.2228572E2,5.4625E0,1.1433333E1,8.5375E1,1.3E1,2E0,2.3208334E0,2.8316666E2,-5.305954E0,-4.246496E0,-3.0787137E0,-4.0592203E0,-3.4678178E0,-1.8550084E0,-1.1156473E-1,-2.223358E0,1.7799066E0,3.999623E0,-6.974949E-1,1.6313912E0,3.9323385E0,-1.8154196E1,7.8116083E0,5.2558436E0,1.3474022E1,7.765883E0,3.3331387E0,-1.8528885E0,1.2239226E1,6.329902E0,1.0345885E1,1.29254E1,1.5351653E1,2.2054314E1,1.2687449E1,1.8101873E1],"split_indices":[0,0,0,6,4,0,0,0,1,0,10,3,12,6,10,4,6,0,0,2,12,4,0,4,10,8,9,8,5,10,11,0,0,0,0,0,0,0,0,0,0,0,0,0,0,0,0,0,0,0,0,0,0,0,0,0,0,0,0],"split_type":[0,0,0,0,0,0,0,0,0,0,0,0,0,0,0,0,0,0,0,0,0,0,0,0,0,0,0,0,0,0,0,0,0,0,0,0,0,0,0,0,0,0,0,0,0,0,0,0,0,0,0,0,0,0,0,0,0,0,0],"sum_hessian":[1.2574E4,9.32E3,3.254E3,5.206E3,4.114E3,2.059E3,1.195E3,5.204E3,2E0,3.333E3,7.81E2,1.427E3,6.32E2,8.48E2,3.47E2,2.532E3,2.672E3,1E0,1E0,2.164E3,1.169E3,5.06E2,2.75E2,1.106E3,3.21E2,5.75E2,5.7E1,2.19E2,6.29E2,1.11E2,2.36E2,2.074E3,4.58E2,1.329E3,1.343E3,2.24E2,1.94E3,1E3,1.69E2,3.37E2,1.69E2,1.59E2,1.16E2,1.088E3,1.8E1,1.61E2,1.6E2,3.7E1,5.38E2,4.8E1,9E0,5.6E1,1.63E2,2E2,4.29E2,3E1,8.1E1,1.22E2,1.14E2],"tree_param":{"num_deleted":"0","num_feature":"13","num_nodes":"59","size_leaf_vector":"1"}},{"base_weights":[9.47448E-3,-2.5804148E1,7.13911E1,-3.815035E1,-6.5788956E0,4.5072205E1,1.1491324E2,-3.788861E1,-5.159305E2,-1.3277483E1,1.1842095E1,2.9599588E1,5.9777527E1,1.011902E2,1.5956569E2,-4.557881E1,-3.0592703E1,5.0099063E0,-8.2399475E1,-8.055481E0,-1.945717E1,2.777302E0,4.195077E1,3.48013E1,5.0530205E0,6.33903E1,1.5607112E1,1.0583768E2,4.8454456E1,1.3057077E2,1.7694612E2,-4.9717155E0,-4.1717095E0,-2.5222814E0,-3.4555557E0,6.2999105E-1,-1.0285915E0,-1.7865853E-1,-2.3612077E0,4.7211757E0,-3.640026E-2,3.2638085E0,9.651591E0,2.881913E0,5.2357917E0,1.2586125E0,-3.2780938E0,8.049655E0,5.5202136E0,3.474847E0,5.0384736E-1,9.528738E0,1.1859286E1,6.4078393E0,-5.079147E-1,1.5627907E1,6.548421E0,1.4861463E1,1.999485E1],"categories":[],"categories_nodes":[],"categories_segments":[],"categories_sizes":[],"default_left":[0,0,0,0,0,0,0,0,0,0,0,0,0,0,0,0,0,0,0,0,0,0,0,0,0,0,0,0,0,0,0,0,0,0,0,0,0,0,0,0,0,0,0,0,0,0,0,0,0,0,0,0,0,0,0,0,0,0,0],"id":3,"left_children":[1,3,5,7,9,11,13,15,17,19,21,23,25,27,29,31,33,-1,-1,35,37,39,41,43,45,47,49,51,53,55,57,-1,-1,-1,-1,-1,-1,-1,-1,-1,-1,-1,-1,-1,-1,-1,-1,-1,-1,-1,-1,-1,-1,-1,-1,-1,-1,-1,-1],"loss_changes":[2.3172766E7,2.1919955E6,3.820638E6,6.83752E5,4.45982E5,4.721755E5,7.54716E5,3.14039E5,5.644019E5,8.535969E4,2.6298697E5,1.2967894E5,1.6928E5,2.31382E5,1.250555E5,4.16345E4,6.05855E4,0E0,0E0,4.6107766E4,8.901575E4,1.0358714E5,1.10166875E5,8.660844E4,5.1428867E4,1.336645E5,1.6413363E4,1.07929E5,6.723791E4,1.8051838E5,8.8241E4,0E0,0E0,0E0,0E0,0E0,0E0,0E0,0E0,0E0,0E0,0E0,0E0,0E0,0E0,0E0,0E0,0E0,0E0,0E0,0E0,0E0,0E0,0E0,0E0,0E0,0E0,0E0,0E0],"parents":[2147483647,0,0,1,1,2,2,3,3,4,4,5,5,6,6,7,7,8,8,9,9,10,10,11,11,12,12,13,13,14,14,15,15,16,16,19,19,20,20,21,21,22,22,23,23,24,24,25,25,26,26,27,27,28,28,29,29,30,30],"right_children":[2,4,6,8,10,12,14,16,18,20,22,24,26,28,30,32,34,-1,-1,36,38,40,42,44,46,48,50,52,54,56,58,-1,-1,-1,-1,-1,-1,-1,-1,-1,-1,-1,-1,-1,-1,-1,-1,-1,-1,-1,-1,-1,-1,-1,-1,-1,-1,-1,-1],"split_conditions":[1.1962857E2,5.95E1,2.06E2,1.2E1,9.79E1,1.46E2,3.06E2,3.56E1,8.02E0,2.7658333E1,1E1,8.8625E0,1E-1,1E-1,1.7279167E1,2.57E1,5.325E1,5.0099063E0,-8.2399475E1,4.6E0,2.2125E1,1.4033334E1,2.7658333E1,1.7085715E2,6E-1,4.7083335E0,3E0,2.17E2,8.9041664E1,5.4625E0,3.44E2,-4.9717155E0,-4.1717095E0,-2.5222814E0,-3.4555557E0,6.2999105E-1,-1.0285915E0,-1.7865853E-1,-2.3612077E0,4.7211757E0,-3.640026E-2,3.2638085E0,9.651591E0,2.881913E0,5.2357917E0,1.2586125E0,-3.2780938E0,8.049655E0,5.5202136E0,3.474847E0,5.0384736E-1,9.528738E0,1.1859286E1,6.4078393E0,-5.079147E-1,1.5627907E1,6.548421E0,1.4861463E1,1.999485E1],"split_indices":[4,0,0,6,0,0,0,0,1,8,6,10,12,12,8,0,9,0,0,10,9,8,8,4,12,10,5,3,9,10,0,0,0,0,0,0,0,0,0,0,0,0,0,0,0,0,0,0,0,0,0,0,0,0,0,0,0,0,0],"split_type":[0,0,0,0,0,0,0,0,0,0,0,0,0,0,0,0,0,0,0,0,0,0,0,0,0,0,0,0,0,0,0,0,0,0,0,0,0,0,0,0,0,0,0,0,0,0,0,0,0,0,0,0,0,0,0,0,0,0,0],"sum_hessian":[1.2574E4,9.235E3,3.339E3,5.623E3,3.612E3,2.082E3,1.257E3,5.621E3,2E0,2.649E3,9.63E2,1.016E3,1.066E3,9.64E2,2.93E2,2.734E3,2.887E3,1E0,1E0,1.437E3,1.212E3,7.41E2,2.22E2,8.38E2,1.78E2,9.85E2,8.1E1,8.85E2,7.9E1,1.13E2,1.8E2,1.314E3,1.42E3,1.229E3,1.658E3,1.93E2,1.244E3,2.31E2,9.81E2,4.8E1,6.93E2,1.91E2,3.1E1,6.27E2,2.11E2,1.49E2,2.9E1,3.16E2,6.69E2,2.8E1,5.3E1,4.89E2,3.96E2,6.1E1,1.8E1,8E1,3.3E1,8.4E1,9.6E1],"tree_param":{"num_deleted":"0","num_feature":"13","num_nodes":"59","size_leaf_vector":"1"}},{"base_weights":[1.0922855E-2,-2.1191792E1,7.056503E1,-3.255517E1,-1.5056323E-1,5.030917E1,1.09897026E2,-4.0354168E1,-2.4173824E1,-6.820378E0,2.0610933E1,3.855756E1,6.660804E1,9.577285E1,1.425458E2,-3.9884865E1,-7.82795E1,-2.9012995E1,-1.9312296E1,-1.1354676E1,2.8246815E0,2.6584738E1,6.764846E0,5.521014E1,3.021309E1,4.478499E1,7.561237E1,9.846355E1,1.3227506E1,2.1110326E2,1.3516211E2,-4.4677315E0,-3.5368526E0,-2.913484E0,7.779224E0,-1.9524908E0,9.428186E0,-8.8506025E-1,-2.220157E0,-8.9823864E-2,2.1610134E0,1.5774223E0,3.661678E0,-1.7565962E0,1.3088651E0,7.1555877E0,4.42129E0,-1.2893114E0,3.6287389E0,5.27512E0,-9.853388E-1,7.9371004E0,4.2409297E-2,-1.0117162E0,9.979098E0,3.7235813E0,-4.8661065E-1,2.1597204E1,4.225757E0,2.5207047E0,1.3885709E1],"categories":[],"categories_nodes":[],"categories_segments":[],"categories_sizes":[],"default_left":[0,0,0,0,0,0,0,0,0,0,0,0,0,0,0,0,0,0,0,0,0,0,0,0,0,0,0,0,0,0,0,0,0,0,0,0,0,0,0,0,0,0,0,0,0,0,0,0,0,0,0,0,0,0,0,0,0,0,0,0,0],"id":4,"left_children":[1,3,5,7,9,11,13,15,17,19,21,23,25,27,29,31,-1,33,35,37,39,41,43,45,47,49,51,53,55,57,59,-1,-1,-1,-1,-1,-1,-1,-1,-1,-1,-1,-1,-1,-1,-1,-1,-1,-1,-1,-1,-1,-1,-1,-1,-1,-1,-1,-1,-1,-1],"loss_changes":[1.8812922E7,2.3120865E6,2.309692E6,4.094575E5,4.698489E5,3.65185E5,4.4149E5,1.1015245E6,7.0699375E4,1.123399E5,6.805906E4,1.5368588E5,1.544045E5,1.523945E5,1.213045E5,6.87635E4,0E0,2.19955E4,3.8406188E4,4.7254484E4,5.7507414E4,6.189047E4,3.8695734E4,6.3706375E4,1.9606225E5,1.0367653E5,1.6020325E5,9.75785E4,1.0172324E4,1.30695E4,1.061955E5,0E0,0E0,0E0,0E0,0E0,0E0,0E0,0E0,0E0,0E0,0E0,0E0,0E0,0E0,0E0,0E0,0E0,0E0,0E0,0E0,0E0,0E0,0E0,0E0,0E0,0E0,0E0,0E0,0E0,0E0],"parents":[2147483647,0,0,1,1,2,2,3,3,4,4,5,5,6,6,7,7,8,8,9,9,10,10,11,11,12,12,13,13,14,14,15,15,17,17,18,18,19,19,20,20,21,21,22,22,23,23,24,24,25,25,26,26,27,27,28,28,29,29,30,30],"right_children":[2,4,6,8,10,12,14,16,18,20,22,24,26,28,30,32,-1,34,36,38,40,42,44,46,48,50,52,54,56,58,60,-1,-1,-1,-1,-1,-1,-1,-1,-1,-1,-1,-1,-1,-1,-1,-1,-1,-1,-1,-1,-1,-1,-1,-1,-1,-1,-1,-1,-1,-1],"split_conditions":[1.3E2,6.6E1,2.27E2,4.3E1,1.1158572E2,1.77E2,3.06E2,1.02E2,4.93E1,9.19E1,7.633333E0,4.733333E0,2.1345833E2,1.5E0,1.15625E2,2.85E1,-7.82795E1,1.1E1,1.8028572E2,2E-1,1E1,6.1916668E1,2.755E2,1.7416666E1,5E0,8.6375E1,2.6529167E1,1.0478571E2,8.7791664E1,2.48E2,8.74E1,-4.4677315E0,-3.5368526E0,-2.913484E0,7.779224E0,-1.9524908E0,9.428186E0,-8.8506025E-1,-2.220157E0,-8.9823864E-2,2.1610134E0,1.5774223E0,3.661678E0,-1.7565962E0,1.3088651E0,7.1555877E0,4.42129E0,-1.2893114E0,3.6287389E0,5.27512E0,-9.853388E-1,7.9371004E0,4.2409297E-2,-1.0117162E0,9.979098E0,3.7235813E0,-4.8661065E-1,2.1597204E1,4.225757E0,2.5207047E0,1.3885709E1],"split_indices":[0,0,0,4,4,0,0,1,0,0,10,10,11,12,11,0,0,6,4,12,6,9,11,8,7,9,8,4,9,3,3,0,0,0,0,0,0,0,0,0,0,0,0,0,0,0,0,0,0,0,0,0,0,0,0,0,0,0,0,0,0],"split_type":[0,0,0,0,0,0,0,0,0,0,0,0,0,0,0,0,0,0,0,0,0,0,0,0,0,0,0,0,0,0,0,0,0,0,0,0,0,0,0,0,0,0,0,0,0,0,0,0,0,0,0,0,0,0,0,0,0,0,0,0,0],"sum_hessian":[1.2574E4,9.669E3,2.905E3,6.278E3,3.391E3,1.919E3,9.86E2,3.25E3,3.028E3,2.567E3,8.24E2,1.117E3,8.02E2,6.91E2,2.95E2,3.249E3,1E0,1.515E3,1.513E3,1.746E3,8.21E2,5.75E2,2.49E2,3.71E2,7.46E2,2.36E2,5.66E2,6.69E2,2.2E1,2.6E1,2.69E2,1.572E3,1.677E3,1.514E3,1E0,1.511E3,2E0,1.42E3,3.26E2,6.86E2,1.35E2,2.78E2,2.97E2,5.1E1,1.98E2,1.47E2,2.24E2,9.2E1,6.54E2,2.06E2,3E1,5.39E2,2.7E1,8E0,6.61E2,9E0,1.3E1,2.5E1,1E0,9E0,2.6E2],"tree_param":{"num_deleted":"0","num_feature":"13","num_nodes":"61","size_leaf_vector":"1"}},{"base_weights":[1.0660333E-2,-2.0987768E1,5.807697E1,-3.2011936E1,-6.8386216E0,3.386667E1,8.957207E1,-3.1756853E1,-4.6255154E2,-1.184011E1,9.163895E0,4.7558613E1,2.5247658E1,7.690588E1,1.23122375E2,-3.777171E1,-2.632524E1,4.982797E0,-7.436553E1,-7.1985455E0,-1.7089792E1,1.4555577E0,3.4771168E1,4.1194492E1,7.2906555E1,-1.1156594E-1,3.1137138E1,5.3333134E1,8.627675E1,1.1518978E2,1.7452544E2,-4.152611E0,-3.4406116E0,-5.418858E-1,-2.7085147E0,5.466327E-1,-9.044531E-1,-1.3541274E-1,-2.0489888E0,3.9369996E0,-1.2234955E-1,2.6475985E0,8.345566E0,2.6742642E0,4.818689E0,5.6593533E0,1.0099344E1,1.8657963E0,-4.4222584E1,1.5924226E0,4.3376055E0,6.122915E0,5.4627866E-1,1.1562746E1,8.086799E0,1.2217876E1,8.053341E0,7.757507E0,1.8337711E1],"categories":[],"categories_nodes":[],"categories_segments":[],"categories_sizes":[],"default_left":[0,0,0,0,0,0,0,0,0,0,0,0,0,0,0,0,0,0,0,0,0,0,0,0,0,0,0,0,0,0,0,0,0,0,0,0,0,0,0,0,0,0,0,0,0,0,0,0,0,0,0,0,0,0,0,0,0,0,0],"id":5,"left_children":[1,3,5,7,9,11,13,15,17,19,21,23,25,27,29,31,33,-1,-1,35,37,39,41,43,45,47,49,51,53,55,57,-1,-1,-1,-1,-1,-1,-1,-1,-1,-1,-1,-1,-1,-1,-1,-1,-1,-1,-1,-1,-1,-1,-1,-1,-1,-1,-1,-1],"loss_changes":[1.5333931E7,1.4404365E6,2.543736E6,5.554055E5,3.239357E5,2.2184025E5,6.0714E5,1.685325E5,4.6915025E5,7.499969E4,1.9023284E5,1.14596875E5,1.7355131E5,2.286655E5,1.4137E5,2.9655E4,4.3224375E4,0E0,0E0,3.8344523E4,7.733719E4,7.5416664E4,8.784825E4,5.7827438E4,6.0720812E4,1.8338719E6,1.7488588E5,1.14194875E5,1.103475E5,7.3966E4,2.95415E4,0E0,0E0,0E0,0E0,0E0,0E0,0E0,0E0,0E0,0E0,0E0,0E0,0E0,0E0,0E0,0E0,0E0,0E0,0E0,0E0,0E0,0E0,0E0,0E0,0E0,0E0,0E0,0E0],"parents":[2147483647,0,0,1,1,2,2,3,3,4,4,5,5,6,6,7,7,8,8,9,9,10,10,11,11,12,12,13,13,14,14,15,15,16,16,19,19,20,20,21,21,22,22,23,23,24,24,25,25,26,26,27,27,28,28,29,29,30,30],"right_children":[2,4,6,8,10,12,14,16,18,20,22,24,26,28,30,32,34,-1,-1,36,38,40,42,44,46,48,50,52,54,56,58,-1,-1,-1,-1,-1,-1,-1,-1,-1,-1,-1,-1,-1,-1,-1,-1,-1,-1,-1,-1,-1,-1,-1,-1,-1,-1,-1,-1],"split_conditions":[1.1962857E2,5.55E1,1.93E2,1.2E1,9.79E1,5.4708333E0,2.87E2,3.662857E1,8.02E0,2.7691668E1,1E1,1.2E1,6.05E0,2.01375E2,3.97E2,2.6E1,2.1583334E1,4.982797E0,-7.436553E1,4.6E0,2.2125E1,1.4033334E1,2.7658333E1,1.4274286E2,1.8371428E2,2.1857143E2,1.3E2,8.6375E1,4.9375E1,7.8333336E1,2.27E2,-4.152611E0,-3.4406116E0,-5.418858E-1,-2.7085147E0,5.466327E-1,-9.044531E-1,-1.3541274E-1,-2.0489888E0,3.9369996E0,-1.2234955E-1,2.6475985E0,8.345566E0,2.6742642E0,4.818689E0,5.6593533E0,1.0099344E1,1.8657963E0,-4.4222584E1,1.5924226E0,4.3376055E0,6.122915E0,5.4627866E-1,1.1562746E1,8.086799E0,1.2217876E1,8.053341E0,7.757507E0,1.8337711E1],"split_indices":[4,0,0,6,0,10,0,4,1,8,6,6,10,11,0,0,9,0,0,10,9,8,8,4,4,4,0,9,9,9,1,0,0,0,0,0,0,0,0,0,0,0,0,0,0,0,0,0,0,0,0,0,0,0,0,0,0,0,0],"split_type":[0,0,0,0,0,0,0,0,0,0,0,0,0,0,0,0,0,0,0,0,0,0,0,0,0,0,0,0,0,0,0,0,0,0,0,0,0,0,0,0,0,0,0,0,0,0,0,0,0,0,0,0,0,0,0,0,0,0,0],"sum_hessian":[1.2574E4,9.235E3,3.339E3,5.19E3,4.045E3,1.889E3,1.45E3,5.188E3,2E0,3.082E3,9.63E2,7.28E2,1.161E3,1.055E3,3.95E2,2.459E3,2.729E3,1E0,1E0,1.637E3,1.445E3,7.41E2,2.22E2,5.84E2,1.44E2,2.19E2,9.42E2,3.02E2,7.53E2,3.45E2,5E1,1.157E3,1.302E3,9.6E1,2.633E3,2.08E2,1.429E3,2.57E2,1.188E3,4.8E1,6.93E2,1.91E2,3.1E1,1.92E2,3.92E2,9.3E1,5.1E1,2.11E2,8E0,4.21E2,5.21E2,2.59E2,4.3E1,1.14E2,6.39E2,2.85E2,6E1,5E0,4.5E1],"tree_param":{"num_deleted":"0","num_feature":"13","num_nodes":"59","size_leaf_vector":"1"}},{"base_weights":[8.921747E-3,-1.889635E1,5.228709E1,-2.8038675E1,-5.023266E0,3.3419193E1,8.534447E1,-2.7811867E1,-4.3942392E2,-1.1358055E1,5.126733E0,2.134066E1,4.4435787E1,7.8484024E1,1.3418153E2,-3.256404E1,-2.1001415E1,4.7336574E0,-7.064725E1,-7.942775E0,-2.224814E1,6.318571E-2,3.2987617E1,2.5604551E1,1.2359349E0,9.292132E1,4.1484333E1,5.783702E1,8.6683105E1,1.0754619E2,1.5867265E2,-2.6975021E0,-3.4941318E0,-4.5354658E-1,-2.180642E0,-2.4999674E-1,-1.2250242E0,-3.2386575E0,-1.7449068E0,9.9771845E-1,-5.790376E-1,2.5154145E0,8.49652E0,2.0457468E0,4.0730796E0,-2.1067874E0,1.1039724E0,1.0560485E1,5.534556E0,5.133947E0,1.5967937E0,6.5005264E0,3.9650658E-1,1.0661719E1,7.4044795E0,1.2197017E1,3.0482135E0,1.2843445E1,1.9974882E1],"categories":[],"categories_nodes":[],"categories_segments":[],"categories_sizes":[],"default_left":[0,0,0,0,0,0,0,0,0,0,0,0,0,0,0,0,0,0,0,0,0,0,0,0,0,0,0,0,0,0,0,0,0,0,0,0,0,0,0,0,0,0,0,0,0,0,0,0,0,0,0,0,0,0,0,0,0,0,0],"id":6,"left_children":[1,3,5,7,9,11,13,15,17,19,21,23,25,27,29,31,33,-1,-1,35,37,39,41,43,45,47,49,51,53,55,57,-1,-1,-1,-1,-1,-1,-1,-1,-1,-1,-1,-1,-1,-1,-1,-1,-1,-1,-1,-1,-1,-1,-1,-1,-1,-1,-1,-1],"loss_changes":[1.2429275E7,1.171282E6,2.080384E6,5.072135E5,2.3603228E5,2.8221225E5,3.95876E5,1.79424E5,4.23408E5,8.387881E4,1.990546E5,8.715003E4,1.5527575E5,1.754465E5,7.948E4,4.25845E4,3.0255375E4,0E0,0E0,4.034118E4,2.5659969E4,6.940625E4,8.621756E4,6.4488E4,3.9373055E4,2.4180688E4,2.63221E5,1.179095E5,1.838265E5,7.853825E4,6.7500625E4,0E0,0E0,0E0,0E0,0E0,0E0,0E0,0E0,0E0,0E0,0E0,0E0,0E0,0E0,0E0,0E0,0E0,0E0,0E0,0E0,0E0,0E0,0E0,0E0,0E0,0E0,0E0,0E0],"parents":[2147483647,0,0,1,1,2,2,3,3,4,4,5,5,6,6,7,7,8,8,9,9,10,10,11,11,12,12,13,13,14,14,15,15,16,16,19,19,20,20,21,21,22,22,23,23,24,24,25,25,26,26,27,27,28,28,29,29,30,30],"right_children":[2,4,6,8,10,12,14,16,18,20,22,24,26,28,30,32,34,-1,-1,36,38,40,42,44,46,48,50,52,54,56,58,-1,-1,-1,-1,-1,-1,-1,-1,-1,-1,-1,-1,-1,-1,-1,-1,-1,-1,-1,-1,-1,-1,-1,-1,-1,-1,-1,-1],"split_conditions":[1.1962857E2,5.9E1,2.09E2,1.2E1,8.351428E1,1.46E2,3.44E2,3.94E1,8.02E0,1E-1,7E0,8.8625E0,1.1433333E1,2.01375E2,1.7783333E1,6.6583336E1,2.1625E1,4.7336574E0,-7.064725E1,6.2125E0,4.6E1,2.1958334E1,2.7658333E1,1.7085715E2,2E0,2.9875E2,7.2E1,8.6375E1,4.9416666E0,5.4625E0,5E0,-2.6975021E0,-3.4941318E0,-4.5354658E-1,-2.180642E0,-2.4999674E-1,-1.2250242E0,-3.2386575E0,-1.7449068E0,9.9771845E-1,-5.790376E-1,2.5154145E0,8.49652E0,2.0457468E0,4.0730796E0,-2.1067874E0,1.1039724E0,1.0560485E1,5.534556E0,5.133947E0,1.5967937E0,6.5005264E0,3.9650658E-1,1.0661719E1,7.4044795E0,1.2197017E1,3.0482135E0,1.2843445E1,1.9974882E1],"split_indices":[4,0,0,6,4,0,0,0,1,12,6,10,8,11,8,9,9,0,0,10,2,8,8,4,6,11,9,9,10,10,5,0,0,0,0,0,0,0,0,0,0,0,0,0,0,0,0,0,0,0,0,0,0,0,0,0,0,0,0],"split_type":[0,0,0,0,0,0,0,0,0,0,0,0,0,0,0,0,0,0,0,0,0,0,0,0,0,0,0,0,0,0,0,0,0,0,0,0,0,0,0,0,0,0,0,0,0,0,0,0,0,0,0,0,0,0,0,0,0,0,0],"sum_hessian":[1.2574E4,9.235E3,3.339E3,5.566E3,3.669E3,2.127E3,1.212E3,5.564E3,2E0,2.259E3,1.41E3,1.016E3,1.111E3,1.065E3,1.47E2,3.275E3,2.289E3,1E0,1E0,1.721E3,5.38E2,1.194E3,2.16E2,8.38E2,1.78E2,6.2E1,1.049E3,3.05E2,7.6E2,7.3E1,7.4E1,9.81E2,2.294E3,1.07E2,2.182E3,7.61E2,9.6E2,1.71E2,3.67E2,4.43E2,7.51E2,1.89E2,2.7E1,6.27E2,2.11E2,5.4E1,1.24E2,4.5E1,1.7E1,7.56E2,2.93E2,2.69E2,3.6E1,2.92E2,4.68E2,6.1E1,1.2E1,4.5E1,2.9E1],"tree_param":{"num_deleted":"0","num_feature":"13","num_nodes":"59","size_leaf_vector":"1"}},{"base_weights":[1.0511259E-2,-1.6608562E1,4.835925E1,-2.493047E1,-3.1558294E0,3.3402058E1,7.9904854E1,-2.4706825E1,-2.7838666E2,-8.793079E0,7.454E0,2.567278E1,4.7967842E1,6.824091E1,1.02701454E2,-2.872757E1,-1.6926155E1,-6.711489E1,-1.2408904E1,1.0309957E1,-1.0391993E1,2.445165E0,1.8597187E1,3.9299187E1,1.8932343E1,3.904881E1,6.3877476E1,5.6320362E1,8.255617E1,8.560769E1,1.22482056E2,-3.2288945E0,-2.579396E0,-1.2615967E0,-2.3272707E0,-2.4973695E0,1.2642735E0,6.637095E-1,6.1483E0,-8.5151714E-1,-1.8088133E0,4.1891122E-1,-2.0409184E0,1.1790658E0,4.360435E0,5.399039E0,3.0381482E0,2.2645612E0,-2.923782E0,6.734372E0,3.3321693E0,6.737588E0,-4.9059007E-1,6.5657296E0,2.0150745E0,8.45819E0,5.408636E-1,8.883955E0,-2.8309333E0,1.3207787E1,6.3002415E0],"categories":[],"categories_nodes":[],"categories_segments":[],"categories_sizes":[],"default_left":[0,0,0,0,0,0,0,0,0,0,0,0,0,0,0,0,0,0,0,0,0,0,0,0,0,0,0,0,0,0,0,0,0,0,0,0,0,0,0,0,0,0,0,0,0,0,0,0,0,0,0,0,0,0,0,0,0,0,0,0,0],"id":7,"left_children":[1,3,5,7,9,11,13,15,17,19,21,23,25,27,29,31,33,-1,35,37,39,41,43,45,47,49,51,53,55,57,59,-1,-1,-1,-1,-1,-1,-1,-1,-1,-1,-1,-1,-1,-1,-1,-1,-1,-1,-1,-1,-1,-1,-1,-1,-1,-1,-1,-1,-1,-1],"loss_changes":[1.0104957E7,1.047684E6,1.51522E6,3.208675E5,2.1406664E5,2.4464975E5,2.6793E5,1.8027375E5,5.1400188E5,7.14887E4,6.927601E4,1.3050656E5,1.04781E5,1.1258375E5,1.07182E5,3.895175E4,5.362275E4,0E0,1.57481E3,3.3611156E4,3.1002312E4,3.4282617E4,6.501747E4,6.0197312E4,1.7201834E5,7.66735E4,6.5301125E4,1.263325E5,4.79895E4,7.2466125E4,8.242875E4,0E0,0E0,0E0,0E0,0E0,0E0,0E0,0E0,0E0,0E0,0E0,0E0,0E0,0E0,0E0,0E0,0E0,0E0,0E0,0E0,0E0,0E0,0E0,0E0,0E0,0E0,0E0,0E0,0E0,0E0],"parents":[2147483647,0,0,1,1,2,2,3,3,4,4,5,5,6,6,7,7,8,8,9,9,10,10,11,11,12,12,13,13,14,14,15,15,16,16,18,18,19,19,20,20,21,21,22,22,23,23,24,24,25,25,26,26,27,27,28,28,29,29,30,30],"right_children":[2,4,6,8,10,12,14,16,18,20,22,24,26,28,30,32,34,-1,36,38,40,42,44,46,48,50,52,54,56,58,60,-1,-1,-1,-1,-1,-1,-1,-1,-1,-1,-1,-1,-1,-1,-1,-1,-1,-1,-1,-1,-1,-1,-1,-1,-1,-1,-1,-1,-1,-1],"split_conditions":[1.2E2,6.275714E1,2.23E2,1.72E2,8.91E1,1.77E2,2.94E2,4.56E1,8.02E0,4.6625E0,6.1375E1,4.733333E0,2.0314285E2,2.17E2,4E0,2.85E1,1E-1,-6.711489E1,3.62E1,1.17E2,9.945833E0,4E-1,1E1,1.7416666E1,1.71E2,4.9375E1,6E-1,7.9708336E1,4E0,7.6125E0,7.8333336E1,-3.2288945E0,-2.579396E0,-1.2615967E0,-2.3272707E0,-2.4973695E0,1.2642735E0,6.637095E-1,6.1483E0,-8.5151714E-1,-1.8088133E0,4.1891122E-1,-2.0409184E0,1.1790658E0,4.360435E0,5.399039E0,3.0381482E0,2.2645612E0,-2.923782E0,6.734372E0,3.3321693E0,6.737588E0,-4.9059007E-1,6.5657296E0,2.0150745E0,8.45819E0,5.408636E-1,8.883955E0,-2.8309333E0,1.3207787E1,6.3002415E0],"split_indices":[0,4,0,1,0,0,0,0,0,10,9,10,4,3,5,0,12,0,0,1,10,12,6,8,0,9,12,9,12,10,9,0,0,0,0,0,0,0,0,0,0,0,0,0,0,0,0,0,0,0,0,0,0,0,0,0,0,0,0,0,0],"split_type":[0,0,0,0,0,0,0,0,0,0,0,0,0,0,0,0,0,0,0,0,0,0,0,0,0,0,0,0,0,0,0,0,0,0,0,0,0,0,0,0,0,0,0,0,0,0,0,0,0,0,0,0,0,0,0,0,0,0,0,0,0],"sum_hessian":[1.2574E4,9.358E3,3.216E3,5.781E3,3.577E3,2.183E3,1.033E3,5.777E3,4E0,2.336E3,1.241E3,1.428E3,7.55E2,6.86E2,3.47E2,3.807E3,1.97E3,1E0,3E0,1.8E2,2.156E3,8.57E2,3.84E2,4.71E2,9.57E2,4.86E2,2.69E2,3.77E2,3.09E2,1.89E2,1.58E2,1.715E3,2.092E3,1.175E3,7.95E2,2E0,1E0,1.69E2,1.1E1,1.735E3,4.21E2,7.97E2,6E1,3.03E2,8.1E1,1.76E2,2.95E2,8.89E2,6.8E1,8E1,4.06E2,2.56E2,1.3E1,2.99E2,7.8E1,3.01E2,8E0,1.84E2,5E0,1.35E2,2.3E1],"tree_param":{"num_deleted":"0","num_feature":"13","num_nodes":"61","size_leaf_vector":"1"}},{"base_weights":[9.264957E-3,-1.5276932E1,4.308348E1,-2.2623312E1,-3.5910223E0,2.9599995E1,7.302955E1,-2.2424559E1,-2.444782E2,-6.2649193E0,1.9935934E1,2.2281355E1,4.440251E1,6.663059E1,1.10367775E2,-2.6610903E1,-1.6467325E1,1.3197967E1,-6.3759144E1,8.90558E-1,-1.0790158E1,1.4110308E1,6.015529E1,2.427513E1,-2.8497177E1,2.6902264E1,5.2271282E1,7.219637E1,4.2602016E1,8.636902E1,1.3257498E2,-3.3698876E0,-2.5436761E0,-1.2215785E0,-2.170454E0,4.6584196E0,-1.3458841E0,-1.18127994E-1,3.5253015E0,-1.4017614E0,-6.8345517E-1,6.805427E-1,2.7314737E0,7.977451E0,2.5204582E0,1.8080399E0,3.6767812E0,4.3434024E0,-5.5877224E1,6.0165186E0,1.8042449E0,9.825823E0,4.7463527E0,5.2973666E0,7.9031105E0,-3.9697857E0,5.4711576E0,9.873135E0,2.0766456E0,1.068034E1,1.6767225E1],"categories":[],"categories_nodes":[],"categories_segments":[],"categories_sizes":[],"default_left":[0,0,0,0,0,0,0,0,0,0,0,0,0,0,0,0,0,0,0,0,0,0,0,0,0,0,0,0,0,0,0,0,0,0,0,0,0,0,0,0,0,0,0,0,0,0,0,0,0,0,0,0,0,0,0,0,0,0,0,0,0],"id":8,"left_children":[1,3,5,7,9,11,13,15,17,19,21,23,25,27,29,31,33,35,-1,37,39,41,43,45,47,49,51,53,55,57,59,-1,-1,-1,-1,-1,-1,-1,-1,-1,-1,-1,-1,-1,-1,-1,-1,-1,-1,-1,-1,-1,-1,-1,-1,-1,-1,-1,-1,-1,-1],"loss_changes":[8.280553E6,7.967705E5,1.327881E6,2.45811E5,2.2558955E5,2.452545E5,2.36828E5,1.415895E5,5.148945E5,1.0424162E5,8.490606E4,1.5488175E5,1.020105E5,1.139445E5,6.74255E4,2.6964E4,5.2127312E4,4.1868506E3,0E0,8.8891055E4,2.5079812E4,3.077673E4,2.9531766E4,1.1278719E5,2.236582E6,6.8169766E4,1.09641875E5,8.896375E4,1.6860666E5,5.7963688E4,4.9930375E4,0E0,0E0,0E0,0E0,0E0,0E0,0E0,0E0,0E0,0E0,0E0,0E0,0E0,0E0,0E0,0E0,0E0,0E0,0E0,0E0,0E0,0E0,0E0,0E0,0E0,0E0,0E0,0E0,0E0,0E0],"parents":[2147483647,0,0,1,1,2,2,3,3,4,4,5,5,6,6,7,7,8,8,9,9,10,10,11,11,12,12,13,13,14,14,15,15,16,16,17,17,19,19,20,20,21,21,22,22,23,23,24,24,25,25,26,26,27,27,28,28,29,29,30,30],"right_children":[2,4,6,8,10,12,14,16,18,20,22,24,26,28,30,32,34,36,-1,38,40,42,44,46,48,50,52,54,56,58,60,-1,-1,-1,-1,-1,-1,-1,-1,-1,-1,-1,-1,-1,-1,-1,-1,-1,-1,-1,-1,-1,-1,-1,-1,-1,-1,-1,-1,-1,-1],"split_conditions":[1.2142857E2,6.204286E1,2.23E2,2.76E2,1E1,1.74E2,3.44E2,4.12E1,5.89E1,6.2125E0,1.5E2,1.71E2,2.1591667E2,7.95E1,1.7783333E1,1.84E1,1E-1,8.02E0,-6.3759144E1,6.1041665E0,2.6925E2,1.13E2,3.9333334E0,1.46E2,2.1857143E2,3.3291667E0,3.7E0,2.3045833E2,8.075E1,5.4625E0,5E0,-3.3698876E0,-2.5436761E0,-1.2215785E0,-2.170454E0,4.6584196E0,-1.3458841E0,-1.18127994E-1,3.5253015E0,-1.4017614E0,-6.8345517E-1,6.805427E-1,2.7314737E0,7.977451E0,2.5204582E0,1.8080399E0,3.6767812E0,4.3434024E0,-5.5877224E1,6.0165186E0,1.8042449E0,9.825823E0,4.7463527E0,5.2973666E0,7.9031105E0,-3.9697857E0,5.4711576E0,9.873135E0,2.0766456E0,1.068034E1,1.6767225E1],"split_indices":[4,4,0,3,6,0,0,0,1,10,0,0,11,9,8,0,12,0,0,10,11,0,10,0,4,10,10,11,9,10,5,0,0,0,0,0,0,0,0,0,0,0,0,0,0,0,0,0,0,0,0,0,0,0,0,0,0,0,0,0,0],"split_type":[0,0,0,0,0,0,0,0,0,0,0,0,0,0,0,0,0,0,0,0,0,0,0,0,0,0,0,0,0,0,0,0,0,0,0,0,0,0,0,0,0,0,0,0,0,0,0,0,0,0,0,0,0,0,0,0,0,0,0,0,0],"sum_hessian":[1.2574E4,9.281E3,3.293E3,5.698E3,3.583E3,2.272E3,1.021E3,5.694E3,4E0,3.218E3,3.65E2,1.522E3,7.5E2,8.74E2,1.47E2,3.342E3,2.352E3,3E0,1E0,1.247E3,1.971E3,3.2E2,4.5E1,1.465E3,5.7E1,2.34E2,5.16E2,7.08E2,1.66E2,7.3E1,7.4E1,4.71E2,2.871E3,1.3E3,1.052E3,1E0,2E0,1.177E3,7E1,1.084E3,8.87E2,2.07E2,1.13E2,2.8E1,1.7E1,9.81E2,4.84E2,5.1E1,6E0,4.8E1,1.86E2,4.7E1,4.69E2,1.88E2,5.2E2,2.1E1,1.45E2,6.1E1,1.2E1,4.5E1,2.9E1],"tree_param":{"num_deleted":"0","num_feature":"13","num_nodes":"61","size_leaf_vector":"1"}},{"base_weights":[6.4241015E-3,-1.3339105E1,4.0026035E1,-1.942409E1,-5.340223E-1,3.0816149E1,7.588512E1,-1.9261593E1,-2.7415668E2,-3.868792E0,1.644831E1,2.0837414E1,4.3208305E1,6.1048626E1,9.584266E1,-2.3846846E1,-1.4062524E1,3.8265655E0,-6.0571186E1,2.6764574E1,-5.1870666E0,5.5767074E0,3.6722416E1,2.2884575E1,-2.6535975E1,4.637997E1,9.411366E0,9.9909775E1,5.053088E1,1.0287973E2,5.2455627E1,-2.7518296E0,-2.1453013E0,2.312278E-1,-1.495033E0,1.7468992E0,6.3115053E0,-3.3008215E-1,-1.4559348E0,-1.9891442E0,8.7082416E-1,2.5330791E0,6.6097703E0,2.4230847E0,-3.4397042E0,-4.9551865E1,4.755025E0,4.1048064E0,6.421327E0,3.087419E0,-1.9592846E-2,1.1353484E1,7.8938065E0,6.6563897E0,2.7699902E0,2.4849148E0,1.0813483E1,5.0787103E-1,6.4141145E0],"categories":[],"categories_nodes":[],"categories_segments":[],"categories_sizes":[],"default_left":[0,0,0,0,0,0,0,0,0,0,0,0,0,0,0,0,0,0,0,0,0,0,0,0,0,0,0,0,0,0,0,0,0,0,0,0,0,0,0,0,0,0,0,0,0,0,0,0,0,0,0,0,0,0,0,0,0,0,0],"id":9,"left_children":[1,3,5,7,9,11,13,15,17,19,21,23,25,27,29,31,33,-1,-1,35,37,39,41,43,45,47,49,51,53,55,57,-1,-1,-1,-1,-1,-1,-1,-1,-1,-1,-1,-1,-1,-1,-1,-1,-1,-1,-1,-1,-1,-1,-1,-1,-1,-1,-1,-1],"loss_changes":[6.7166265E6,7.348411E5,1.036323E6,2.5934625E5,1.7216881E5,3.0873925E5,1.8424475E5,1.5199625E5,4.3751894E5,1.02752516E5,1.097808E5,1.3531388E5,1.19190375E5,1.4659088E5,7.765E4,2.9239E4,4.3603938E4,0E0,0E0,3.437682E4,4.303425E4,2.617315E4,5.6551703E4,1.0355281E5,2.0387811E6,9.43515E4,2.0007418E4,1.33255625E4,1.0577469E5,9.285625E4,2.181921E4,0E0,0E0,0E0,0E0,0E0,0E0,0E0,0E0,0E0,0E0,0E0,0E0,0E0,0E0,0E0,0E0,0E0,0E0,0E0,0E0,0E0,0E0,0E0,0E0,0E0,0E0,0E0,0E0],"parents":[2147483647,0,0,1,1,2,2,3,3,4,4,5,5,6,6,7,7,8,8,9,9,10,10,11,11,12,12,13,13,14,14,15,15,16,16,19,19,20,20,21,21,22,22,23,23,24,24,25,25,26,26,27,27,28,28,29,29,30,30],"right_children":[2,4,6,8,10,12,14,16,18,20,22,24,26,28,30,32,34,-1,-1,36,38,40,42,44,46,48,50,52,54,56,58,-1,-1,-1,-1,-1,-1,-1,-1,-1,-1,-1,-1,-1,-1,-1,-1,-1,-1,-1,-1,-1,-1,-1,-1,-1,-1,-1,-1],"split_conditions":[1.2671429E2,6.76E1,2.57E2,1.2E1,1E1,1.74E2,4E0,4.412857E1,6.46E1,1.4033334E1,1.22E2,1.71E2,1E-1,5.0416668E1,7.8333336E1,2.67E1,2.1625E1,3.8265655E0,-6.0571186E1,1.3816667E1,1E-1,4.72E1,2.70625E1,1.33E1,5E0,2.4114285E2,2E0,2.03E1,5.5E0,4.5916668E1,1.67E2,-2.7518296E0,-2.1453013E0,2.312278E-1,-1.495033E0,1.7468992E0,6.3115053E0,-3.3008215E-1,-1.4559348E0,-1.9891442E0,8.7082416E-1,2.5330791E0,6.6097703E0,2.4230847E0,-3.4397042E0,-4.9551865E1,4.755025E0,4.1048064E0,6.421327E0,3.087419E0,-1.9592846E-2,1.1353484E1,7.8938065E0,6.6563897E0,2.7699902E0,2.4849148E0,1.0813483E1,5.0787103E-1,6.4141145E0],"split_indices":[4,0,0,6,6,0,5,4,1,8,0,0,12,9,9,0,9,0,0,8,12,2,8,12,7,4,5,8,10,9,2,0,0,0,0,0,0,0,0,0,0,0,0,0,0,0,0,0,0,0,0,0,0,0,0,0,0,0,0],"split_type":[0,0,0,0,0,0,0,0,0,0,0,0,0,0,0,0,0,0,0,0,0,0,0,0,0,0,0,0,0,0,0,0,0,0,0,0,0,0,0,0,0,0,0,0,0,0,0,0,0,0,0,0,0,0,0,0,0,0,0],"sum_hessian":[1.2574E4,9.43E3,3.144E3,6.392E3,3.038E3,2.503E3,6.41E2,6.389E3,3E0,2.54E3,4.98E2,1.388E3,1.115E3,3.7E2,2.71E2,3.393E3,2.996E3,2E0,1E0,1.04E2,2.436E3,3.25E2,1.73E2,1.331E3,5.7E1,1.019E3,9.6E1,7.7E1,2.93E2,2.32E2,3.9E1,1.335E3,2.058E3,1.54E2,2.842E3,8.4E1,2E1,2.029E3,4.07E2,3.5E1,2.9E2,1.26E2,4.7E1,1.301E3,3E1,7E0,5E1,7.87E2,2.32E2,2.9E1,6.7E1,4.4E1,3.3E1,1.71E2,1.22E2,1.5E1,2.17E2,8E0,3.1E1],"tree_param":{"num_deleted":"0","num_feature":"13","num_nodes":"59","size_leaf_vector":"1"}},{"base_weights":[3.2427148E-3,-1.1435442E1,3.8066586E1,-1.659812E1,2.24705E0,2.9615744E1,6.729398E1,-2.1119156E1,-1.0990549E1,-2.4346926E0,1.0214698E1,2.3167768E1,4.53749E1,5.331103E1,8.645971E1,-2.0828363E1,-5.754263E1,1.7974976E0,-1.1834423E1,-1.2172795E1,-9.0535104E-2,2.963929E0,1.5985982E1,8.062045E1,2.0881454E1,4.7538273E1,-1.2078817E0,6.4680715E0,5.8819145E1,9.4811646E1,5.587902E1,-1.6432892E0,-2.2890112E0,-9.419762E-1,6.633146E0,-6.405415E-1,-1.3383447E0,-7.341737E-1,-2.54571E0,4.9934393E-1,-5.8500844E-1,1.06649E0,-3.9164352E-1,1.1928996E0,5.2728724E0,3.1888435E0,9.070373E0,2.8368297E0,-2.0268868E-1,5.6945934E0,3.495803E0,9.877081E-1,-2.817025E0,-4.414951E0,1.8187853E0,6.298662E0,-2.3822868E0,2.2519548E0,1.0017459E1,2.087753E0,6.7860045E0],"categories":[],"categories_nodes":[],"categories_segments":[],"categories_sizes":[],"default_left":[0,0,0,0,0,0,0,0,0,0,0,0,0,0,0,0,0,0,0,0,0,0,0,0,0,0,0,0,0,0,0,0,0,0,0,0,0,0,0,0,0,0,0,0,0,0,0,0,0,0,0,0,0,0,0,0,0,0,0,0,0],"id":10,"left_children":[1,3,5,7,9,11,13,15,17,19,21,23,25,27,29,31,-1,33,35,37,39,41,43,45,47,49,51,53,55,57,59,-1,-1,-1,-1,-1,-1,-1,-1,-1,-1,-1,-1,-1,-1,-1,-1,-1,-1,-1,-1,-1,-1,-1,-1,-1,-1,-1,-1,-1,-1],"loss_changes":[5.4755225E6,6.8310975E5,7.157775E5,1.7776462E5,9.887643E4,2.2819125E5,1.698545E5,6.1439525E5,3.3863406E4,3.8121066E4,4.100378E4,2.0887838E5,6.5964875E4,9.740775E4,6.4428375E4,3.4831125E4,0E0,1.4178419E5,2.46555E4,2.0606535E4,3.9471258E4,2.3143443E4,8.076039E4,2.7081688E4,2.6469912E5,7.19785E4,9.244544E3,2.512529E4,1.18255E5,8.0323875E4,2.4163828E4,0E0,0E0,0E0,0E0,0E0,0E0,0E0,0E0,0E0,0E0,0E0,0E0,0E0,0E0,0E0,0E0,0E0,0E0,0E0,0E0,0E0,0E0,0E0,0E0,0E0,0E0,0E0,0E0,0E0,0E0],"parents":[2147483647,0,0,1,1,2,2,3,3,4,4,5,5,6,6,7,7,8,8,9,9,10,10,11,11,12,12,13,13,14,14,15,15,17,17,18,18,19,19,20,20,21,21,22,22,23,23,24,24,25,25,26,26,27,27,28,28,29,29,30,30],"right_children":[2,4,6,8,10,12,14,16,18,20,22,24,26,28,30,32,-1,34,36,38,40,42,44,46,48,50,52,54,56,58,60,-1,-1,-1,-1,-1,-1,-1,-1,-1,-1,-1,-1,-1,-1,-1,-1,-1,-1,-1,-1,-1,-1,-1,-1,-1,-1,-1,-1,-1,-1],"split_conditions":[1.3E2,7.4E1,2.57E2,4.8271427E1,1.0171429E2,2.2E2,4E0,1.5E2,2.1625E1,5.5E1,5.6791668E1,1.1433333E1,4E0,1.83E2,7.7833336E1,6.6833336E1,-5.754263E1,8.8375E0,5.5875E0,4E-1,6.179167E0,2.1958334E1,2.3745832E1,1.32E2,7.1458336E1,1.7416666E1,1.9485715E2,1.3125714E2,7.7625E0,4.5916668E1,1.75E2,-1.6432892E0,-2.2890112E0,-9.419762E-1,6.633146E0,-6.405415E-1,-1.3383447E0,-7.341737E-1,-2.54571E0,4.9934393E-1,-5.8500844E-1,1.06649E0,-3.9164352E-1,1.1928996E0,5.2728724E0,3.1888435E0,9.070373E0,2.8368297E0,-2.0268868E-1,5.6945934E0,3.495803E0,9.877081E-1,-2.817025E0,-4.414951E0,1.8187853E0,6.298662E0,-2.3822868E0,2.2519548E0,1.0017459E1,2.087753E0,6.7860045E0],"split_indices":[0,0,0,4,4,3,5,1,9,2,9,8,12,1,9,9,0,10,10,12,10,8,8,1,9,8,4,4,10,9,3,0,0,0,0,0,0,0,0,0,0,0,0,0,0,0,0,0,0,0,0,0,0,0,0,0,0,0,0,0,0],"split_type":[0,0,0,0,0,0,0,0,0,0,0,0,0,0,0,0,0,0,0,0,0,0,0,0,0,0,0,0,0,0,0,0,0,0,0,0,0,0,0,0,0,0,0,0,0,0,0,0,0,0,0,0,0,0,0,0,0,0,0,0,0],"sum_hessian":[1.2574E4,9.669E3,2.905E3,7.02E3,2.649E3,2.255E3,6.5E2,3.885E3,3.135E3,1.669E3,9.8E2,1.602E3,6.53E2,3.78E2,2.72E2,3.884E3,1E0,1.94E2,2.941E3,3.23E2,1.346E3,4.35E2,5.45E2,6E1,1.542E3,6.24E2,2.9E1,4E1,3.38E2,2.12E2,6E1,1.243E3,2.641E3,1.66E2,2.8E1,6.54E2,2.287E3,2.38E2,8.5E1,7.15E2,6.31E2,2.05E2,2.3E2,4.92E2,5.3E1,1.1E1,4.9E1,1.162E3,3.8E2,3.55E2,2.69E2,2.1E1,8E0,7E0,3.3E1,3.22E2,1.6E1,1.5E1,1.97E2,1.6E1,4.4E1],"tree_param":{"num_deleted":"0","num_feature":"13","num_nodes":"61","size_leaf_vector":"1"}},{"base_weights":[2.1822893E-3,-9.888104E0,3.6110504E1,-1.4471593E1,4.2940245E0,2.817851E1,6.1804783E1,-1.434011E1,-2.0767111E2,-3.2181835E-1,1.8710207E1,2.368302E1,4.576157E1,4.9771397E1,7.776954E1,-1.8932201E1,-9.393738E0,1.3738603E1,-5.4665497E1,2.7756908E1,-2.523557E0,1.4964858E1,5.18473E1,2.564086E1,-2.2928076E1,4.9924126E1,-6.269515E0,8.466293E1,4.063908E1,4.08568E1,8.39577E1,-1.6208292E0,-2.1716113E0,1.7561948E-1,-1.0192586E0,4.348621E0,-1.0672668E0,4.3465066E0,5.382032E-1,-2.9721396E0,-1.713352E-1,3.093627E0,1.087007E0,6.9726787E0,-1.6782163E0,6.093908E0,2.3396785E0,-5.712799E1,4.0373416E0,6.0671277E0,2.2802408E0,4.6907377E0,-1.137822E0,9.593782E0,6.347043E0,5.511039E0,2.0307693E0,1.2514822E0,8.013284E0,1.1267991E1,6.9242525E0],"categories":[],"categories_nodes":[],"categories_segments":[],"categories_sizes":[],"default_left":[0,0,0,0,0,0,0,0,0,0,0,0,0,0,0,0,0,0,0,0,0,0,0,0,0,0,0,0,0,0,0,0,0,0,0,0,0,0,0,0,0,0,0,0,0,0,0,0,0,0,0,0,0,0,0,0,0,0,0,0,0],"id":11,"left_children":[1,3,5,7,9,11,13,15,17,19,21,23,25,27,29,31,33,35,-1,37,39,41,43,45,47,49,51,53,55,57,59,-1,-1,-1,-1,-1,-1,-1,-1,-1,-1,-1,-1,-1,-1,-1,-1,-1,-1,-1,-1,-1,-1,-1,-1,-1,-1,-1,-1,-1,-1],"loss_changes":[4.491162E6,6.417779E5,5.4935225E5,1.8654975E5,1.6050734E5,1.6238025E5,1.185035E5,1.69202E5,3.8278188E5,1.1308069E5,7.182847E4,1.5107081E5,9.12775E4,1.1318181E5,5.87005E4,2.8964375E4,3.2012219E4,3.368821E3,0E0,4.651132E4,3.732183E4,3.412928E4,7.356667E4,1.2396656E5,2.3487338E6,1.1200275E5,9.227004E3,1.18315E4,8.479353E4,4.4636727E4,9.0253125E4,0E0,0E0,0E0,0E0,0E0,0E0,0E0,0E0,0E0,0E0,0E0,0E0,0E0,0E0,0E0,0E0,0E0,0E0,0E0,0E0,0E0,0E0,0E0,0E0,0E0,0E0,0E0,0E0,0E0,0E0],"parents":[2147483647,0,0,1,1,2,2,3,3,4,4,5,5,6,6,7,7,8,8,9,9,10,10,11,11,12,12,13,13,14,14,15,15,16,16,17,17,19,19,20,20,21,21,22,22,23,23,24,24,25,25,26,26,27,27,28,28,29,29,30,30],"right_children":[2,4,6,8,10,12,14,16,18,20,22,24,26,28,30,32,34,36,-1,38,40,42,44,46,48,50,52,54,56,58,60,-1,-1,-1,-1,-1,-1,-1,-1,-1,-1,-1,-1,-1,-1,-1,-1,-1,-1,-1,-1,-1,-1,-1,-1,-1,-1,-1,-1,-1,-1],"split_conditions":[1.4274286E2,8.01E1,2.57E2,2.87E2,1E1,2.2985715E2,4E0,4.39E1,5.89E1,1.4033334E1,2.7658333E1,2.2228572E2,6E-1,5.0416668E1,1.48E2,7.5791664E1,2.1625E1,8.02E0,-5.4665497E1,2.9875E2,3.57E1,1.7416666E1,2.81375E1,1.1433333E1,5E0,2.9E2,1.3208333E1,2E0,5.5E0,1.7783333E1,3.7E0,-1.6208292E0,-2.1716113E0,1.7561948E-1,-1.0192586E0,4.348621E0,-1.0672668E0,4.3465066E0,5.382032E-1,-2.9721396E0,-1.713352E-1,3.093627E0,1.087007E0,6.9726787E0,-1.6782163E0,6.093908E0,2.3396785E0,-5.712799E1,4.0373416E0,6.0671277E0,2.2802408E0,4.6907377E0,-1.137822E0,9.593782E0,6.347043E0,5.511039E0,2.0307693E0,1.2514822E0,8.013284E0,1.1267991E1,6.9242525E0],"split_indices":[4,0,0,3,6,4,5,0,1,8,8,4,12,9,3,9,9,0,0,11,2,8,8,8,7,11,8,5,10,8,10,0,0,0,0,0,0,0,0,0,0,0,0,0,0,0,0,0,0,0,0,0,0,0,0,0,0,0,0,0,0],"split_type":[0,0,0,0,0,0,0,0,0,0,0,0,0,0,0,0,0,0,0,0,0,0,0,0,0,0,0,0,0,0,0,0,0,0,0,0,0,0,0,0,0,0,0,0,0,0,0,0,0,0,0,0,0,0,0,0,0,0,0,0,0],"sum_hessian":[1.2574E4,9.871E3,2.703E3,7.46E3,2.411E3,2.067E3,6.36E2,7.456E3,4E0,1.827E3,5.84E2,1.648E3,4.19E2,3.65E2,2.71E2,3.865E3,3.591E3,3E0,1E0,1.32E2,1.695E3,5.26E2,5.8E1,1.582E3,6.6E1,3.88E2,3.1E1,7.4E1,2.91E2,4E1,2.31E2,1.957E3,1.908E3,2.4E2,3.351E3,1E0,2E0,7.7E1,5.5E1,4.8E1,1.647E3,1.06E2,4.2E2,4.6E1,1.2E1,9.3E1,1.489E3,6E0,6E1,2.77E2,1.11E2,2E0,2.9E1,4.6E1,2.8E1,1.69E2,1.22E2,2.4E1,1.6E1,7.6E1,1.55E2],"tree_param":{"num_deleted":"0","num_feature":"13","num_nodes":"61","size_leaf_vector":"1"}},{"base_weights":[-1.527608E-4,-9.018993E0,3.2120266E1,-1.4464394E1,6.22446E-1,2.2762297E1,4.887898E1,-1.4297245E1,-1.8672372E2,-2.0293956E0,1.3309606E1,4.8157097E1,1.9222425E1,4.430588E1,7.4101494E1,-9.776422E0,-1.7409985E1,-5.193222E1,-1.6339579E1,3.7934275E0,-5.928902E0,7.4294243E0,2.6665369E1,3.3709717E1,8.98356E1,6.1462208E1,1.6709442E1,3.5856762E1,5.3873394E1,-3.560855E1,7.735114E1,-1.3792397E0,-6.4102787E-1,-2.289362E0,-1.6399628E0,-2.5890305E0,1.0931664E0,1.4214002E-1,3.4250278E0,-1.0705198E0,-1.6212453E-1,8.601341E0,6.4829725E-1,9.188572E-2,3.7947156E0,2.0848858E0,5.8350863E0,6.8717723E0,1.1838889E1,4.8615656E0,9.509542E0,1.2954296E0,4.6129675E0,4.672427E0,1.6568642E0,6.878608E0,3.8375535E0,-4.1137424E0,-6.7465365E-1,5.583627E0,9.752998E0],"categories":[],"categories_nodes":[],"categories_segments":[],"categories_sizes":[],"default_left":[0,0,0,0,0,0,0,0,0,0,0,0,0,0,0,0,0,0,0,0,0,0,0,0,0,0,0,0,0,0,0,0,0,0,0,0,0,0,0,0,0,0,0,0,0,0,0,0,0,0,0,0,0,0,0,0,0,0,0,0,0],"id":12,"left_children":[1,3,5,7,9,11,13,15,17,19,21,23,25,27,29,31,33,-1,35,37,39,41,43,45,47,49,51,53,55,57,59,-1,-1,-1,-1,-1,-1,-1,-1,-1,-1,-1,-1,-1,-1,-1,-1,-1,-1,-1,-1,-1,-1,-1,-1,-1,-1,-1,-1,-1,-1],"loss_changes":[3.6431285E6,5.1552125E5,4.312605E5,1.7800562E5,1.1929619E5,1.5827712E5,1.105625E5,8.8062E4,3.3153156E5,6.661959E4,4.794343E4,1.2703503E5,1.64139E5,6.5809875E4,5.623225E4,3.4505016E4,2.019075E4,0E0,1.5853248E3,8.498307E4,3.613229E4,3.1200934E4,5.4282406E4,5.012228E4,2.5028781E4,3.296703E4,1.6180403E5,9.313281E4,8.772625E4,5.203364E2,5.79395E4,0E0,0E0,0E0,0E0,0E0,0E0,0E0,0E0,0E0,0E0,0E0,0E0,0E0,0E0,0E0,0E0,0E0,0E0,0E0,0E0,0E0,0E0,0E0,0E0,0E0,0E0,0E0,0E0,0E0,0E0],"parents":[2147483647,0,0,1,1,2,2,3,3,4,4,5,5,6,6,7,7,8,8,9,9,10,10,11,11,12,12,13,13,14,14,15,15,16,16,18,18,19,19,20,20,21,21,22,22,23,23,24,24,25,25,26,26,27,27,28,28,29,29,30,30],"right_children":[2,4,6,8,10,12,14,16,18,20,22,24,26,28,30,32,34,-1,36,38,40,42,44,46,48,50,52,54,56,58,60,-1,-1,-1,-1,-1,-1,-1,-1,-1,-1,-1,-1,-1,-1,-1,-1,-1,-1,-1,-1,-1,-1,-1,-1,-1,-1,-1,-1,-1,-1],"split_conditions":[1.35E2,6.7185715E1,2.27E2,1.72E2,1E1,3.65E0,3.44E2,1E-1,8.02E0,6.2125E0,6.1916668E1,3.575E0,1.1433333E1,2.17E2,1.72E2,4.76E1,2.05E1,-5.193222E1,3.62E1,6.1041665E0,2.6925E2,5.64E1,2.4408333E2,5E0,1.9E2,1.1341666E1,2.3742857E2,7.0458336E1,1.7416666E1,1.32E2,1.7783333E1,-1.3792397E0,-6.4102787E-1,-2.289362E0,-1.6399628E0,-2.5890305E0,1.0931664E0,1.4214002E-1,3.4250278E0,-1.0705198E0,-1.6212453E-1,8.601341E0,6.4829725E-1,9.188572E-2,3.7947156E0,2.0848858E0,5.8350863E0,6.8717723E0,1.1838889E1,4.8615656E0,9.509542E0,1.2954296E0,4.6129675E0,4.672427E0,1.6568642E0,6.878608E0,3.8375535E0,-4.1137424E0,-6.7465365E-1,5.583627E0,9.752998E0],"split_indices":[0,4,0,1,6,10,0,12,0,10,9,10,8,3,1,0,0,0,0,10,11,0,11,5,0,8,4,9,8,1,8,0,0,0,0,0,0,0,0,0,0,0,0,0,0,0,0,0,0,0,0,0,0,0,0,0,0,0,0,0,0],"split_type":[0,0,0,0,0,0,0,0,0,0,0,0,0,0,0,0,0,0,0,0,0,0,0,0,0,0,0,0,0,0,0,0,0,0,0,0,0,0,0,0,0,0,0,0,0,0,0,0,0,0,0,0,0,0,0,0,0,0,0,0,0],"sum_hessian":[1.2574E4,9.818E3,2.756E3,6.274E3,3.544E3,1.77E3,9.86E2,6.269E3,5E0,2.932E3,6.12E2,2.15E2,1.555E3,8.37E2,1.49E2,2.558E3,3.711E3,1E0,4E0,1.176E3,1.756E3,4.26E2,1.86E2,1.61E2,5.4E1,8.6E1,1.469E3,4.47E2,3.9E2,4E0,1.45E2,1.165E3,1.393E3,5.74E2,3.137E3,3E0,1E0,1.092E3,8.4E1,8.32E2,9.24E2,4E0,4.22E2,5.7E1,1.29E2,1.07E2,5.4E1,3.3E1,2.1E1,6.4E1,2.2E1,1.304E3,1.65E2,2.85E2,1.62E2,1.97E2,1.93E2,3E0,1E0,7.2E1,7.3E1],"tree_param":{"num_deleted":"0","num_feature":"13","num_nodes":"61","size_leaf_vector":"1"}},{"base_weights":[2.2955677E-3,-8.073289E0,2.9485346E1,-1.170141E1,4.1589313E0,2.298676E1,5.0536514E1,-1.1585375E1,-1.8596683E2,1.930246E1,-6.3262105E-1,1.5607413E1,3.1323784E1,3.9934345E1,6.4616875E1,-1.5834412E1,-7.986036E0,1.4219512E1,-4.933561E1,1.242481E1,3.1611095E1,-4.68428E1,-5.2070776E-3,2.8182655E1,8.342579E0,5.809437E1,2.7690674E1,7.040672E1,3.1970774E1,4.975586E1,7.8478455E1,-1.5016978E0,-2.2235835E0,-5.5047643E-1,-1.2186005E0,4.200152E0,-9.0416634E-1,3.0599947E0,5.1342195E-1,8.6379254E-1,4.1587234E0,-5.032828E0,-1.7704705E0,4.4422975E-1,-3.8284945E-1,3.4687898E0,1.059885E0,-3.2449872E0,1.4280589E0,2.0587692E0,7.4925423E0,3.8424718E0,1.3885448E0,8.067292E0,5.1340575E0,3.640768E0,-1.9091654E0,9.561303E0,3.6740634E0,1.5446673E1,6.1276846E0],"categories":[],"categories_nodes":[],"categories_segments":[],"categories_sizes":[],"default_left":[0,0,0,0,0,0,0,0,0,0,0,0,0,0,0,0,0,0,0,0,0,0,0,0,0,0,0,0,0,0,0,0,0,0,0,0,0,0,0,0,0,0,0,0,0,0,0,0,0,0,0,0,0,0,0,0,0,0,0,0,0],"id":13,"left_children":[1,3,5,7,9,11,13,15,17,19,21,23,25,27,29,31,33,35,-1,37,39,41,43,45,47,49,51,53,55,57,59,-1,-1,-1,-1,-1,-1,-1,-1,-1,-1,-1,-1,-1,-1,-1,-1,-1,-1,-1,-1,-1,-1,-1,-1,-1,-1,-1,-1,-1,-1],"loss_changes":[2.994256E6,4.381678E5,3.6875325E5,1.5180762E5,1.6392755E5,1.26738125E5,9.2512625E4,1.1625875E5,3.1469094E5,4.5574625E4,4.9780586E4,1.0016628E5,9.2734E4,8.6565875E4,5.2126375E4,1.7923125E4,4.2889344E4,2.9647322E3,0E0,4.6220523E4,4.4102375E4,1.4448398E3,2.8838936E4,4.5615875E4,1.6953714E5,7.105428E4,1.2631356E5,1.0538469E4,6.685031E4,7.6463875E4,1.7222456E5,0E0,0E0,0E0,0E0,0E0,0E0,0E0,0E0,0E0,0E0,0E0,0E0,0E0,0E0,0E0,0E0,0E0,0E0,0E0,0E0,0E0,0E0,0E0,0E0,0E0,0E0,0E0,0E0,0E0,0E0],"parents":[2147483647,0,0,1,1,2,2,3,3,4,4,5,5,6,6,7,7,8,8,9,9,10,10,11,11,12,12,13,13,14,14,15,15,16,16,17,17,19,19,20,20,21,21,22,22,23,23,24,24,25,25,26,26,27,27,28,28,29,29,30,30],"right_children":[2,4,6,8,10,12,14,16,18,20,22,24,26,28,30,32,34,36,-1,38,40,42,44,46,48,50,52,54,56,58,60,-1,-1,-1,-1,-1,-1,-1,-1,-1,-1,-1,-1,-1,-1,-1,-1,-1,-1,-1,-1,-1,-1,-1,-1,-1,-1,-1,-1,-1,-1],"split_conditions":[1.4274286E2,8.2171425E1,2.57E2,2.76E2,4.733333E0,1.79E2,4E0,4.12E1,5.89E1,4E0,4.7791667E0,5.4625E0,4.9625E1,5.0416668E1,2.5245833E2,1.46E1,1E-1,8.02E0,-4.933561E1,1E0,1.8608333E2,1.63E2,2.1958334E1,2.92625E2,5E0,4.5916668E1,1.7416666E1,2E0,7.383333E0,1.15625E2,2.6925E2,-1.5016978E0,-2.2235835E0,-5.5047643E-1,-1.2186005E0,4.200152E0,-9.0416634E-1,3.0599947E0,5.1342195E-1,8.6379254E-1,4.1587234E0,-5.032828E0,-1.7704705E0,4.4422975E-1,-3.8284945E-1,3.4687898E0,1.059885E0,-3.2449872E0,1.4280589E0,2.0587692E0,7.4925423E0,3.8424718E0,1.3885448E0,8.067292E0,5.1340575E0,3.640768E0,-1.9091654E0,9.561303E0,3.6740634E0,1.5446673E1,6.1276846E0],"split_indices":[4,4,0,3,10,0,5,0,1,5,10,10,9,9,11,12,12,0,0,5,11,3,8,11,7,9,8,5,10,11,11,0,0,0,0,0,0,0,0,0,0,0,0,0,0,0,0,0,0,0,0,0,0,0,0,0,0,0,0,0,0],"split_type":[0,0,0,0,0,0,0,0,0,0,0,0,0,0,0,0,0,0,0,0,0,0,0,0,0,0,0,0,0,0,0,0,0,0,0,0,0,0,0,0,0,0,0,0,0,0,0,0,0,0,0,0,0,0,0,0,0,0,0,0,0],"sum_hessian":[1.2574E4,9.871E3,2.703E3,7.613E3,2.258E3,2.067E3,6.36E2,7.609E3,4E0,5.42E2,1.716E3,1.098E3,9.69E2,3.65E2,2.71E2,3.488E3,4.121E3,3E0,1E0,3.49E2,1.93E2,2.2E1,1.694E3,4.01E2,6.97E2,1.14E2,8.55E2,7.4E1,2.91E2,1.33E2,1.38E2,3.096E3,3.92E2,2.592E3,1.529E3,1E0,2E0,9.9E1,2.5E2,5.9E1,1.34E2,1.9E1,3E0,7.83E2,9.11E2,2.92E2,1.09E2,8.8E1,6.09E2,3.6E1,7.8E1,4.8E2,3.75E2,4.6E1,2.8E1,2.68E2,2.3E1,2.8E1,1.05E2,2.4E1,1.14E2],"tree_param":{"num_deleted":"0","num_feature":"13","num_nodes":"61","size_leaf_vector":"1"}},{"base_weights":[3.4619982E-3,-9.108165E0,2.1294546E1,-1.3921472E1,-4.689007E0,1.2138164E1,3.5416348E1,-1.3710645E1,-3.0535196E2,4.7749968E0,-5.635191E0,8.526471E0,2.503652E1,1.8881609E1,4.1222485E1,-1.4055072E1,2.0452087E0,-4.6868828E1,1.0660317E0,2.038042E0,5.6419422E1,-8.498639E0,-2.6699698E0,1.0598124E1,-1.2214413E2,6.741237E1,2.2475082E1,4.9588375E1,7.8642254E0,3.773485E1,6.707369E1,-7.886489E-1,-1.4888742E0,-1.089199E0,6.327967E-1,4.6374398E-1,-1.3279762E0,-9.120408E-1,6.3798375E0,-3.9563674E-1,-1.021453E0,-3.6813268E-1,2.368706E0,3.8023525E-1,1.8598824E0,2.5677595E0,-1.3625511E2,1.0447025E-1,7.5334697E0,1.3769753E0,3.079818E0,1.279423E1,4.155887E0,2.476342E0,-9.9361E-1,2.4163978E0,4.3971295E0,8.382344E0,4.1473613E0],"categories":[],"categories_nodes":[],"categories_segments":[],"categories_sizes":[],"default_left":[0,0,0,0,0,0,0,0,0,0,0,0,0,0,0,0,0,0,0,0,0,0,0,0,0,0,0,0,0,0,0,0,0,0,0,0,0,0,0,0,0,0,0,0,0,0,0,0,0,0,0,0,0,0,0,0,0,0,0],"id":14,"left_children":[1,3,5,7,9,11,13,15,17,19,21,23,25,27,29,31,33,-1,-1,35,37,39,41,43,45,47,49,51,53,55,57,-1,-1,-1,-1,-1,-1,-1,-1,-1,-1,-1,-1,-1,-1,-1,-1,-1,-1,-1,-1,-1,-1,-1,-1,-1,-1,-1,-1],"loss_changes":[2.4396988E6,1.8726631E5,4.8691912E5,2.5478862E5,4.115579E4,1.0637275E5,1.4149812E5,2.2891625E4,1.5984519E5,5.896867E4,3.5434703E4,4.8558394E5,5.275647E4,1.3053531E5,9.628375E4,2.1085312E4,5.110951E3,0E0,0E0,1.5908775E4,1.0737781E4,1.6514125E4,5.4812715E4,9.573084E4,5.169041E6,1.4643328E4,3.384728E4,5.8855516E4,8.627802E4,8.0863125E4,5.1838E4,0E0,0E0,0E0,0E0,0E0,0E0,0E0,0E0,0E0,0E0,0E0,0E0,0E0,0E0,0E0,0E0,0E0,0E0,0E0,0E0,0E0,0E0,0E0,0E0,0E0,0E0,0E0,0E0],"parents":[2147483647,0,0,1,1,2,2,3,3,4,4,5,5,6,6,7,7,8,8,9,9,10,10,11,11,12,12,13,13,14,14,15,15,16,16,19,19,20,20,21,21,22,22,23,23,24,24,25,25,26,26,27,27,28,28,29,29,30,30],"right_children":[2,4,6,8,10,12,14,16,18,20,22,24,26,28,30,32,34,-1,-1,36,38,40,42,44,46,48,50,52,54,56,58,-1,-1,-1,-1,-1,-1,-1,-1,-1,-1,-1,-1,-1,-1,-1,-1,-1,-1,-1,-1,-1,-1,-1,-1,-1,-1,-1,-1],"split_conditions":[1.05E2,5.0557144E1,1.93E2,1.83E2,4.6E0,2.1E2,1.1E1,3.0266666E2,8.02E0,4.5916667E0,2.4E2,2.06E2,4.9375E1,1.3E1,3.44E2,4.5791668E1,9E0,-4.6868828E1,1.0660317E0,2.8725E1,5.45E1,5.8333335E0,3.5358334E1,1E1,2.2228572E2,1.3125714E2,1.77E2,7.5458336E1,5.425E0,2E0,6.5916664E1,-7.886489E-1,-1.4888742E0,-1.089199E0,6.327967E-1,4.6374398E-1,-1.3279762E0,-9.120408E-1,6.3798375E0,-3.9563674E-1,-1.021453E0,-3.6813268E-1,2.368706E0,3.8023525E-1,1.8598824E0,2.5677595E0,-1.3625511E2,1.0447025E-1,7.5334697E0,1.3769753E0,3.079818E0,1.279423E1,4.155887E0,2.476342E0,-9.9361E-1,2.4163978E0,4.3971295E0,8.382344E0,4.1473613E0],"split_indices":[0,4,0,2,10,3,6,11,0,10,11,3,9,8,0,9,6,0,0,8,0,10,8,6,4,4,2,9,10,5,9,0,0,0,0,0,0,0,0,0,0,0,0,0,0,0,0,0,0,0,0,0,0,0,0,0,0,0,0],"split_type":[0,0,0,0,0,0,0,0,0,0,0,0,0,0,0,0,0,0,0,0,0,0,0,0,0,0,0,0,0,0,0,0,0,0,0,0,0,0,0,0,0,0,0,0,0,0,0,0,0,0,0,0,0,0,0,0,0,0,0],"sum_hessian":[1.2574E4,8.806E3,3.768E3,4.214E3,4.592E3,2.287E3,1.481E3,4.212E3,2E0,4.17E2,4.175E3,1.788E3,4.99E2,3.86E2,1.095E3,4.122E3,9E1,1E0,1E0,3.97E2,2E1,2.123E3,2.052E3,1.761E3,2.7E1,2.7E1,4.72E2,1.01E2,2.85E2,9.67E2,1.28E2,4.92E2,3.63E3,2.2E1,6.8E1,3.4E2,5.7E1,2E0,1.8E1,5.83E2,1.54E3,1.977E3,7.5E1,9.53E2,8.08E2,2.5E1,2E0,3E0,2.4E1,2.32E2,2.4E2,8E0,9.3E1,1.46E2,1.39E2,3.06E2,6.61E2,7.6E1,5.2E1],"tree_param":{"num_deleted":"0","num_feature":"13","num_nodes":"59","size_leaf_vector":"1"}},{"base_weights":[-6.8183634E-3,-6.4298916E0,2.457839E1,-9.5585165E0,3.67519E0,1.9065342E1,4.161633E1,-9.454146E0,-1.6649794E2,1.6730127E1,-4.3836328E-1,1.5386911E1,3.1456064E1,3.264338E1,5.350423E1,-1.2160115E1,-5.6355486E0,1.4504504E1,-4.4525387E1,3.1269663E1,1.0705805E1,-4.502E1,1.6603968E-1,1.746361E1,-6.8377525E1,3.4468964E1,-6.421455E0,5.925775E1,2.5671827E1,2.2646904E-2,5.6625637E1,-1.5781282E0,-1.0726212E0,-1.3630745E0,-4.5987606E-1,4.064588E0,-7.757916E-1,2.0474515E0,4.8873305E0,-1.8122612E-1,1.9556065E0,-4.827771E0,-1.6662025E0,-6.213948E-1,2.3247018E-1,4.8751388E0,1.5529174E0,-7.406595E1,3.5555425E0,4.5489097E0,1.7362534E0,3.7833436E0,-1.192462E0,6.908601E0,4.128584E0,3.7676601E0,8.96875E-1,-6.5843636E-1,1.5874943E0,4.110307E0,7.243797E0],"categories":[],"categories_nodes":[],"categories_segments":[],"categories_sizes":[],"default_left":[0,0,0,0,0,0,0,0,0,0,0,0,0,0,0,0,0,0,0,0,0,0,0,0,0,0,0,0,0,0,0,0,0,0,0,0,0,0,0,0,0,0,0,0,0,0,0,0,0,0,0,0,0,0,0,0,0,0,0,0,0],"id":15,"left_children":[1,3,5,7,9,11,13,15,17,19,21,23,25,27,29,31,33,35,-1,37,39,41,43,45,47,49,51,53,55,57,59,-1,-1,-1,-1,-1,-1,-1,-1,-1,-1,-1,-1,-1,-1,-1,-1,-1,-1,-1,-1,-1,-1,-1,-1,-1,-1,-1,-1,-1,-1],"loss_changes":[1.9859089E6,3.1526844E5,2.4389662E5,1.2314144E5,1.2663707E5,8.930544E4,6.6095375E4,7.8565625E4,2.5873569E5,4.9154062E4,4.8347293E4,2.6577734E5,5.1575875E4,6.620209E4,4.540575E4,2.29525E4,2.6115008E4,2.6432085E3,0E0,3.0354922E4,4.4461484E4,1.4127656E3,2.4405078E4,8.912147E4,2.6116075E6,7.7821E4,8.731575E3,1.0395156E4,5.8012438E4,1.7803069E3,6.0102688E4,0E0,0E0,0E0,0E0,0E0,0E0,0E0,0E0,0E0,0E0,0E0,0E0,0E0,0E0,0E0,0E0,0E0,0E0,0E0,0E0,0E0,0E0,0E0,0E0,0E0,0E0,0E0,0E0,0E0,0E0],"parents":[2147483647,0,0,1,1,2,2,3,3,4,4,5,5,6,6,7,7,8,8,9,9,10,10,11,11,12,12,13,13,14,14,15,15,16,16,17,17,19,19,20,20,21,21,22,22,23,23,24,24,25,25,26,26,27,27,28,28,29,29,30,30],"right_children":[2,4,6,8,10,12,14,16,18,20,22,24,26,28,30,32,34,36,-1,38,40,42,44,46,48,50,52,54,56,58,60,-1,-1,-1,-1,-1,-1,-1,-1,-1,-1,-1,-1,-1,-1,-1,-1,-1,-1,-1,-1,-1,-1,-1,-1,-1,-1,-1,-1,-1,-1],"split_conditions":[1.465E2,8.2171425E1,2.57E2,2.76E2,4.733333E0,2.2642857E2,4E0,4.93E1,5.89E1,1.79875E1,4.7791667E0,2.2228572E2,6E-1,5.0416668E1,4.5916668E1,2.8E1,3.6E1,8.02E0,-4.4525387E1,2.60625E2,2.4741667E1,1.63E2,1.9754167E2,1.1433333E1,5E0,2.8770834E2,1.3208333E1,2E0,5.5E0,2.53E2,2.5245833E2,-1.5781282E0,-1.0726212E0,-1.3630745E0,-4.5987606E-1,4.064588E0,-7.757916E-1,2.0474515E0,4.8873305E0,-1.8122612E-1,1.9556065E0,-4.827771E0,-1.6662025E0,-6.213948E-1,2.3247018E-1,4.8751388E0,1.5529174E0,-7.406595E1,3.5555425E0,4.5489097E0,1.7362534E0,3.7833436E0,-1.192462E0,6.908601E0,4.128584E0,3.7676601E0,8.96875E-1,-6.5843636E-1,1.5874943E0,4.110307E0,7.243797E0],"split_indices":[4,4,0,3,10,4,5,0,1,8,10,4,12,9,9,4,2,0,0,11,8,3,11,8,7,11,8,5,10,1,11,0,0,0,0,0,0,0,0,0,0,0,0,0,0,0,0,0,0,0,0,0,0,0,0,0,0,0,0,0,0],"split_type":[0,0,0,0,0,0,0,0,0,0,0,0,0,0,0,0,0,0,0,0,0,0,0,0,0,0,0,0,0,0,0,0,0,0,0,0,0,0,0,0,0,0,0,0,0,0,0,0,0,0,0,0,0,0,0,0,0,0,0,0,0],"sum_hessian":[1.2574E4,9.97E3,2.604E3,7.613E3,2.357E3,1.969E3,6.35E2,7.609E3,4E0,5.64E2,1.793E3,1.52E3,4.49E2,3.64E2,2.71E2,4.452E3,3.157E3,3E0,1E0,1.64E2,4E2,2.3E1,1.77E3,1.484E3,3.6E1,4.16E2,3.3E1,7.4E1,2.9E2,1.5E1,2.56E2,1.26E3,3.192E3,3.61E2,2.796E3,1E0,2E0,1.03E2,6.1E1,1.66E2,2.34E2,2E1,3E0,4.47E2,1.323E3,8.5E1,1.399E3,4E0,3.2E1,2.52E2,1.64E2,3E0,3E1,4.6E1,2.8E1,1.68E2,1.22E2,1.1E1,4E0,1.31E2,1.25E2],"tree_param":{"num_deleted":"0","num_feature":"13","num_nodes":"61","size_leaf_vector":"1"}},{"base_weights":[-1.1790778E-2,-5.5524917E0,2.3336342E1,-8.719961E0,3.4091847E0,4.4270916E1,1.9177338E1,-8.618914E0,-1.3366008E2,5.1723256E0,-1.1745768E1,3.537525E1,1.0858347E2,1.3824679E1,3.5018436E1,-1.2497064E1,-6.4509654E0,8.804373E0,-4.2299114E1,1.7348272E0,1.4313403E1,-7.1431975E0,-2.9781927E1,8.063535E1,3.0908054E1,1.3941043E2,6.2310223E1,2.9790785E1,8.824109E0,1.4992331E1,3.872661E1,-1.2848251E0,2.1133438E-1,3.7377706E-1,-7.056926E-1,3.8613586E0,-8.301328E-1,9.4274104E-1,-1.0558638E-2,2.1410873E0,5.261864E-1,-9.9091786E-1,2.2930667E0,-2.2362525E0,-3.6922672E0,1.3190941E0,8.739043E0,5.6545773E0,2.445353E0,6.123873E0,1.6255154E1,2.8313298E0,8.105346E0,5.361988E-2,4.204553E0,1.35679E0,-3.7026393E0,-6.983429E-1,2.875697E0,7.3302073E0,3.5747526E0],"categories":[],"categories_nodes":[],"categories_segments":[],"categories_sizes":[],"default_left":[0,0,0,0,0,0,0,0,0,0,0,0,0,0,0,0,0,0,0,0,0,0,0,0,0,0,0,0,0,0,0,0,0,0,0,0,0,0,0,0,0,0,0,0,0,0,0,0,0,0,0,0,0,0,0,0,0,0,0,0,0],"id":16,"left_children":[1,3,5,7,9,11,13,15,17,19,21,23,25,27,29,31,33,35,-1,37,39,41,43,45,47,49,51,53,55,57,59,-1,-1,-1,-1,-1,-1,-1,-1,-1,-1,-1,-1,-1,-1,-1,-1,-1,-1,-1,-1,-1,-1,-1,-1,-1,-1,-1,-1,-1,-1],"loss_changes":[1.6268945E6,2.8854334E5,2.0915662E5,9.366081E4,7.10032E4,2.2442781E5,1.7028694E5,6.3018625E4,2.5104053E5,7.472917E4,2.2781777E4,6.867719E4,5.97835E4,1.200555E5,3.7143562E4,1.38295E4,2.9760219E4,2.8700813E3,0E0,2.4493531E4,4.1645297E4,1.869402E4,2.1411992E3,1.2970594E4,5.1901562E4,4.0696938E4,1.108657E4,1.28681625E5,2.5041586E5,2.4702385E4,4.1465E4,0E0,0E0,0E0,0E0,0E0,0E0,0E0,0E0,0E0,0E0,0E0,0E0,0E0,0E0,0E0,0E0,0E0,0E0,0E0,0E0,0E0,0E0,0E0,0E0,0E0,0E0,0E0,0E0,0E0,0E0],"parents":[2147483647,0,0,1,1,2,2,3,3,4,4,5,5,6,6,7,7,8,8,9,9,10,10,11,11,12,12,13,13,14,14,15,15,16,16,17,17,19,19,20,20,21,21,22,22,23,23,24,24,25,25,26,26,27,27,28,28,29,29,30,30],"right_children":[2,4,6,8,10,12,14,16,18,20,22,24,26,28,30,32,34,36,-1,38,40,42,44,46,48,50,52,54,56,58,60,-1,-1,-1,-1,-1,-1,-1,-1,-1,-1,-1,-1,-1,-1,-1,-1,-1,-1,-1,-1,-1,-1,-1,-1,-1,-1,-1,-1,-1,-1],"split_conditions":[1.48E2,8.01E1,3.65E0,3.3E2,2E-1,3.6125E0,2.53E2,3.8185715E1,1.38E2,6.225E1,8.604167E0,1.14541664E2,1.85E2,1.4995833E1,2.1542857E2,2.98E2,2.1625E1,8.02E0,-4.2299114E1,1.9870832E1,2.8920834E2,1.99E2,7.6E1,1.4E2,5.2958332E1,1.4128572E2,2.69E2,1.7870833E2,7.6791664E1,2.7404166E2,1.9E2,-1.2848251E0,2.1133438E-1,3.7377706E-1,-7.056926E-1,3.8613586E0,-8.301328E-1,9.4274104E-1,-1.0558638E-2,2.1410873E0,5.261864E-1,-9.9091786E-1,2.2930667E0,-2.2362525E0,-3.6922672E0,1.3190941E0,8.739043E0,5.6545773E0,2.445353E0,6.123873E0,1.6255154E1,2.8313298E0,8.105346E0,5.361988E-2,4.204553E0,1.35679E0,-3.7026393E0,-6.983429E-1,2.875697E0,7.3302073E0,3.5747526E0],"split_indices":[0,0,10,3,12,10,2,4,1,9,10,11,2,8,4,11,9,0,0,8,11,1,9,1,9,4,3,11,9,11,1,0,0,0,0,0,0,0,0,0,0,0,0,0,0,0,0,0,0,0,0,0,0,0,0,0,0,0,0,0,0],"split_type":[0,0,0,0,0,0,0,0,0,0,0,0,0,0,0,0,0,0,0,0,0,0,0,0,0,0,0,0,0,0,0,0,0,0,0,0,0,0,0,0,0,0,0,0,0,0,0,0,0,0,0,0,0,0,0,0,0,0,0,0,0],"sum_hessian":[1.2574E4,1.0163E4,2.411E3,7.509E3,2.654E3,3.98E2,2.013E3,7.504E3,5E0,2.378E3,2.76E2,3.51E2,4.7E1,1.506E3,5.07E2,2.689E3,4.815E3,4E0,1E0,1.729E3,6.49E2,2.21E2,5.5E1,3E1,3.21E2,2.7E1,2E1,3.58E2,1.148E3,8E1,4.27E2,2.626E3,6.3E1,2.7E2,4.545E3,1E0,3E0,3.33E2,1.396E3,3.63E2,2.86E2,2.03E2,1.8E1,2.9E1,2.6E1,3E0,2.7E1,6.3E1,2.58E2,7E0,2E1,8E0,1.2E1,1.06E2,2.52E2,1.041E3,1.07E2,3.1E1,4.9E1,3.2E1,3.95E2],"tree_param":{"num_deleted":"0","num_feature":"13","num_nodes":"61","size_leaf_vector":"1"}},{"base_weights":[-8.642035E-3,-5.0131845E0,2.1101809E1,-7.8057866E0,3.3173625E0,3.1580849E1,1.4553195E1,-7.7112856E0,-1.5007587E2,1.3898726E1,-2.0780838E-1,4.3576164E1,1.8460766E1,4.3414845E1,1.0463259E1,-4.7617855E0,-1.025125E1,1.3325978E1,-4.0184162E1,2.754994E1,7.827538E0,-4.0684547E1,3.4882993E-1,7.159202E1,3.1932396E1,1.2094253E1,4.727722E1,4.186166E0,6.1439266E1,-2.8664494E1,1.2113905E1,-5.638814E-1,4.9619004E-1,-1.065743E0,1.9400058E-2,3.6682909E0,-6.6873E-1,1.8658514E0,4.2941065E0,-4.5911208E-1,1.708627E0,-8.788783E-1,-4.297633E0,-1.3176478E-1,8.985055E-1,5.023977E0,8.678826E0,1.6573536E0,4.960193E0,1.5403932E0,-2.9908538E0,4.0938168E0,1.9633354E1,7.556081E0,-9.867758E-2,7.3530784E0,4.6913085E0,-1.1724805E0,-5.3919024E0,5.7262486E-1,2.3109353E0],"categories":[],"categories_nodes":[],"categories_segments":[],"categories_sizes":[],"default_left":[0,0,0,0,0,0,0,0,0,0,0,0,0,0,0,0,0,0,0,0,0,0,0,0,0,0,0,0,0,0,0,0,0,0,0,0,0,0,0,0,0,0,0,0,0,0,0,0,0,0,0,0,0,0,0,0,0,0,0,0,0],"id":17,"left_children":[1,3,5,7,9,11,13,15,17,19,21,23,25,27,29,31,33,35,-1,37,39,41,43,45,47,49,51,53,55,57,59,-1,-1,-1,-1,-1,-1,-1,-1,-1,-1,-1,-1,-1,-1,-1,-1,-1,-1,-1,-1,-1,-1,-1,-1,-1,-1,-1,-1,-1,-1],"loss_changes":[1.3286312E6,2.3652677E5,1.6492225E5,1.01210875E5,9.523264E4,1.44929E5,1.748386E5,5.696247E4,2.1104986E5,5.266122E4,4.3183402E4,1.5527344E5,8.088459E4,1.2984444E5,8.44383E4,3.007193E4,1.7345969E4,2.1151045E3,0E0,2.6021203E4,5.101503E4,1.5228398E3,2.7227258E4,4.1390562E4,9.2262625E4,5.1201453E4,6.755253E4,2.1858357E4,1.8681562E4,2.2041414E4,8.766158E4,0E0,0E0,0E0,0E0,0E0,0E0,0E0,0E0,0E0,0E0,0E0,0E0,0E0,0E0,0E0,0E0,0E0,0E0,0E0,0E0,0E0,0E0,0E0,0E0,0E0,0E0,0E0,0E0,0E0,0E0],"parents":[2147483647,0,0,1,1,2,2,3,3,4,4,5,5,6,6,7,7,8,8,9,9,10,10,11,11,12,12,13,13,14,14,15,15,16,16,17,17,19,19,20,20,21,21,22,22,23,23,24,24,25,25,26,26,27,27,28,28,29,29,30,30],"right_children":[2,4,6,8,10,12,14,16,18,20,22,24,26,28,30,32,34,36,-1,38,40,42,44,46,48,50,52,54,56,58,60,-1,-1,-1,-1,-1,-1,-1,-1,-1,-1,-1,-1,-1,-1,-1,-1,-1,-1,-1,-1,-1,-1,-1,-1,-1,-1,-1,-1,-1,-1],"split_conditions":[1.533E2,8.2171425E1,5.016667E0,2.76E2,4.733333E0,1.79875E1,4.8958332E1,1E-1,5.89E1,1.79875E1,4.7791667E0,6.925E1,2.6742856E2,4.5083332E1,5.0958333E0,1E1,2.76875E2,8.02E0,-4.0184162E1,2.60625E2,2.4741667E1,1.1E2,1.1E1,6.2625E1,4.0041666E0,1.2E1,2.0995832E1,5.3708334E0,2.8654166E2,1.9E2,2.2642857E2,-5.638814E-1,4.9619004E-1,-1.065743E0,1.9400058E-2,3.6682909E0,-6.6873E-1,1.8658514E0,4.2941065E0,-4.5911208E-1,1.708627E0,-8.788783E-1,-4.297633E0,-1.3176478E-1,8.985055E-1,5.023977E0,8.678826E0,1.6573536E0,4.960193E0,1.5403932E0,-2.9908538E0,4.0938168E0,1.9633354E1,7.556081E0,-9.867758E-2,7.3530784E0,4.6913085E0,-1.1724805E0,-5.3919024E0,5.7262486E-1,2.3109353E0],"split_indices":[4,4,10,3,10,8,9,12,1,8,10,9,4,9,10,6,11,0,0,11,8,0,6,9,10,6,8,10,11,1,4,0,0,0,0,0,0,0,0,0,0,0,0,0,0,0,0,0,0,0,0,0,0,0,0,0,0,0,0,0,0],"split_type":[0,0,0,0,0,0,0,0,0,0,0,0,0,0,0,0,0,0,0,0,0,0,0,0,0,0,0,0,0,0,0,0,0,0,0,0,0,0,0,0,0,0,0,0,0,0,0,0,0,0,0,0,0,0,0,0,0,0,0,0,0],"sum_hessian":[1.2574E4,1.0165E4,2.409E3,7.613E3,2.552E3,9.25E2,1.484E3,7.609E3,4E0,6.37E2,1.915E3,4.82E2,4.43E2,1.83E2,1.301E3,3.522E3,4.087E3,3E0,1E0,1.95E2,4.42E2,2.5E1,1.89E3,1.4E2,3.42E2,3.64E2,7.9E1,5.8E1,1.25E2,5.2E1,1.249E3,3.231E3,2.91E2,3.934E3,1.53E2,1E0,2E0,1.25E2,7E1,1.89E2,2.53E2,2E0,2.3E1,1.585E3,3.05E2,6E1,8E1,1.84E2,1.58E2,3.38E2,2.6E1,7.7E1,2E0,3E0,5.5E1,6.6E1,5.9E1,3.2E1,2E1,7.91E2,4.58E2],"tree_param":{"num_deleted":"0","num_feature":"13","num_nodes":"61","size_leaf_vector":"1"}},{"base_weights":[-5.939433E-3,-6.085707E0,1.420062E1,-9.003683E0,-2.5102212E0,7.8749013E0,2.3957058E1,-8.853607E0,-2.4847394E2,-1.3639824E0,-9.07928E0,6.534456E0,2.9719343E1,3.9068924E1,2.0088507E1,-9.209161E0,4.11835E0,-3.8174953E1,9.0385973E-1,5.691247E0,-2.232804E0,6.4479585E0,-1.1537208E1,8.248111E0,-2.387253E2,7.8966427E0,3.7512104E1,2.9913427E1,1.1008669E2,1.1341714E1,3.097549E1,-9.51731E-1,3.207625E-1,1.0924263E1,-9.510811E-1,3.204375E-1,4.686811E0,4.7952437E-1,-3.072823E-1,2.0274215E0,-5.063583E-1,-9.113321E-1,-2.6088617E0,1.0020162E0,-1.1250931E0,-1.9328523E2,2.0344653E0,6.8380256E0,3.2600354E-2,6.340242E0,2.3171747E0,7.0756617E0,2.485357E0,1.3439002E1,6.0489774E0,2.3392335E-1,2.8971174E0,2.2196443E0,5.3247676E0],"categories":[],"categories_nodes":[],"categories_segments":[],"categories_sizes":[],"default_left":[0,0,0,0,0,0,0,0,0,0,0,0,0,0,0,0,0,0,0,0,0,0,0,0,0,0,0,0,0,0,0,0,0,0,0,0,0,0,0,0,0,0,0,0,0,0,0,0,0,0,0,0,0,0,0,0,0,0,0],"id":18,"left_children":[1,3,5,7,9,11,13,15,17,19,21,23,25,27,29,31,33,-1,-1,35,37,39,41,43,45,47,49,51,53,55,57,-1,-1,-1,-1,-1,-1,-1,-1,-1,-1,-1,-1,-1,-1,-1,-1,-1,-1,-1,-1,-1,-1,-1,-1,-1,-1,-1,-1],"loss_changes":[1.0862216E6,9.186241E4,2.3242075E5,1.7206612E5,2.9797734E4,6.6801375E4,8.585444E4,2.2393375E4,1.0641089E5,2.0682174E4,2.2515305E4,9.085357E5,2.2151562E4,1.92418E5,1.1220603E5,1.8082688E4,1.8729722E5,0E0,0E0,3.7738406E4,1.774352E4,1.299474E4,1.7679906E4,7.416044E4,6.622784E6,1.6462094E4,3.454467E4,5.3626516E4,3.2853344E4,1.0420394E5,1.0166609E5,0E0,0E0,0E0,0E0,0E0,0E0,0E0,0E0,0E0,0E0,0E0,0E0,0E0,0E0,0E0,0E0,0E0,0E0,0E0,0E0,0E0,0E0,0E0,0E0,0E0,0E0,0E0,0E0],"parents":[2147483647,0,0,1,1,2,2,3,3,4,4,5,5,6,6,7,7,8,8,9,9,10,10,11,11,12,12,13,13,14,14,15,15,16,16,19,19,20,20,21,21,22,22,23,23,24,24,25,25,26,26,27,27,28,28,29,29,30,30],"right_children":[2,4,6,8,10,12,14,16,18,20,22,24,26,28,30,32,34,-1,-1,36,38,40,42,44,46,48,50,52,54,56,58,-1,-1,-1,-1,-1,-1,-1,-1,-1,-1,-1,-1,-1,-1,-1,-1,-1,-1,-1,-1,-1,-1,-1,-1,-1,-1,-1,-1],"split_conditions":[1.05E2,5.55E1,1.93E2,1.83E2,9.945833E0,2.2642857E2,3.65E0,3.5358334E1,8.02E0,4.6E0,1E0,2.2228572E2,3E0,3.6125E0,2.84E2,3.0266666E2,3.56875E1,-3.8174953E1,9.0385973E-1,4.5916667E0,2.3958334E1,2.3458334E1,3.4758335E1,1E-1,5E0,2E0,1.99E2,1.14541664E2,1.85E2,2.17E2,2.0083334E1,-9.51731E-1,3.207625E-1,1.0924263E1,-9.510811E-1,3.204375E-1,4.686811E0,4.7952437E-1,-3.072823E-1,2.0274215E0,-5.063583E-1,-9.113321E-1,-2.6088617E0,1.0020162E0,-1.1250931E0,-1.9328523E2,2.0344653E0,6.8380256E0,3.2600354E-2,6.340242E0,2.3171747E0,7.0756617E0,2.485357E0,1.3439002E1,6.0489774E0,2.3392335E-1,2.8971174E0,2.2196443E0,5.3247676E0],"split_indices":[0,4,0,2,10,4,10,8,0,10,5,4,6,10,11,11,8,0,0,10,9,8,8,12,7,7,1,11,2,3,8,0,0,0,0,0,0,0,0,0,0,0,0,0,0,0,0,0,0,0,0,0,0,0,0,0,0,0,0],"split_type":[0,0,0,0,0,0,0,0,0,0,0,0,0,0,0,0,0,0,0,0,0,0,0,0,0,0,0,0,0,0,0,0,0,0,0,0,0,0,0,0,0,0,0,0,0,0,0,0,0,0,0,0,0,0,0,0,0,0,0],"sum_hessian":[1.2574E4,8.806E3,3.768E3,4.848E3,3.958E3,2.287E3,1.481E3,4.846E3,2E0,3.371E3,5.87E2,2.156E3,1.31E2,3E2,1.181E3,4.717E3,1.29E2,1E0,1E0,3.69E2,3.002E3,8E1,5.07E2,2.142E3,1.4E1,3.5E1,9.6E1,2.67E2,3.3E1,6.56E2,5.25E2,4.603E3,1.14E2,1.4E1,1.15E2,3.49E2,2E1,3.2E2,2.682E3,3.6E1,4.4E1,4.36E2,7.1E1,1.964E3,1.78E2,1E0,1.3E1,3E0,3.2E1,3.3E1,6.3E1,2.8E1,2.39E2,2.1E1,1.2E1,4.35E2,2.21E2,3.78E2,1.47E2],"tree_param":{"num_deleted":"0","num_feature":"13","num_nodes":"59","size_leaf_vector":"1"}},{"base_weights":[-1.813732E-2,-4.1224136E0,1.7294764E1,-7.2462983E0,9.425796E-1,2.633406E1,1.1646492E1,-7.14404E0,-1.3431532E2,9.4332695E0,-1.3014387E0,3.6633835E1,1.5070267E1,3.5296173E1,8.295349E0,-5.7094054E0,-1.0322582E1,1.3436872E1,-3.6266205E1,2.3291098E1,4.7069564E0,-3.5993114E1,-9.4713026E-1,5.29815E1,2.2171795E1,9.537199E0,4.0126507E1,2.2138035E0,5.0506996E1,-2.7359575E1,9.800482E0,4.6974816E0,-5.7933354E-1,-8.63834E-1,-1.3654679E0,3.532463E0,-5.633925E-1,1.5458878E0,3.6484914E0,-5.484554E-1,1.1222311E0,-2.6191382E0,-4.354528E0,2.8672874E-2,-8.373743E-1,3.5685544E0,6.936555E0,6.9286525E-1,3.964367E0,1.2500046E0,-2.8016212E0,3.4244053E0,1.7969479E1,6.905252E0,-2.5999224E-1,6.1421027E0,3.747788E0,-1.1588506E0,-5.083985E0,-3.2927442E-1,1.4617349E0],"categories":[],"categories_nodes":[],"categories_segments":[],"categories_sizes":[],"default_left":[0,0,0,0,0,0,0,0,0,0,0,0,0,0,0,0,0,0,0,0,0,0,0,0,0,0,0,0,0,0,0,0,0,0,0,0,0,0,0,0,0,0,0,0,0,0,0,0,0,0,0,0,0,0,0,0,0,0,0,0,0],"id":19,"left_children":[1,3,5,7,9,11,13,15,17,19,21,23,25,27,29,31,33,35,-1,37,39,41,43,45,47,49,51,53,55,57,59,-1,-1,-1,-1,-1,-1,-1,-1,-1,-1,-1,-1,-1,-1,-1,-1,-1,-1,-1,-1,-1,-1,-1,-1,-1,-1,-1,-1,-1,-1],"loss_changes":[8.936122E5,1.6085788E5,1.2273925E5,8.074591E4,7.391989E4,1.06877375E5,1.1739858E5,2.8596375E4,1.7356669E5,5.3007984E4,3.7688688E4,1.1301644E5,6.1172516E4,9.247881E4,7.014046E4,1.9427281E4,1.0842391E4,1.8686846E3,0E0,2.0723375E4,4.0300742E4,1.1542422E3,2.7849953E4,6.1568E4,6.843751E4,4.0961918E4,5.952683E4,1.9162383E4,1.56153125E4,1.9037215E4,7.888355E4,0E0,0E0,0E0,0E0,0E0,0E0,0E0,0E0,0E0,0E0,0E0,0E0,0E0,0E0,0E0,0E0,0E0,0E0,0E0,0E0,0E0,0E0,0E0,0E0,0E0,0E0,0E0,0E0,0E0,0E0],"parents":[2147483647,0,0,1,1,2,2,3,3,4,4,5,5,6,6,7,7,8,8,9,9,10,10,11,11,12,12,13,13,14,14,15,15,16,16,17,17,19,19,20,20,21,21,22,22,23,23,24,24,25,25,26,26,27,27,28,28,29,29,30,30],"right_children":[2,4,6,8,10,12,14,16,18,20,22,24,26,28,30,32,34,36,-1,38,40,42,44,46,48,50,52,54,56,58,60,-1,-1,-1,-1,-1,-1,-1,-1,-1,-1,-1,-1,-1,-1,-1,-1,-1,-1,-1,-1,-1,-1,-1,-1,-1,-1,-1,-1,-1,-1],"split_conditions":[1.533E2,6.7185715E1,5.016667E0,2.76E2,4.733333E0,1.79875E1,4.8958332E1,1.9E0,5.89E1,1.79875E1,4.7791667E0,7.7208336E1,2.6742856E2,4.5083332E1,5.0958333E0,1.5704166E1,7.9875E0,8.02E0,-3.6266205E1,2.60625E2,2.4741667E1,1.3E2,9.945833E0,2.3066667E2,4.0041666E0,1.2E1,2.0995832E1,5.3708334E0,2.8654166E2,1.9E2,2E0,4.6974816E0,-5.7933354E-1,-8.63834E-1,-1.3654679E0,3.532463E0,-5.633925E-1,1.5458878E0,3.6484914E0,-5.484554E-1,1.1222311E0,-2.6191382E0,-4.354528E0,2.8672874E-2,-8.373743E-1,3.5685544E0,6.936555E0,6.9286525E-1,3.964367E0,1.2500046E0,-2.8016212E0,3.4244053E0,1.7969479E1,6.905252E0,-2.5999224E-1,6.1421027E0,3.747788E0,-1.1588506E0,-5.083985E0,-3.2927442E-1,1.4617349E0],"split_indices":[4,4,10,3,10,8,9,12,1,8,10,9,4,9,10,8,10,0,0,11,8,0,10,11,10,6,8,10,11,1,5,0,0,0,0,0,0,0,0,0,0,0,0,0,0,0,0,0,0,0,0,0,0,0,0,0,0,0,0,0,0],"split_type":[0,0,0,0,0,0,0,0,0,0,0,0,0,0,0,0,0,0,0,0,0,0,0,0,0,0,0,0,0,0,0,0,0,0,0,0,0,0,0,0,0,0,0,0,0,0,0,0,0,0,0,0,0,0,0,0,0,0,0,0,0],"sum_hessian":[1.2574E4,1.0165E4,2.409E3,6.287E3,3.878E3,9.25E2,1.484E3,6.283E3,4E0,8.1E2,3.068E3,4.82E2,4.43E2,1.83E2,1.301E3,4.331E3,1.952E3,3E0,1E0,2.05E2,6.05E2,3E1,3.038E3,2.25E2,2.57E2,3.64E2,7.9E1,5.8E1,1.25E2,5.2E1,1.249E3,6E0,4.325E3,1.299E3,6.53E2,1E0,2E0,1.3E2,7.5E1,2.36E2,3.69E2,1.5E1,1.5E1,2.606E3,4.32E2,1.11E2,1.14E2,1.38E2,1.19E2,3.38E2,2.6E1,7.7E1,2E0,3E0,5.5E1,6.6E1,5.9E1,3.2E1,2E1,3.36E2,9.13E2],"tree_param":{"num_deleted":"0","num_feature":"13","num_nodes":"61","size_leaf_vector":"1"}},{"base_weights":[-1.5288969E-2,-3.6809814E0,1.5844543E1,-6.843755E0,4.5237836E-1,3.1439037E1,1.2695375E1,-6.726284E0,-1.4134167E2,-1.2019651E0,7.5221887E0,2.4754873E1,7.93835E1,2.5854624E1,8.578482E0,-7.1821156E0,1.9958512E0,-3.4452892E1,-4.412628E0,2.453969E0,-3.6745358E0,3.2703216E0,1.7318739E1,5.4547356E1,2.1260338E1,1.0299699E2,4.4118675E1,3.6882744E1,3.1292174E0,1.4265019E1,-2.2858393E1,-7.450361E-1,3.8605484E-1,3.9922073E0,-5.3782326E-1,-1.1801059E0,8.8763314E-1,2.4217274E-2,3.1971385E0,-3.3205688E-1,-3.127897E0,9.553058E0,2.7916017E-1,7.333277E-2,2.6894577E0,-1.4661568E0,6.1283364E0,4.4680743E0,1.5436919E0,7.5023866E0,1.5371536E1,2.4285305E0,7.331225E0,7.237938E0,3.1604671E0,-1.9728969E0,2.2412574E0,-4.028562E-1,1.8357639E0,-1.3431928E1,-6.7434233E-1],"categories":[],"categories_nodes":[],"categories_segments":[],"categories_sizes":[],"default_left":[0,0,0,0,0,0,0,0,0,0,0,0,0,0,0,0,0,0,0,0,0,0,0,0,0,0,0,0,0,0,0,0,0,0,0,0,0,0,0,0,0,0,0,0,0,0,0,0,0,0,0,0,0,0,0,0,0,0,0,0,0],"id":20,"left_children":[1,3,5,7,9,11,13,15,17,19,21,23,25,27,29,31,33,-1,35,37,39,41,43,45,47,49,51,53,55,57,59,-1,-1,-1,-1,-1,-1,-1,-1,-1,-1,-1,-1,-1,-1,-1,-1,-1,-1,-1,-1,-1,-1,-1,-1,-1,-1,-1,-1,-1,-1],"loss_changes":[7.3113444E5,1.3354256E5,1.1554881E5,9.048144E4,5.181016E4,1.2494044E5,1.0628672E5,2.30065E4,1.3759092E5,3.2461021E4,3.4932406E4,3.5175016E4,3.542672E4,1.1717403E5,2.6829775E5,1.6308719E4,8.076E4,0E0,4.9748828E2,9.459241E4,2.0825744E4,2.5659236E4,4.032035E4,1.7681414E4,4.2135734E4,2.8192719E4,1.0378738E4,5.672897E4,6.832269E4,9.515719E4,4.122176E5,0E0,0E0,0E0,0E0,0E0,0E0,0E0,0E0,0E0,0E0,0E0,0E0,0E0,0E0,0E0,0E0,0E0,0E0,0E0,0E0,0E0,0E0,0E0,0E0,0E0,0E0,0E0,0E0,0E0,0E0],"parents":[2147483647,0,0,1,1,2,2,3,3,4,4,5,5,6,6,7,7,8,8,9,9,10,10,11,11,12,12,13,13,14,14,15,15,16,16,18,18,19,19,20,20,21,21,22,22,23,23,24,24,25,25,26,26,27,27,28,28,29,29,30,30],"right_children":[2,4,6,8,10,12,14,16,18,20,22,24,26,28,30,32,34,-1,36,38,40,42,44,46,48,50,52,54,56,58,60,-1,-1,-1,-1,-1,-1,-1,-1,-1,-1,-1,-1,-1,-1,-1,-1,-1,-1,-1,-1,-1,-1,-1,-1,-1,-1,-1,-1,-1,-1],"split_conditions":[1.5E2,6.275714E1,3.65E0,1.72E2,1E1,3.6125E0,1.4995833E1,3.4533333E1,8.02E0,6.2125E0,6.1916668E1,1.15625E2,1.85E2,8.4833336E1,7.2416664E1,3.01E2,2.1541666E1,-3.4452892E1,3.62E1,6.1041665E0,1.41E1,4.96E1,2.4408333E2,1.28E2,5.2958332E1,2.68E2,2.6742856E2,7.5458336E1,2.2366667E2,7E0,5E0,-7.450361E-1,3.8605484E-1,3.9922073E0,-5.3782326E-1,-1.1801059E0,8.8763314E-1,2.4217274E-2,3.1971385E0,-3.3205688E-1,-3.127897E0,9.553058E0,2.7916017E-1,7.333277E-2,2.6894577E0,-1.4661568E0,6.1283364E0,4.4680743E0,1.5436919E0,7.5023866E0,1.5371536E1,2.4285305E0,7.331225E0,7.237938E0,3.1604671E0,-1.9728969E0,2.2412574E0,-4.028562E-1,1.8357639E0,-1.3431928E1,-6.7434233E-1],"split_indices":[0,4,10,1,6,10,8,8,0,10,9,11,2,9,9,11,9,0,0,10,12,0,11,1,9,0,4,9,11,6,7,0,0,0,0,0,0,0,0,0,0,0,0,0,0,0,0,0,0,0,0,0,0,0,0,0,0,0,0,0,0],"split_type":[0,0,0,0,0,0,0,0,0,0,0,0,0,0,0,0,0,0,0,0,0,0,0,0,0,0,0,0,0,0,0,0,0,0,0,0,0,0,0,0,0,0,0,0,0,0,0,0,0,0,0,0,0,0,0,0,0,0,0,0,0],"sum_hessian":[1.2574E4,1.0214E4,2.36E3,5.786E3,4.428E3,3.95E2,1.965E3,5.782E3,4E0,3.589E3,8.39E2,3.48E2,4.7E1,4.67E2,1.498E3,5.495E3,2.87E2,1E0,3E0,1.448E3,2.141E3,5.86E2,2.53E2,3.5E1,3.13E2,2.7E1,2E1,3.14E2,1.53E2,1.269E3,2.29E2,5.365E3,1.3E2,4.6E1,2.41E2,2E0,1E0,1.348E3,1E2,2.115E3,2.6E1,2E0,5.84E2,9.3E1,1.6E2,3E0,3.2E1,6.1E1,2.52E2,1.9E1,8E0,1.3E1,7E0,3.9E1,2.75E2,7E1,8.3E1,2.32E2,1.037E3,2.8E1,2.01E2],"tree_param":{"num_deleted":"0","num_feature":"13","num_nodes":"61","size_leaf_vector":"1"}},{"base_weights":[-1.2009771E-2,-3.3767033E0,1.4181138E1,-5.936719E0,7.3448944E-1,1.0386538E1,2.4862926E1,-5.842536E0,-1.2268495E2,-1.1303619E0,7.3027554E0,2.5659206E1,7.7336397E0,3.420598E1,1.7117586E1,-8.1414585E0,-4.2793794E0,1.0295052E1,-3.273025E1,1.4342363E1,-2.1785028E0,3.291403E1,5.919586E0,1.8521763E1,9.0007385E1,3.6417408E1,6.0068164E0,3.644538E1,-1.5452644E1,-8.809797E0,2.3238644E1,-1.3152156E0,-7.4852294E-1,-3.879243E-1,-1.4822103E0,2.842504E0,-2.2047455E0,2.2425354E0,4.4698663E-2,-1.6490495E-1,-2.6341412E0,9.708911E0,2.7546425E0,1.6357402E0,3.1238124E-1,-8.334548E-1,2.3349297E0,1.1016223E1,4.4642004E-1,5.6601653E0,1.5864228E0,1.0339183E0,-6.288143E-1,-4.4004413E-1,3.834021E0,-1.5419388E-2,-1.6714667E0,-2.153204E0,9.679471E-1,4.182654E0,2.0070236E0],"categories":[],"categories_nodes":[],"categories_segments":[],"categories_sizes":[],"default_left":[0,0,0,0,0,0,0,0,0,0,0,0,0,0,0,0,0,0,0,0,0,0,0,0,0,0,0,0,0,0,0,0,0,0,0,0,0,0,0,0,0,0,0,0,0,0,0,0,0,0,0,0,0,0,0,0,0,0,0,0,0],"id":21,"left_children":[1,3,5,7,9,11,13,15,17,19,21,23,25,27,29,31,33,35,-1,37,39,41,43,45,47,49,51,53,55,57,59,-1,-1,-1,-1,-1,-1,-1,-1,-1,-1,-1,-1,-1,-1,-1,-1,-1,-1,-1,-1,-1,-1,-1,-1,-1,-1,-1,-1,-1,-1],"loss_changes":[6.005745E5,1.0699865E5,9.742659E4,6.817103E4,4.7803227E4,7.1921516E4,4.5076875E4,2.2464531E4,1.3941981E5,4.9332746E4,3.0376691E4,1.1912395E5,7.4970516E4,3.225675E4,5.527467E4,8.230484E3,1.5673391E4,2.9721765E3,0E0,2.1667E4,3.639141E4,1.2482059E4,2.3877953E4,3.1051242E4,4.4335062E4,3.477918E4,7.639556E4,2.1297781E4,2.4841333E2,1.5968492E4,1.5709766E4,0E0,0E0,0E0,0E0,0E0,0E0,0E0,0E0,0E0,0E0,0E0,0E0,0E0,0E0,0E0,0E0,0E0,0E0,0E0,0E0,0E0,0E0,0E0,0E0,0E0,0E0,0E0,0E0,0E0,0E0],"parents":[2147483647,0,0,1,1,2,2,3,3,4,4,5,5,6,6,7,7,8,8,9,9,10,10,11,11,12,12,13,13,14,14,15,15,16,16,17,17,19,19,20,20,21,21,22,22,23,23,24,24,25,25,26,26,27,27,28,28,29,29,30,30],"right_children":[2,4,6,8,10,12,14,16,18,20,22,24,26,28,30,32,34,36,-1,38,40,42,44,46,48,50,52,54,56,58,60,-1,-1,-1,-1,-1,-1,-1,-1,-1,-1,-1,-1,-1,-1,-1,-1,-1,-1,-1,-1,-1,-1,-1,-1,-1,-1,-1,-1,-1,-1],"split_conditions":[1.533E2,6.6E1,2.58E2,1.2E1,1E1,3.65E0,5.5916667E0,3.41E1,1.67E2,1.40875E1,2.5916667E0,2.6466666E2,1.1433333E1,8.9041664E1,5.8791666E0,1.57E1,1.21E1,6.04E1,-3.273025E1,2.9875E2,1.85E2,4E0,4.9625E1,2.3208334E0,2.31E2,6.1291666E0,7.7125E1,1.9485715E2,1.32E2,1.7420834E1,4.9625E1,-1.3152156E0,-7.4852294E-1,-3.879243E-1,-1.4822103E0,2.842504E0,-2.2047455E0,2.2425354E0,4.4698663E-2,-1.6490495E-1,-2.6341412E0,9.708911E0,2.7546425E0,1.6357402E0,3.1238124E-1,-8.334548E-1,2.3349297E0,1.1016223E1,4.4642004E-1,5.6601653E0,1.5864228E0,1.0339183E0,-6.288143E-1,-4.4004413E-1,3.834021E0,-1.5419388E-2,-1.6714667E0,-2.153204E0,9.679471E-1,4.182654E0,2.0070236E0],"split_indices":[4,0,2,6,6,10,10,0,1,8,10,11,8,9,10,0,10,0,0,11,0,7,9,10,3,10,9,4,3,8,9,0,0,0,0,0,0,0,0,0,0,0,0,0,0,0,0,0,0,0,0,0,0,0,0,0,0,0,0,0,0],"split_type":[0,0,0,0,0,0,0,0,0,0,0,0,0,0,0,0,0,0,0,0,0,0,0,0,0,0,0,0,0,0,0,0,0,0,0,0,0,0,0,0,0,0,0,0,0,0,0,0,0,0,0,0,0,0,0,0,0,0,0,0,0],"sum_hessian":[1.2574E4,1.0165E4,2.409E3,6.264E3,3.901E3,1.779E3,6.3E2,6.26E3,4E0,3.039E3,8.62E2,2.62E2,1.517E3,2.84E2,3.46E2,2.532E3,3.728E3,3E0,1E0,1.92E2,2.847E3,4.3E1,8.19E2,2.37E2,2.5E1,8.5E1,1.432E3,2.72E2,1.2E1,6.6E1,2.8E2,2.91E2,2.241E3,3.593E3,1.35E2,2E0,1E0,1.21E2,7.1E1,2.787E3,6E1,2E0,4.1E1,1.72E2,6.47E2,3.6E1,2.01E2,2E1,5E0,4.2E1,4.3E1,1.059E3,3.73E2,1.2E1,2.6E2,1E0,1.1E1,3.9E1,2.7E1,3.9E1,2.41E2],"tree_param":{"num_deleted":"0","num_feature":"13","num_nodes":"61","size_leaf_vector":"1"}},{"base_weights":[-1.0395555E-2,-3.0099492E0,1.2967348E1,-4.8076677E0,1.9803959E0,8.546471E0,2.096212E1,-4.733226E0,-9.712087E1,-3.1179814E0,5.0715303E0,1.4371007E1,-5.9477925E0,1.5645416E1,3.0141785E1,-7.0869107E0,-3.2115831E0,7.8299003E0,-3.1093739E1,-1.8537844E0,-2.6664469E1,1.1598057E1,1.3286582E0,8.703442E0,3.3790268E1,1.1153686E1,-4.470079E1,1.9446737E1,-7.1682234E0,8.317503E0,3.619974E1,-4.9190703E-1,-9.720831E-1,-3.7246618E-1,5.358144E-1,3.2509668E0,-6.467458E-1,2.937328E-1,-5.450253E-1,-3.44962E0,2.0722084E0,4.5224223E-1,2.499373E0,-2.2930324E0,2.1212249E-1,2.0616593E0,-2.8047627E-2,3.9136722E0,5.9334155E-2,-4.1126376E-1,2.3536618E0,-1.8980591E0,-2.8263645E1,1.2685868E0,3.126293E0,-4.8436694E0,3.59732E-1,4.5836945E0,-3.1660542E-1,9.006092E0,3.0075924E0],"categories":[],"categories_nodes":[],"categories_segments":[],"categories_sizes":[],"default_left":[0,0,0,0,0,0,0,0,0,0,0,0,0,0,0,0,0,0,0,0,0,0,0,0,0,0,0,0,0,0,0,0,0,0,0,0,0,0,0,0,0,0,0,0,0,0,0,0,0,0,0,0,0,0,0,0,0,0,0,0,0],"id":22,"left_children":[1,3,5,7,9,11,13,15,17,19,21,23,25,27,29,31,33,35,-1,37,39,41,43,45,47,49,51,53,55,57,59,-1,-1,-1,-1,-1,-1,-1,-1,-1,-1,-1,-1,-1,-1,-1,-1,-1,-1,-1,-1,-1,-1,-1,-1,-1,-1,-1,-1,-1,-1],"loss_changes":[4.895516E5,9.165068E4,8.326778E4,5.1148844E4,4.266175E4,1.2857633E5,4.0525125E4,2.685614E4,1.3707586E5,3.0372855E4,4.1145695E4,1.1923097E5,2.9011316E5,4.6448938E4,4.028753E4,1.677361E4,2.0070027E4,1.9745322E3,0E0,1.6747393E4,2.0013012E4,5.808365E4,2.0659832E4,9.012234E4,4.3460812E4,5.756551E4,8.1468225E5,3.6191984E4,3.438361E4,2.9443373E4,7.645197E4,0E0,0E0,0E0,0E0,0E0,0E0,0E0,0E0,0E0,0E0,0E0,0E0,0E0,0E0,0E0,0E0,0E0,0E0,0E0,0E0,0E0,0E0,0E0,0E0,0E0,0E0,0E0,0E0,0E0,0E0],"parents":[2147483647,0,0,1,1,2,2,3,3,4,4,5,5,6,6,7,7,8,8,9,9,10,10,11,11,12,12,13,13,14,14,15,15,16,16,17,17,19,19,20,20,21,21,22,22,23,23,24,24,25,25,26,26,27,27,28,28,29,29,30,30],"right_children":[2,4,6,8,10,12,14,16,18,20,22,24,26,28,30,32,34,36,-1,38,40,42,44,46,48,50,52,54,56,58,60,-1,-1,-1,-1,-1,-1,-1,-1,-1,-1,-1,-1,-1,-1,-1,-1,-1,-1,-1,-1,-1,-1,-1,-1,-1,-1,-1,-1,-1,-1],"split_conditions":[1.5E2,8.01E1,2.2E2,3.3E2,2.4E2,7.2416664E1,1.2E1,3.83E1,1.38E2,8.3125E1,2.7254166E2,6.225E1,1.5704166E1,2.98E2,5.7E1,7.1208334E0,3.49375E1,8.02E0,-3.1093739E1,2E0,2.13E2,1.1E2,2.7479166E2,5.2125E1,6E0,1.7895833E2,2.06E2,2.58E2,2.9916666E2,4.9375E1,6.5916664E1,-4.9190703E-1,-9.720831E-1,-3.7246618E-1,5.358144E-1,3.2509668E0,-6.467458E-1,2.937328E-1,-5.450253E-1,-3.44962E0,2.0722084E0,4.5224223E-1,2.499373E0,-2.2930324E0,2.1212249E-1,2.0616593E0,-2.8047627E-2,3.9136722E0,5.9334155E-2,-4.1126376E-1,2.3536618E0,-1.8980591E0,-2.8263645E1,1.2685868E0,3.126293E0,-4.8436694E0,3.59732E-1,4.5836945E0,-3.1660542E-1,9.006092E0,3.0075924E0],"split_indices":[0,0,3,3,11,9,6,3,1,9,11,9,8,11,9,10,8,0,0,5,2,3,11,9,5,11,3,2,11,9,9,0,0,0,0,0,0,0,0,0,0,0,0,0,0,0,0,0,0,0,0,0,0,0,0,0,0,0,0,0,0],"split_type":[0,0,0,0,0,0,0,0,0,0,0,0,0,0,0,0,0,0,0,0,0,0,0,0,0,0,0,0,0,0,0,0,0,0,0,0,0,0,0,0,0,0,0,0,0,0,0,0,0,0,0,0,0,0,0,0,0,0,0,0,0],"sum_hessian":[1.2574E4,1.0214E4,2.36E3,7.509E3,2.705E3,1.521E3,8.39E2,7.504E3,5E0,1.021E3,1.684E3,1.085E3,4.36E2,5.33E2,3.06E2,2.945E3,4.559E3,4E0,1E0,9.7E2,5.1E1,6.13E2,1.071E3,8.41E2,2.44E2,3.03E2,1.33E2,4.57E2,7.6E1,6.7E1,2.39E2,1.617E3,1.328E3,4.302E3,2.57E2,1E0,3E0,4.16E2,5.54E2,4.4E1,7E0,4.02E2,2.11E2,3.3E1,1.038E3,3.61E2,4.8E2,2.1E2,3.4E1,1.36E2,1.67E2,1.21E2,1.2E1,2.92E2,1.65E2,1.5E1,6.1E1,1.5E1,5.2E1,2.3E1,2.16E2],"tree_param":{"num_deleted":"0","num_feature":"13","num_nodes":"61","size_leaf_vector":"1"}},{"base_weights":[-1.2263712E-2,-2.6847656E0,1.2173499E1,-4.2774878E0,2.0302336E0,9.995561E0,2.6949015E1,-4.209567E0,-1.081014E2,9.1484995E0,-4.194381E-1,2.9460682E1,8.572559E0,1.5637169E2,2.5507288E1,-1.8796504E0,-5.7470474E0,1.25685E1,-2.9539051E1,1.8469055E1,4.6741886E0,-3.4548965E1,4.440053E-2,3.7066593E1,6.0001645E0,-2.7498741E1,1.0793469E1,2.0469303E1,2.9864502E0,1.8103783E1,4.185778E1,1.3767824E-1,-3.9358005E-1,-4.788579E-1,-9.5166874E-1,3.0884187E0,-3.8314578E-1,1.3955034E0,4.2221904E0,2.7727633E0,1.2772925E-1,-6.79038E-1,-3.6579251E0,-5.156195E-1,1.679149E-1,1.2831687E1,3.4870918E0,2.6404026E0,-4.9062043E-1,-2.149983E1,7.830835E-1,1.2991365E0,-1.277824E-1,-2.2423947E-1,2.3856823E0,3.4816964E0,1.1936206E1],"categories":[],"categories_nodes":[],"categories_segments":[],"categories_sizes":[],"default_left":[0,0,0,0,0,0,0,0,0,0,0,0,0,0,0,0,0,0,0,0,0,0,0,0,0,0,0,0,0,0,0,0,0,0,0,0,0,0,0,0,0,0,0,0,0,0,0,0,0,0,0,0,0,0,0,0,0],"id":23,"left_children":[1,3,5,7,9,11,13,15,17,19,21,23,25,27,29,31,33,35,-1,37,39,41,43,45,47,49,51,-1,-1,53,55,-1,-1,-1,-1,-1,-1,-1,-1,-1,-1,-1,-1,-1,-1,-1,-1,-1,-1,-1,-1,-1,-1,-1,-1,-1,-1],"loss_changes":[4.095561E5,7.7463555E4,7.252216E4,5.391428E4,4.5428297E4,5.439736E4,5.0123062E4,2.759364E4,1.1671341E5,2.7729617E4,3.0697055E4,2.368836E4,1.477012E5,1.222593E4,3.4104906E4,2.0527785E4,1.672636E4,1.3198374E3,0E0,2.2570484E4,3.5360773E4,1.216916E3,1.6280844E4,1.5761391E4,7.695631E3,7.1048156E5,4.602211E4,0E0,0E0,2.3463969E4,4.441089E4,0E0,0E0,0E0,0E0,0E0,0E0,0E0,0E0,0E0,0E0,0E0,0E0,0E0,0E0,0E0,0E0,0E0,0E0,0E0,0E0,0E0,0E0,0E0,0E0,0E0,0E0],"parents":[2147483647,0,0,1,1,2,2,3,3,4,4,5,5,6,6,7,7,8,8,9,9,10,10,11,11,12,12,13,13,14,14,15,15,16,16,17,17,19,19,20,20,21,21,22,22,23,23,24,24,25,25,26,26,29,29,30,30],"right_children":[2,4,6,8,10,12,14,16,18,20,22,24,26,28,30,32,34,36,-1,38,40,42,44,46,48,50,52,-1,-1,54,56,-1,-1,-1,-1,-1,-1,-1,-1,-1,-1,-1,-1,-1,-1,-1,-1,-1,-1,-1,-1,-1,-1,-1,-1,-1,-1],"split_conditions":[1.587E2,8.351428E1,3.06E2,2.76E2,4.733333E0,3E0,1.24E2,5.325E1,5.89E1,1.79875E1,4.7791667E0,7.475E0,5E0,2.13E2,1.93625E1,2.7658333E1,8.420834E0,8.02E0,-2.9539051E1,1.7279167E1,1E0,1.1E2,4.5166668E1,1.6031429E2,1.68E2,1.54E2,2.9875E2,2.0469303E1,2.9864502E0,1.66E2,2.91375E2,1.3767824E-1,-3.9358005E-1,-4.788579E-1,-9.5166874E-1,3.0884187E0,-3.8314578E-1,1.3955034E0,4.2221904E0,2.7727633E0,1.2772925E-1,-6.79038E-1,-3.6579251E0,-5.156195E-1,1.679149E-1,1.2831687E1,3.4870918E0,2.6404026E0,-4.9062043E-1,-2.149983E1,7.830835E-1,1.2991365E0,-1.277824E-1,-2.2423947E-1,2.3856823E0,3.4816964E0,1.1936206E1],"split_indices":[4,4,0,3,10,7,2,9,1,8,10,10,7,1,8,8,10,0,0,8,5,0,9,4,3,2,11,0,0,3,11,0,0,0,0,0,0,0,0,0,0,0,0,0,0,0,0,0,0,0,0,0,0,0,0,0,0],"split_type":[0,0,0,0,0,0,0,0,0,0,0,0,0,0,0,0,0,0,0,0,0,0,0,0,0,0,0,0,0,0,0,0,0,0,0,0,0,0,0,0,0,0,0,0,0,0,0,0,0,0,0,0,0,0,0,0,0],"sum_hessian":[1.2574E4,1.0313E4,2.261E3,7.709E3,2.604E3,1.972E3,2.89E2,7.705E3,4E0,6.66E2,1.938E3,1.33E2,1.839E3,2E0,2.87E2,3.064E3,4.641E3,3E0,1E0,2.15E2,4.51E2,2.5E1,1.913E3,1E2,3.3E1,1.06E2,1.733E3,1E0,1E0,1.99E2,8.8E1,1.186E3,1.878E3,3.702E3,9.39E2,1E0,2E0,1.82E2,3.3E1,5.7E1,3.94E2,2E0,2.3E1,4.57E2,1.456E3,1E0,9.9E1,1.1E1,2.2E1,1.6E1,9E1,1.466E3,2.67E2,4.4E1,1.55E2,8.2E1,6E0],"tree_param":{"num_deleted":"0","num_feature":"13","num_nodes":"57","size_leaf_vector":"1"}},{"base_weights":[-9.822604E-3,-2.4186826E0,1.0973817E1,-3.373499E0,4.2278504E0,6.486349E0,1.6987555E1,3.3023155E0,-4.1093626E0,4.643721E0,-1.312592E2,1.3806983E1,1.0436685E0,2.0383121E1,4.887812E0,-1.4691946E1,5.0844636E0,-3.7764862E0,-1.6337002E1,6.5806737E0,-1.0501371E1,1.20683775E1,-2.8062098E1,3.5499159E-1,2.1978819E1,-4.172362E1,5.751609E0,3.8234016E1,1.628636E1,1.0569738E1,-4.0297764E1,-3.3082695E0,-5.396635E-1,1.3682166E0,2.1206407E-1,4.9536115E-1,-4.2629942E-1,-4.5663395E0,-1.0959362E0,4.7165284E-1,2.2203891E0,-4.0266234E-1,-1.8172315E0,2.9339974E0,-1.1237408E0,2.6970544E0,-5.681994E-1,1.1973677E0,3.57917E0,5.123816E-1,-8.628347E1,4.110387E0,2.5960654E-1,2.4314506E0,5.930391E0,-1.2981445E0,1.775692E0,-1.6329113E0,1.4372151E0,-5.116363E0,-1.2170569E0],"categories":[],"categories_nodes":[],"categories_segments":[],"categories_sizes":[],"default_left":[0,0,0,0,0,0,0,0,0,0,0,0,0,0,0,0,0,0,0,0,0,0,0,0,0,0,0,0,0,0,0,0,0,0,0,0,0,0,0,0,0,0,0,0,0,0,0,0,0,0,0,0,0,0,0,0,0,0,0,0,0],"id":24,"left_children":[1,3,5,7,9,11,13,15,17,19,21,23,25,27,29,31,33,35,37,39,41,43,-1,45,47,49,51,53,55,57,59,-1,-1,-1,-1,-1,-1,-1,-1,-1,-1,-1,-1,-1,-1,-1,-1,-1,-1,-1,-1,-1,-1,-1,-1,-1,-1,-1,-1,-1,-1],"loss_changes":[3.327365E5,6.546915E4,6.0933156E4,4.431932E4,7.363272E4,5.1663094E4,3.9588938E4,2.8808023E4,3.300533E4,3.7999688E4,8.901729E4,6.0782086E4,1.5024264E5,5.4518E4,5.5111793E4,1.3668232E4,2.0764354E4,3.3616977E4,3.3406523E4,3.3300445E4,7.2279395E3,1.5372897E3,0E0,3.3895566E4,4.711217E4,2.8509755E6,7.485866E4,3.9617625E4,2.6700125E4,1.9667979E4,6.7123438E3,0E0,0E0,0E0,0E0,0E0,0E0,0E0,0E0,0E0,0E0,0E0,0E0,0E0,0E0,0E0,0E0,0E0,0E0,0E0,0E0,0E0,0E0,0E0,0E0,0E0,0E0,0E0,0E0,0E0,0E0],"parents":[2147483647,0,0,1,1,2,2,3,3,4,4,5,5,6,6,7,7,8,8,9,9,10,10,11,11,12,12,13,13,14,14,15,15,16,16,17,17,18,18,19,19,20,20,21,21,23,23,24,24,25,25,26,26,27,27,28,28,29,29,30,30],"right_children":[2,4,6,8,10,12,14,16,18,20,22,24,26,28,30,32,34,36,38,40,42,44,-1,46,48,50,52,54,56,58,60,-1,-1,-1,-1,-1,-1,-1,-1,-1,-1,-1,-1,-1,-1,-1,-1,-1,-1,-1,-1,-1,-1,-1,-1,-1,-1,-1,-1,-1,-1],"split_conditions":[1.587E2,1E1,2.23E2,1.9729166E1,3.3E2,1.72E2,7.8333336E1,1.23E2,1.28E2,5E-1,1.17E2,5E0,1.54E2,1.585E1,1.5704166E1,5.483333E0,5.016667E0,2.1625E1,2.0641666E1,2.7833334E1,4.98E1,8.02E0,-2.8062098E1,1E0,5.9041668E1,2.1542857E2,1.3E1,2.5328572E2,1.6E2,7.8458336E1,2.03E2,-3.3082695E0,-5.396635E-1,1.3682166E0,2.1206407E-1,4.9536115E-1,-4.2629942E-1,-4.5663395E0,-1.0959362E0,4.7165284E-1,2.2203891E0,-4.0266234E-1,-1.8172315E0,2.9339974E0,-1.1237408E0,2.6970544E0,-5.681994E-1,1.1973677E0,3.57917E0,5.123816E-1,-8.628347E1,4.110387E0,2.5960654E-1,2.4314506E0,5.930391E0,-1.2981445E0,1.775692E0,-1.6329113E0,1.4372151E0,-5.116363E0,-1.2170569E0],"split_indices":[4,6,0,8,3,1,9,11,0,12,1,6,2,8,8,10,10,9,8,8,1,0,0,5,9,4,8,4,1,9,3,0,0,0,0,0,0,0,0,0,0,0,0,0,0,0,0,0,0,0,0,0,0,0,0,0,0,0,0,0,0],"split_type":[0,0,0,0,0,0,0,0,0,0,0,0,0,0,0,0,0,0,0,0,0,0,0,0,0,0,0,0,0,0,0,0,0,0,0,0,0,0,0,0,0,0,0,0,0,0,0,0,0,0,0,0,0,0,0,0,0,0,0,0,0],"sum_hessian":[1.2574E4,1.0313E4,2.261E3,9.018E3,1.295E3,1.296E3,9.65E2,8.95E2,8.123E3,1.292E3,3E0,5.52E2,7.44E2,7.53E2,2.12E2,8E1,8.15E2,7.909E3,2.14E2,1.146E3,1.46E2,2E0,1E0,2.09E2,3.43E2,7.3E1,6.71E2,1.39E2,6.14E2,1.89E2,2.3E1,2.6E1,5.4E1,2.08E2,6.07E2,4.17E2,7.492E3,3.2E1,1.82E2,1.025E3,1.21E2,8E1,6.6E1,1E0,1E0,3.8E1,1.71E2,2E2,1.43E2,7E1,3E0,5.4E1,6.17E2,8.5E1,5.4E1,2.9E1,5.85E2,2.3E1,1.66E2,1.6E1,7E0],"tree_param":{"num_deleted":"0","num_feature":"13","num_nodes":"61","size_leaf_vector":"1"}},{"base_weights":[-1.7255628E-2,-3.0722969E0,7.121446E0,-5.330504E0,-1.5613947E0,4.5737214E0,1.62641E1,-5.1981983E0,-1.5914462E2,-8.4657574E-1,-5.9854965E0,1.6167606E1,2.8938248E0,1.7564392E1,-1.34386E1,-4.615238E0,-9.823534E0,2.787298E0,-2.665899E1,-1.5452925E0,1.1214599E1,-3.195759E0,-1.3573788E1,1.0881162E1,6.248545E1,3.872873E0,-2.8523027E1,2.9725016E1,1.1946987E1,-2.164404E1,2.112455E0,-4.817513E-1,7.014887E-1,-1.2882904E0,-8.124019E-1,-2.4017705E-2,-4.6110582E-1,5.622998E0,-6.642624E-2,9.869384E-1,-4.4373566E-1,-4.4771782E-1,-2.0581276E0,5.93066E0,8.748538E-1,4.2746882E0,1.2133787E1,-4.201179E-1,7.065189E-1,-5.34558E1,1.3459613E0,4.455787E0,1.9901539E0,1.3801776E0,-3.6967628E0,-1.366709E0,-3.4892433E0,5.962091E0,-1.3763711E0],"categories":[],"categories_nodes":[],"categories_segments":[],"categories_sizes":[],"default_left":[0,0,0,0,0,0,0,0,0,0,0,0,0,0,0,0,0,0,0,0,0,0,0,0,0,0,0,0,0,0,0,0,0,0,0,0,0,0,0,0,0,0,0,0,0,0,0,0,0,0,0,0,0,0,0,0,0,0,0],"id":25,"left_children":[1,3,5,7,9,11,13,15,17,19,21,23,25,27,29,31,33,-1,-1,35,37,39,41,43,45,47,49,51,53,55,57,-1,-1,-1,-1,-1,-1,-1,-1,-1,-1,-1,-1,-1,-1,-1,-1,-1,-1,-1,-1,-1,-1,-1,-1,-1,-1,-1,-1],"loss_changes":[2.742704E5,3.0040531E4,8.771683E4,7.1009695E4,1.6686248E4,5.7389484E4,3.194486E4,9.467516E3,6.771315E4,3.831961E4,1.5494916E4,9.065166E4,7.9375414E4,5.3405766E4,4.511835E3,7.408828E3,1.9439219E3,0E0,0E0,1.7191955E4,1.3318548E5,8.771041E3,1.24655E4,3.418096E4,3.8956375E4,6.446699E4,1.6642802E6,3.5249375E4,4.950242E4,1.9538037E3,1.2689784E4,0E0,0E0,0E0,0E0,0E0,0E0,0E0,0E0,0E0,0E0,0E0,0E0,0E0,0E0,0E0,0E0,0E0,0E0,0E0,0E0,0E0,0E0,0E0,0E0,0E0,0E0,0E0,0E0],"parents":[2147483647,0,0,1,1,2,2,3,3,4,4,5,5,6,6,7,7,8,8,9,9,10,10,11,11,12,12,13,13,14,14,15,15,16,16,19,19,20,20,21,21,22,22,23,23,24,24,25,25,26,26,27,27,28,28,29,29,30,30],"right_children":[2,4,6,8,10,12,14,16,18,20,22,24,26,28,30,32,34,-1,-1,36,38,40,42,44,46,48,50,52,54,56,58,-1,-1,-1,-1,-1,-1,-1,-1,-1,-1,-1,-1,-1,-1,-1,-1,-1,-1,-1,-1,-1,-1,-1,-1,-1,-1,-1,-1],"split_conditions":[1.05E2,4.12E1,2.2985715E2,1.2E1,9.566667E0,3.65E0,6E-1,1.46E1,8.02E0,3.4533333E1,3.2841667E1,2.6770834E2,2.2228572E2,1.585E1,2.81E2,1.35E1,1E0,2.787298E0,-2.665899E1,2.9154167E1,2.1541666E1,3.6E1,9.945833E0,3E0,2.68E2,2.1345833E2,5E0,7.7833336E1,7.6375E1,2.06E2,2.5328572E2,-4.817513E-1,7.014887E-1,-1.2882904E0,-8.124019E-1,-2.4017705E-2,-4.6110582E-1,5.622998E0,-6.642624E-2,9.869384E-1,-4.4373566E-1,-4.4771782E-1,-2.0581276E0,5.93066E0,8.748538E-1,4.2746882E0,1.2133787E1,-4.201179E-1,7.065189E-1,-5.34558E1,1.3459613E0,4.455787E0,1.9901539E0,1.3801776E0,-3.6967628E0,-1.366709E0,-3.4892433E0,5.962091E0,-1.3763711E0],"split_indices":[0,0,4,6,10,10,12,12,1,8,8,11,4,8,1,12,5,0,0,8,9,1,10,7,0,11,7,9,9,3,4,0,0,0,0,0,0,0,0,0,0,0,0,0,0,0,0,0,0,0,0,0,0,0,0,0,0,0,0],"split_type":[0,0,0,0,0,0,0,0,0,0,0,0,0,0,0,0,0,0,0,0,0,0,0,0,0,0,0,0,0,0,0,0,0,0,0,0,0,0,0,0,0,0,0,0,0,0,0,0,0,0,0,0,0,0,0,0,0,0,0],"sum_hessian":[1.2574E4,8.806E3,3.768E3,3.529E3,5.277E3,2.948E3,8.2E2,3.527E3,2E0,4.544E3,7.33E2,3.72E2,2.576E3,7.86E2,3.4E1,3.134E3,3.93E2,1E0,1E0,4.296E3,2.48E2,5.37E2,1.96E2,3.35E2,3.7E1,2.499E3,7.7E1,2.47E2,5.39E2,2.2E1,1.2E1,3.081E3,5.3E1,1.38E2,2.55E2,3.014E3,1.282E3,5.1E1,1.97E2,4.6E1,4.91E2,8.6E1,1.1E2,1.3E1,3.22E2,2.9E1,8E0,7.08E2,1.791E3,5E0,7.2E1,9.7E1,1.5E2,5.2E2,1.9E1,1.5E1,7E0,2E0,1E1],"tree_param":{"num_deleted":"0","num_feature":"13","num_nodes":"59","size_leaf_vector":"1"}},{"base_weights":[-1.9298362E-2,-1.6555883E0,1.0961212E1,-2.9666812E0,2.781368E0,2.2476294E0,1.42591305E1,-5.4238596E0,-1.9131032E0,2.3527824E1,2.0226672E0,1.7948784E1,-3.275742E0,3.3021095E1,1.2207963E1,-5.2088866E0,-1.4014584E2,4.9948564E0,-2.3537457E0,1.2812041E1,5.156941E1,4.052344E0,-8.035491E0,-3.1499205E0,3.3198586E1,7.611786E0,-1.5529351E1,-1.052226E1,4.3903027E1,1.8941107E1,3.982727E0,-5.273137E-1,5.0711884E0,-2.5326044E1,-1.8020823E0,-2.3918875E-1,5.228907E0,-9.238016E-2,-4.3333194E-1,-1.4313294E0,1.6870216E0,1.12404175E1,4.0929694E0,3.474748E0,2.908105E-1,-5.814956E0,1.19256094E-1,2.1382463E0,-6.98121E-1,3.9906743E0,-2.2100928E0,3.0980105E-2,3.831396E0,-2.0922718E0,3.868176E-1,9.572983E-3,-1.4900004E0,5.0890646E0,2.828615E0,-4.3245494E-2,2.8214178E0,-2.1238022E0,1.1497568E0],"categories":[],"categories_nodes":[],"categories_segments":[],"categories_sizes":[],"default_left":[0,0,0,0,0,0,0,0,0,0,0,0,0,0,0,0,0,0,0,0,0,0,0,0,0,0,0,0,0,0,0,0,0,0,0,0,0,0,0,0,0,0,0,0,0,0,0,0,0,0,0,0,0,0,0,0,0,0,0,0,0,0,0],"id":26,"left_children":[1,3,5,7,9,11,13,15,17,19,21,23,25,27,29,31,33,35,37,39,41,43,45,47,49,51,53,55,57,59,61,-1,-1,-1,-1,-1,-1,-1,-1,-1,-1,-1,-1,-1,-1,-1,-1,-1,-1,-1,-1,-1,-1,-1,-1,-1,-1,-1,-1,-1,-1,-1,-1],"loss_changes":[2.259569E5,6.3678188E4,4.68375E4,2.186264E4,3.9256086E4,3.8997562E4,4.5123375E4,7.268763E4,1.801666E4,2.5782195E4,4.923225E4,3.7749445E4,4.4544242E4,5.542689E4,5.907222E4,9.364719E3,5.0692523E4,1.2414441E5,1.5737404E4,7.396627E3,1.0933676E4,7.0354805E4,1.8736369E5,4.8488086E3,2.610711E4,3.96692E4,1.6505957E4,1.1170144E3,8.709125E3,1.0546817E5,9.159759E4,0E0,0E0,0E0,0E0,0E0,0E0,0E0,0E0,0E0,0E0,0E0,0E0,0E0,0E0,0E0,0E0,0E0,0E0,0E0,0E0,0E0,0E0,0E0,0E0,0E0,0E0,0E0,0E0,0E0,0E0,0E0,0E0],"parents":[2147483647,0,0,1,1,2,2,3,3,4,4,5,5,6,6,7,7,8,8,9,9,10,10,11,11,12,12,13,13,14,14,15,15,16,16,17,17,18,18,19,19,20,20,21,21,22,22,23,23,24,24,25,25,26,26,27,27,28,28,29,29,30,30],"right_children":[2,4,6,8,10,12,14,16,18,20,22,24,26,28,30,32,34,36,38,40,42,44,46,48,50,52,54,56,58,60,62,-1,-1,-1,-1,-1,-1,-1,-1,-1,-1,-1,-1,-1,-1,-1,-1,-1,-1,-1,-1,-1,-1,-1,-1,-1,-1,-1,-1,-1,-1,-1,-1],"split_conditions":[1.85E2,9.69E1,1.1E1,3.41E1,1.1433333E1,1.3E1,4.7416668E1,1.72E2,2.1625E1,1.1341666E1,7.7208336E1,1.88E2,5.425E0,2.0083334E1,1.79875E1,1.1E1,8.02E0,9.008333E0,2.8520834E1,1.08E2,4E0,1.4995833E1,7.7833336E1,7E0,2.9958334E2,2.7691668E1,7.1208334E0,1.6E1,2.81E2,2E0,1.8958334E1,-5.273137E-1,5.0711884E0,-2.5326044E1,-1.8020823E0,-2.3918875E-1,5.228907E0,-9.238016E-2,-4.3333194E-1,-1.4313294E0,1.6870216E0,1.12404175E1,4.0929694E0,3.474748E0,2.908105E-1,-5.814956E0,1.19256094E-1,2.1382463E0,-6.98121E-1,3.9906743E0,-2.2100928E0,3.0980105E-2,3.831396E0,-2.0922718E0,3.868176E-1,9.572983E-3,-1.4900004E0,5.0890646E0,2.828615E0,-4.3245494E-2,2.8214178E0,-2.1238022E0,1.1497568E0],"split_indices":[0,0,6,0,8,8,9,1,9,8,9,2,10,8,8,6,0,10,8,2,7,8,9,7,11,8,10,7,0,5,8,0,0,0,0,0,0,0,0,0,0,0,0,0,0,0,0,0,0,0,0,0,0,0,0,0,0,0,0,0,0,0,0],"split_type":[0,0,0,0,0,0,0,0,0,0,0,0,0,0,0,0,0,0,0,0,0,0,0,0,0,0,0,0,0,0,0,0,0,0,0,0,0,0,0,0,0,0,0,0,0,0,0,0,0,0,0,0,0,0,0,0,0,0,0,0,0,0,0],"sum_hessian":[1.2574E4,1.0944E4,1.63E3,8.448E3,2.496E3,4.48E2,1.182E3,2.534E3,5.914E3,8.7E1,2.409E3,1.16E2,3.32E2,1.15E2,1.067E3,2.531E3,3E0,3.54E2,5.56E3,6.4E1,2.3E1,2.005E3,4.04E2,4.9E1,6.7E1,1.76E2,1.56E2,2.3E1,9.2E1,5.86E2,4.81E2,2.529E3,2E0,1E0,2E0,3.07E2,4.7E1,3.229E3,2.331E3,8E0,5.6E1,2E0,2.1E1,7.1E1,1.934E3,6.2E1,3.42E2,6E0,4.3E1,6E1,7E0,1.43E2,3.3E1,1.22E2,3.4E1,7E0,1.6E1,6.2E1,3E1,1.9E2,3.96E2,1.1E2,3.71E2],"tree_param":{"num_deleted":"0","num_feature":"13","num_nodes":"63","size_leaf_vector":"1"}},{"base_weights":[-1.6641047E-2,-1.7450122E0,8.522353E0,-3.7931552E0,2.455482E-1,6.331992E0,1.8055187E1,-3.7115886E0,-1.07902695E2,2.9436696E0,-1.9425002E0,1.8813131E1,4.2207136E0,1.9792038E1,-1.5500362E1,5.320607E0,-3.766149E0,1.6528017E1,-2.4059742E1,1.7065551E0,2.703136E1,-2.9658818E0,1.7386228E0,-2.0538685E1,2.3891815E1,1.4042793E1,-3.5801136E-1,8.773135E0,2.4315744E1,-1.9484573E1,3.4918824E-1,-3.6814874E-1,-5.169897E0,2.3943741E0,8.482838E-2,2.50293E-1,-1.9221236E0,3.6590867E0,1.8789443E-1,-1.7794563E-1,-1.9904085E0,-1.3880755E-1,1.3509101E0,-3.598151E0,-3.7266138E-1,3.4037652E0,1.2150468E0,3.0924044E0,7.818723E-1,3.698785E-1,-3.0661657E0,2.0241864E0,-1.2918924E0,2.2581985E0,1.3223162E1,-4.356308E-2,-2.2174737E0,-7.0975685E-1,1.5068108E0],"categories":[],"categories_nodes":[],"categories_segments":[],"categories_sizes":[],"default_left":[0,0,0,0,0,0,0,0,0,0,0,0,0,0,0,0,0,0,0,0,0,0,0,0,0,0,0,0,0,0,0,0,0,0,0,0,0,0,0,0,0,0,0,0,0,0,0,0,0,0,0,0,0,0,0,0,0,0,0],"id":27,"left_children":[1,3,5,7,9,11,13,15,17,19,21,23,25,27,29,-1,31,33,-1,35,37,39,41,43,45,47,49,51,53,55,57,-1,-1,-1,-1,-1,-1,-1,-1,-1,-1,-1,-1,-1,-1,-1,-1,-1,-1,-1,-1,-1,-1,-1,-1,-1,-1,-1,-1],"loss_changes":[1.8560364E5,4.264178E4,4.408936E4,4.3375062E4,3.1324426E4,4.532364E4,2.3327773E4,1.6199648E4,7.002178E4,7.075685E4,1.1043034E4,5.025472E4,6.633961E4,1.8528875E4,1.2697637E3,0E0,2.0700664E4,3.2851874E2,0E0,3.7730746E4,2.7822828E4,4.6044516E4,2.3498895E4,7.3950586E3,2.5913234E4,4.9036086E4,1.2390967E5,2.7876121E4,4.678264E4,8.1025586E2,6.54988E2,0E0,0E0,0E0,0E0,0E0,0E0,0E0,0E0,0E0,0E0,0E0,0E0,0E0,0E0,0E0,0E0,0E0,0E0,0E0,0E0,0E0,0E0,0E0,0E0,0E0,0E0,0E0,0E0],"parents":[2147483647,0,0,1,1,2,2,3,3,4,4,5,5,6,6,7,7,8,8,9,9,10,10,11,11,12,12,13,13,14,14,16,16,17,17,19,19,20,20,21,21,22,22,23,23,24,24,25,25,26,26,27,27,28,28,29,29,30,30],"right_children":[2,4,6,8,10,12,14,16,18,20,22,24,26,28,30,-1,32,34,-1,36,38,40,42,44,46,48,50,52,54,56,58,-1,-1,-1,-1,-1,-1,-1,-1,-1,-1,-1,-1,-1,-1,-1,-1,-1,-1,-1,-1,-1,-1,-1,-1,-1,-1,-1,-1],"split_conditions":[1.6514285E2,5.774286E1,2.6742856E2,2.76E2,6.2125E0,4.9625E1,6E-1,1.5704166E1,5.67E1,6.1041665E0,6.1916668E1,1.3641667E2,1.4995833E1,5.5583332E1,3.29E2,5.320607E0,1.19E2,8.02E0,-2.4059742E1,5.975E0,6.1458335E0,5.7875E1,2.3558332E1,1.67E2,2.8654166E2,7.7208336E1,7.6375E1,5.0875E1,2.2729166E1,1.5E2,2.75E2,-3.6814874E-1,-5.169897E0,2.3943741E0,8.482838E-2,2.50293E-1,-1.9221236E0,3.6590867E0,1.8789443E-1,-1.7794563E-1,-1.9904085E0,-1.3880755E-1,1.3509101E0,-3.598151E0,-3.7266138E-1,3.4037652E0,1.2150468E0,3.0924044E0,7.818723E-1,3.698785E-1,-3.0661657E0,2.0241864E0,-1.2918924E0,2.2581985E0,1.3223162E1,-4.356308E-2,-2.2174737E0,-7.0975685E-1,1.5068108E0],"split_indices":[4,4,4,3,10,9,12,8,1,10,9,11,8,9,1,0,0,0,0,10,10,9,8,1,11,9,9,9,8,3,0,0,0,0,0,0,0,0,0,0,0,0,0,0,0,0,0,0,0,0,0,0,0,0,0,0,0,0,0],"split_type":[0,0,0,0,0,0,0,0,0,0,0,0,0,0,0,0,0,0,0,0,0,0,0,0,0,0,0,0,0,0,0,0,0,0,0,0,0,0,0,0,0,0,0,0,0,0,0,0,0,0,0,0,0,0,0,0,0,0,0],"sum_hessian":[1.2574E4,1.0458E4,2.116E3,5.154E3,5.304E3,1.722E3,3.94E2,5.151E3,3E0,2.375E3,2.929E3,2.48E2,1.474E3,3.75E2,1.9E1,4E0,5.147E3,2E0,1E0,2.26E3,1.15E2,2.292E3,6.37E2,2.8E1,2.2E2,4.68E2,1.006E3,1.1E2,2.65E2,1.5E1,4E0,5.139E3,8E0,1E0,1E0,2.178E3,8.2E1,8.3E1,3.2E1,2.143E3,1.49E2,5.04E2,1.33E2,1.4E1,1.4E1,1.17E2,1.03E2,1.25E2,3.43E2,8.88E2,1.18E2,7.2E1,3.8E1,2.62E2,3E0,2E0,1.3E1,3E0,1E0],"tree_param":{"num_deleted":"0","num_feature":"13","num_nodes":"59","size_leaf_vector":"1"}},{"base_weights":[-1.5294419E-2,-1.3730975E0,9.096398E0,-2.5791206E0,2.0631094E0,1.8096935E1,6.6499157E0,2.6624963E0,-2.9597228E0,1.387618E0,1.7656347E1,1.2158118E1,5.4087715E1,6.957854E-1,1.3608636E1,-5.6522155E0,1.1212836E1,-1.2865698E1,-2.674712E0,2.743505E0,-3.6206467E1,7.542005E0,3.875123E1,9.50917E-1,2.2359894E1,3.5393467E1,8.1742134E1,1.4000968E1,-4.5421896E0,2.9711403E1,6.444859E0,1.1537547E-2,-1.4253136E0,1.263881E-1,4.854288E0,-4.962809E-1,-2.24633E0,-3.1433907E-1,1.8567841E-1,3.8229364E-1,-1.0550629E0,-2.8846558E1,2.6157761E-2,6.455786E0,5.281378E-1,5.4714365E0,7.4776816E-1,2.877196E0,-3.7683797E-1,1.7788851E0,4.6949883E0,5.034456E0,1.6089333E0,1.2276968E1,5.8320184E0,3.0543964E0,-3.3312343E-2,2.188292E-1,-2.8027637E0,1.0805652E0,4.849841E0,4.938096E-1,7.3198256E0],"categories":[],"categories_nodes":[],"categories_segments":[],"categories_sizes":[],"default_left":[0,0,0,0,0,0,0,0,0,0,0,0,0,0,0,0,0,0,0,0,0,0,0,0,0,0,0,0,0,0,0,0,0,0,0,0,0,0,0,0,0,0,0,0,0,0,0,0,0,0,0,0,0,0,0,0,0,0,0,0,0,0,0],"id":28,"left_children":[1,3,5,7,9,11,13,15,17,19,21,23,25,27,29,31,33,35,37,39,41,43,45,47,49,51,53,55,57,59,61,-1,-1,-1,-1,-1,-1,-1,-1,-1,-1,-1,-1,-1,-1,-1,-1,-1,-1,-1,-1,-1,-1,-1,-1,-1,-1,-1,-1,-1,-1,-1,-1],"loss_changes":[1.5558894E5,4.536299E4,3.5793734E4,1.6171125E4,2.9931635E4,7.372485E4,5.3190664E4,